booster[0]
0:[f15<0.092515] yes=1,no=2,missing=2
	1:[f28<7846.000000] yes=3,no=4,missing=4
		3:[f1<0.025525] yes=7,no=8,missing=8
			7:[f1<-0.280351] yes=15,no=16,missing=16
				15:[f2<-0.299386] yes=31,no=32,missing=32
					31:leaf=0.049914 
					32:leaf=0.093131 
				16:[f15<0.046725] yes=33,no=34,missing=34
					33:leaf=-0.060000 
					34:leaf=0.050195 
			8:[f21<0.081288] yes=17,no=18,missing=18
				17:[f13<103.000000] yes=35,no=36,missing=36
					35:leaf=-0.164116 
					36:leaf=-0.079070 
				18:[f14<46.000000] yes=37,no=38,missing=38
					37:leaf=-0.151852 
					38:leaf=-0.002811 
		4:[f12<0.084524] yes=9,no=10,missing=10
			9:[f1<-0.127413] yes=19,no=20,missing=20
				19:[f3<0.166459] yes=39,no=40,missing=40
					39:leaf=-0.032476 
					40:leaf=-0.005608 
				20:[f15<0.067849] yes=41,no=42,missing=42
					41:leaf=-0.084290 
					42:leaf=-0.054884 
			10:[f2<-0.377234] yes=21,no=22,missing=22
				21:[f7<-1.150717] yes=43,no=44,missing=44
					43:leaf=-0.095726 
					44:leaf=-0.013417 
				22:[f1<4.365141] yes=45,no=46,missing=46
					45:leaf=0.041558 
					46:leaf=-0.102239 
	2:[f28<7846.000000] yes=5,no=6,missing=6
		5:[f1<-0.127413] yes=11,no=12,missing=12
			11:[f2<-0.333641] yes=23,no=24,missing=24
				23:[f5<-0.471016] yes=47,no=48,missing=48
					47:leaf=-0.029189 
					48:leaf=0.070189 
				24:[f37<7846.000000] yes=49,no=50,missing=50
					49:leaf=0.054545 
					50:leaf=0.114081 
			12:[f1<1.096091] yes=25,no=26,missing=26
				25:[f2<-0.321966] yes=51,no=52,missing=52
					51:leaf=-0.033564 
					52:leaf=0.065545 
				26:[f19<14291.000000] yes=53,no=54,missing=54
					53:leaf=-0.085908 
					54:leaf=0.027972 
		6:[f12<0.152395] yes=13,no=14,missing=14
			13:[f1<-0.012709] yes=27,no=28,missing=28
				27:[f13<188.500000] yes=55,no=56,missing=56
					55:leaf=0.010509 
					56:leaf=0.051435 
				28:[f12<0.032796] yes=57,no=58,missing=58
					57:leaf=-0.039282 
					58:leaf=0.011974 
			14:[f9<-0.427152] yes=29,no=30,missing=30
				29:[f8<-0.046603] yes=59,no=60,missing=60
					59:leaf=0.005431 
					60:leaf=-0.117895 
				30:[f37<14786.000000] yes=61,no=62,missing=62
					61:leaf=0.061265 
					62:leaf=0.091864 
booster[1]
0:[f15<0.082088] yes=1,no=2,missing=2
	1:[f1<-0.050944] yes=3,no=4,missing=4
		3:[f28<7846.000000] yes=7,no=8,missing=8
			7:[f1<-0.395054] yes=15,no=16,missing=16
				15:[f2<0.611733] yes=31,no=32,missing=32
					31:leaf=0.085884 
					32:leaf=-0.163921 
				16:[f15<0.045115] yes=33,no=34,missing=34
					33:leaf=-0.031042 
					34:leaf=0.055783 
			8:[f12<0.190909] yes=17,no=18,missing=18
				17:[f18<0.075194] yes=35,no=36,missing=36
					35:leaf=-0.040825 
					36:leaf=-0.013917 
				18:[f2<-0.400393] yes=37,no=38,missing=38
					37:leaf=-0.029449 
					38:leaf=0.053302 
		4:[f12<0.084524] yes=9,no=10,missing=10
			9:[f21<0.081288] yes=19,no=20,missing=20
				19:[f11<0.500000] yes=39,no=40,missing=40
					39:leaf=-0.052698 
					40:leaf=-0.097607 
				20:[f3<0.386423] yes=41,no=42,missing=42
					41:leaf=-0.077116 
					42:leaf=-0.034354 
			10:[f15<0.051024] yes=21,no=22,missing=22
				21:[f11<27.000000] yes=43,no=44,missing=44
					43:leaf=0.011526 
					44:leaf=0.112333 
				22:[f31<3654.000000] yes=45,no=46,missing=46
					45:leaf=0.028713 
					46:leaf=-0.032380 
	2:[f28<7846.000000] yes=5,no=6,missing=6
		5:[f1<-0.050944] yes=11,no=12,missing=12
			11:[f2<-0.331551] yes=23,no=24,missing=24
				23:[f1<-0.203882] yes=47,no=48,missing=48
					47:leaf=0.061124 
					48:leaf=-0.019395 
				24:[f3<-0.374979] yes=49,no=50,missing=50
					49:leaf=0.070829 
					50:leaf=0.101218 
			12:[f8<1.620783] yes=25,no=26,missing=26
				25:[f3<1.690576] yes=51,no=52,missing=52
					51:leaf=0.029299 
					52:leaf=-0.061238 
				26:[f2<0.385371] yes=53,no=54,missing=54
					53:leaf=-0.193583 
					54:leaf=-0.009702 
		6:[f12<0.152395] yes=13,no=14,missing=14
			13:[f1<-0.203882] yes=27,no=28,missing=28
				27:[f13<189.500000] yes=55,no=56,missing=56
					55:leaf=0.009733 
					56:leaf=0.045821 
				28:[f2<-0.429377] yes=57,no=58,missing=58
					57:leaf=-0.097618 
					58:leaf=-0.017666 
			14:[f37<14786.000000] yes=29,no=30,missing=30
				29:[f12<0.255435] yes=59,no=60,missing=60
					59:leaf=0.015691 
					60:leaf=0.059509 
				30:[f3<0.959636] yes=61,no=62,missing=62
					61:leaf=0.070909 
					62:leaf=0.105164 
booster[2]
0:[f15<0.092515] yes=1,no=2,missing=2
	1:[f28<7846.000000] yes=3,no=4,missing=4
		3:[f1<-0.203882] yes=7,no=8,missing=8
			7:[f2<-0.416284] yes=15,no=16,missing=16
				15:[f6<-0.710436] yes=31,no=32,missing=32
					31:leaf=-0.201992 
					32:leaf=-0.011101 
				16:[f18<0.075194] yes=33,no=34,missing=34
					33:leaf=0.041216 
					34:leaf=0.076660 
			8:[f21<0.081288] yes=17,no=18,missing=18
				17:[f11<7.500000] yes=35,no=36,missing=36
					35:leaf=-0.041695 
					36:leaf=-0.139682 
				18:[f15<0.064968] yes=37,no=38,missing=38
					37:leaf=-0.027926 
					38:leaf=0.042646 
		4:[f1<-0.012709] yes=9,no=10,missing=10
			9:[f12<0.133929] yes=19,no=20,missing=20
				19:[f3<0.068467] yes=39,no=40,missing=40
					39:leaf=-0.029972 
					40:leaf=-0.004770 
				20:[f2<-0.386505] yes=41,no=42,missing=42
					41:leaf=-0.025751 
					42:leaf=0.051202 
			10:[f12<0.084524] yes=21,no=22,missing=22
				21:[f2<-0.112950] yes=43,no=44,missing=44
					43:leaf=-0.054955 
					44:leaf=-0.079414 
				22:[f11<46.500000] yes=45,no=46,missing=46
					45:leaf=0.003980 
					46:leaf=0.078800 
	2:[f28<7846.000000] yes=5,no=6,missing=6
		5:[f1<-0.203882] yes=11,no=12,missing=12
			11:[f2<-0.338270] yes=23,no=24,missing=24
				23:[f7<-2.075379] yes=47,no=48,missing=48
					47:leaf=-0.193394 
					48:leaf=0.057521 
				24:[f37<7846.000000] yes=49,no=50,missing=50
					49:leaf=0.039123 
					50:leaf=0.094575 
			12:[f1<0.369636] yes=25,no=26,missing=26
				25:[f2<-0.321497] yes=51,no=52,missing=52
					51:leaf=-0.030289 
					52:leaf=0.060615 
				26:[f19<7846.000000] yes=53,no=54,missing=54
					53:leaf=-0.112482 
					54:leaf=0.007425 
		6:[f12<0.101724] yes=13,no=14,missing=14
			13:[f1<-0.012709] yes=27,no=28,missing=28
				27:[f13<188.500000] yes=55,no=56,missing=56
					55:leaf=0.008797 
					56:leaf=0.042786 
				28:[f9<-0.435480] yes=57,no=58,missing=58
					57:leaf=-0.115428 
					58:leaf=-0.022523 
			14:[f37<14786.000000] yes=29,no=30,missing=30
				29:[f12<0.262014] yes=59,no=60,missing=60
					59:leaf=0.009789 
					60:leaf=0.057571 
				30:[f11<21.500000] yes=61,no=62,missing=62
					61:leaf=0.067689 
					62:leaf=0.123158 
booster[3]
0:[f15<0.079240] yes=1,no=2,missing=2
	1:[f1<-0.127413] yes=3,no=4,missing=4
		3:[f28<7846.000000] yes=7,no=8,missing=8
			7:[f3<-1.772353] yes=15,no=16,missing=16
				15:[f14<5.500000] yes=31,no=32,missing=32
					31:leaf=0.010522 
					32:leaf=-0.209051 
				16:[f6<-2.546676] yes=33,no=34,missing=34
					33:leaf=-0.155454 
					34:leaf=0.057884 
			8:[f18<0.075194] yes=17,no=18,missing=18
				17:[f2<0.106077] yes=35,no=36,missing=36
					35:leaf=-0.020393 
					36:leaf=-0.051578 
				18:[f3<0.344706] yes=37,no=38,missing=38
					37:leaf=-0.018525 
					38:leaf=0.009090 
		4:[f12<0.078462] yes=9,no=10,missing=10
			9:[f11<0.500000] yes=19,no=20,missing=20
				19:[f3<-1.094135] yes=39,no=40,missing=40
					39:leaf=-0.091355 
					40:leaf=-0.019413 
				20:[f21<0.081288] yes=41,no=42,missing=42
					41:leaf=-0.082651 
					42:leaf=-0.051874 
			10:[f22<15082.000000] yes=21,no=22,missing=22
				21:[f12<0.258333] yes=43,no=44,missing=44
					43:leaf=-0.031640 
					44:leaf=0.018652 
				22:[f11<44.500000] yes=45,no=46,missing=46
					45:leaf=0.021107 
					46:leaf=0.112845 
	2:[f28<7846.000000] yes=5,no=6,missing=6
		5:[f1<-0.203882] yes=11,no=12,missing=12
			11:[f2<-0.343836] yes=23,no=24,missing=24
				23:[f15<0.082687] yes=47,no=48,missing=48
					47:leaf=-0.200537 
					48:leaf=0.045488 
				24:[f12<0.366667] yes=49,no=50,missing=50
					49:leaf=0.077276 
					50:leaf=0.115250 
			12:[f37<14786.000000] yes=25,no=26,missing=26
				25:[f1<1.096091] yes=51,no=52,missing=52
					51:leaf=0.016566 
					52:leaf=-0.050333 
				26:[f2<-0.322274] yes=53,no=54,missing=54
					53:leaf=-0.043964 
					54:leaf=0.059969 
		6:[f12<0.101724] yes=13,no=14,missing=14
			13:[f1<0.140229] yes=27,no=28,missing=28
				27:[f2<-0.405410] yes=55,no=56,missing=56
					55:leaf=-0.039005 
					56:leaf=0.014947 
				28:[f37<14786.000000] yes=57,no=58,missing=58
					57:leaf=-0.050207 
					58:leaf=-0.020791 
			14:[f3<0.966352] yes=29,no=30,missing=30
				29:[f9<-0.411568] yes=59,no=60,missing=60
					59:leaf=-0.008171 
					60:leaf=0.044262 
				30:[f37<14786.000000] yes=61,no=62,missing=62
					61:leaf=0.058980 
					62:leaf=0.091564 
booster[4]
0:[f15<0.092515] yes=1,no=2,missing=2
	1:[f1<0.025525] yes=3,no=4,missing=4
		3:[f28<7846.000000] yes=7,no=8,missing=8
			7:[f3<-1.772353] yes=15,no=16,missing=16
				15:[f1<-0.471523] yes=31,no=32,missing=32
					31:leaf=-0.003614 
					32:leaf=-0.195209 
				16:[f2<-0.415057] yes=33,no=34,missing=34
					33:leaf=-0.026019 
					34:leaf=0.053282 
			8:[f12<0.133929] yes=17,no=18,missing=18
				17:[f18<0.075194] yes=35,no=36,missing=36
					35:leaf=-0.029629 
					36:leaf=-0.007057 
				18:[f2<-0.381210] yes=37,no=38,missing=38
					37:leaf=-0.023540 
					38:leaf=0.044565 
		4:[f12<0.084524] yes=9,no=10,missing=10
			9:[f9<-0.133006] yes=19,no=20,missing=20
				19:[f9<-0.434522] yes=39,no=40,missing=40
					39:leaf=-0.100584 
					40:leaf=-0.038857 
				20:[f3<-1.339157] yes=41,no=42,missing=42
					41:leaf=-0.113756 
					42:leaf=-0.062493 
			10:[f11<46.500000] yes=21,no=22,missing=22
				21:[f14<2076.500000] yes=43,no=44,missing=44
					43:leaf=-0.008468 
					44:leaf=0.031501 
				22:[f1<4.613666] yes=45,no=46,missing=46
					45:leaf=0.090718 
					46:leaf=-0.101785 
	2:[f28<7846.000000] yes=5,no=6,missing=6
		5:[f1<0.369636] yes=11,no=12,missing=12
			11:[f37<7846.000000] yes=23,no=24,missing=24
				23:[f9<0.500679] yes=47,no=48,missing=48
					47:leaf=0.023189 
					48:leaf=-0.211874 
				24:[f2<-0.397446] yes=49,no=50,missing=50
					49:leaf=0.022120 
					50:leaf=0.073331 
			12:[f18<0.097428] yes=25,no=26,missing=26
				25:[f8<0.056601] yes=51,no=52,missing=52
					51:leaf=-0.005969 
					52:leaf=-0.094843 
				26:[f8<0.072726] yes=53,no=54,missing=54
					53:leaf=0.016624 
					54:leaf=0.100034 
		6:[f12<0.280193] yes=13,no=14,missing=14
			13:[f2<-0.424704] yes=27,no=28,missing=28
				27:[f34<7846.000000] yes=55,no=56,missing=56
					55:leaf=-0.105165 
					56:leaf=-0.033809 
				28:[f18<0.075194] yes=57,no=58,missing=58
					57:leaf=-0.003360 
					58:leaf=0.020260 
			14:[f13<21.500000] yes=29,no=30,missing=30
				29:[f9<-0.384160] yes=59,no=60,missing=60
					59:leaf=-0.009812 
					60:leaf=0.043344 
				30:[f9<-0.436925] yes=61,no=62,missing=62
					61:leaf=-0.061106 
					62:leaf=0.071893 
booster[5]
0:[f15<0.065915] yes=1,no=2,missing=2
	1:[f1<-0.203882] yes=3,no=4,missing=4
		3:[f28<7846.000000] yes=7,no=8,missing=8
			7:[f9<0.462016] yes=15,no=16,missing=16
				15:[f3<1.596333] yes=31,no=32,missing=32
					31:leaf=0.046841 
					32:leaf=0.094611 
				16:[f14<8.500000] yes=33,no=34,missing=34
					33:leaf=0.096898 
					34:leaf=-0.101085 
			8:[f2<0.099586] yes=17,no=18,missing=18
				17:[f3<-0.494439] yes=35,no=36,missing=36
					35:leaf=-0.025326 
					36:leaf=-0.001193 
				18:[f2<0.484935] yes=37,no=38,missing=38
					37:leaf=-0.028590 
					38:leaf=-0.063514 
		4:[f12<0.078462] yes=9,no=10,missing=10
			9:[f11<0.500000] yes=19,no=20,missing=20
				19:[f3<-1.082168] yes=39,no=40,missing=40
					39:leaf=-0.080055 
					40:leaf=-0.011527 
				20:[f21<0.081288] yes=41,no=42,missing=42
					41:leaf=-0.070269 
					42:leaf=-0.046472 
			10:[f10<2.500000] yes=21,no=22,missing=22
				21:[f33<0.080053] yes=43,no=44,missing=44
					43:leaf=-0.028490 
					44:leaf=0.015977 
				22:[f12<0.157072] yes=45,no=46,missing=46
					45:leaf=0.087469 
					46:leaf=0.013764 
	2:[f28<7846.000000] yes=5,no=6,missing=6
		5:[f1<0.063760] yes=11,no=12,missing=12
			11:[f2<-0.328863] yes=23,no=24,missing=24
				23:[f4<2.081522] yes=47,no=48,missing=48
					47:leaf=0.031656 
					48:leaf=-0.208874 
				24:[f3<-0.884661] yes=49,no=50,missing=50
					49:leaf=0.024750 
					50:leaf=0.067708 
			12:[f22<15082.000000] yes=25,no=26,missing=26
				25:[f8<-0.472318] yes=51,no=52,missing=52
					51:leaf=0.051325 
					52:leaf=-0.047871 
				26:[f8<0.653247] yes=53,no=54,missing=54
					53:leaf=0.029813 
					54:leaf=-0.108687 
		6:[f12<0.152395] yes=13,no=14,missing=14
			13:[f1<-0.280351] yes=27,no=28,missing=28
				27:[f13<189.500000] yes=55,no=56,missing=56
					55:leaf=0.005562 
					56:leaf=0.036748 
				28:[f3<0.394314] yes=57,no=58,missing=58
					57:leaf=-0.025765 
					58:leaf=0.002194 
			14:[f2<-0.386560] yes=29,no=30,missing=30
				29:[f3<-0.918726] yes=59,no=60,missing=60
					59:leaf=-0.050203 
					60:leaf=0.011012 
				30:[f37<14786.000000] yes=61,no=62,missing=62
					61:leaf=0.034723 
					62:leaf=0.060424 
booster[6]
0:[f15<0.112022] yes=1,no=2,missing=2
	1:[f3<0.077097] yes=3,no=4,missing=4
		3:[f12<0.087596] yes=7,no=8,missing=8
			7:[f1<-0.318585] yes=15,no=16,missing=16
				15:[f9<0.329595] yes=31,no=32,missing=32
					31:leaf=-0.010759 
					32:leaf=-0.049826 
				16:[f1<0.369636] yes=33,no=34,missing=34
					33:leaf=-0.032901 
					34:leaf=-0.057400 
			8:[f37<14786.000000] yes=17,no=18,missing=18
				17:[f12<0.392308] yes=35,no=36,missing=36
					35:leaf=-0.007749 
					36:leaf=0.030903 
				18:[f15<0.100089] yes=37,no=38,missing=38
					37:leaf=0.027769 
					38:leaf=0.069124 
		4:[f28<7846.000000] yes=9,no=10,missing=10
			9:[f1<-0.242116] yes=19,no=20,missing=20
				19:[f18<0.075194] yes=39,no=40,missing=40
					39:leaf=0.028843 
					40:leaf=0.062630 
				20:[f17<22155.500000] yes=41,no=42,missing=42
					41:leaf=0.099093 
					42:leaf=-0.015555 
			10:[f2<0.311443] yes=21,no=22,missing=22
				21:[f15<0.065915] yes=43,no=44,missing=44
					43:leaf=-0.005519 
					44:leaf=0.014365 
				22:[f12<0.078462] yes=45,no=46,missing=46
					45:leaf=-0.031488 
					46:leaf=0.026410 
	2:[f28<7846.000000] yes=5,no=6,missing=6
		5:[f1<-0.203882] yes=11,no=12,missing=12
			11:[f3<-0.904492] yes=23,no=24,missing=24
				23:[f13<20.500000] yes=47,no=48,missing=48
					47:leaf=-0.067555 
					48:leaf=0.037352 
				24:[f34<7846.000000] yes=49,no=50,missing=50
					49:leaf=0.043837 
					50:leaf=0.072377 
			12:[f1<1.134326] yes=25,no=26,missing=26
				25:[f2<-0.321497] yes=51,no=52,missing=52
					51:leaf=-0.034876 
					52:leaf=0.046308 
				26:[f4<0.560497] yes=53,no=54,missing=54
					53:leaf=-0.069384 
					54:leaf=0.072789 
		6:[f2<-0.377135] yes=13,no=14,missing=14
			13:[f2<-0.461289] yes=27,no=28,missing=28
				27:leaf=-0.183055 
				28:[f34<7846.000000] yes=55,no=56,missing=56
					55:leaf=-0.046548 
					56:leaf=-0.003955 
			14:[f13<16.500000] yes=29,no=30,missing=30
				29:[f3<-0.136025] yes=57,no=58,missing=58
					57:leaf=-0.006273 
					58:leaf=0.019525 
				30:[f1<-0.012709] yes=59,no=60,missing=60
					59:leaf=0.039755 
					60:leaf=0.004363 
booster[7]
0:[f15<0.065915] yes=1,no=2,missing=2
	1:[f1<-0.203882] yes=3,no=4,missing=4
		3:[f7<0.917866] yes=7,no=8,missing=8
			7:[f2<0.484158] yes=15,no=16,missing=16
				15:[f39<0.083810] yes=31,no=32,missing=32
					31:leaf=-0.025428 
					32:leaf=-0.003834 
				16:[f9<1.765585] yes=33,no=34,missing=34
					33:leaf=-0.056134 
					34:leaf=-0.112987 
			8:[f18<0.093903] yes=17,no=18,missing=18
				17:[f6<-0.348086] yes=35,no=36,missing=36
					35:leaf=-0.020225 
					36:leaf=0.008287 
				18:[f3<0.406117] yes=37,no=38,missing=38
					37:leaf=0.015200 
					38:leaf=0.049836 
		4:[f10<1.500000] yes=9,no=10,missing=10
			9:[f1<1.401967] yes=19,no=20,missing=20
				19:[f3<-1.055387] yes=39,no=40,missing=40
					39:leaf=-0.057879 
					40:leaf=-0.028871 
				20:[f31<4554.500000] yes=41,no=42,missing=42
					41:leaf=-0.100515 
					42:leaf=-0.055332 
			10:[f14<81.500000] yes=21,no=22,missing=22
				21:[f2<-0.432761] yes=43,no=44,missing=44
					43:leaf=-0.188135 
					44:leaf=0.074114 
				22:[f10<2.500000] yes=45,no=46,missing=46
					45:leaf=-0.022103 
					46:leaf=0.038195 
	2:[f3<0.433507] yes=5,no=6,missing=6
		5:[f12<0.152395] yes=11,no=12,missing=12
			11:[f1<-0.280351] yes=23,no=24,missing=24
				23:[f18<0.075194] yes=47,no=48,missing=48
					47:leaf=-0.011331 
					48:leaf=0.013074 
				24:[f2<-0.424729] yes=49,no=50,missing=50
					49:leaf=-0.068405 
					50:leaf=-0.016576 
			12:[f1<-0.012709] yes=25,no=26,missing=26
				25:[f2<-0.409966] yes=51,no=52,missing=52
					51:leaf=-0.008654 
					52:leaf=0.045861 
				26:[f11<9.500000] yes=53,no=54,missing=54
					53:leaf=-0.003536 
					54:leaf=0.034496 
		6:[f12<0.318609] yes=13,no=14,missing=14
			13:[f15<0.117764] yes=27,no=28,missing=28
				27:[f18<0.075194] yes=55,no=56,missing=56
					55:leaf=-0.003783 
					56:leaf=0.019928 
				28:[f1<1.134326] yes=57,no=58,missing=58
					57:leaf=0.035874 
					58:leaf=-0.025667 
			14:[f2<-0.411390] yes=29,no=30,missing=30
				29:[f4<-0.141516] yes=59,no=60,missing=60
					59:leaf=-0.081961 
					60:leaf=0.043616 
				30:[f6<-1.135892] yes=61,no=62,missing=62
					61:leaf=0.001607 
					62:leaf=0.064901 
booster[8]
0:[f15<0.103243] yes=1,no=2,missing=2
	1:[f3<0.077097] yes=3,no=4,missing=4
		3:[f12<0.087596] yes=7,no=8,missing=8
			7:[f11<0.500000] yes=15,no=16,missing=16
				15:[f28<13987.000000] yes=31,no=32,missing=32
					31:leaf=0.000128 
					32:leaf=-0.031055 
				16:[f15<0.058388] yes=33,no=34,missing=34
					33:leaf=-0.046344 
					34:leaf=-0.025787 
			8:[f10<9.500000] yes=17,no=18,missing=18
				17:[f2<-0.375514] yes=35,no=36,missing=36
					35:leaf=-0.022989 
					36:leaf=0.014031 
				18:[f11<50.000000] yes=37,no=38,missing=38
					37:leaf=0.130329 
					38:leaf=0.000173 
		4:[f16<4264.000000] yes=9,no=10,missing=10
			9:[f1<-0.280351] yes=19,no=20,missing=20
				19:[f2<-0.338147] yes=39,no=40,missing=40
					39:leaf=-0.003621 
					40:leaf=0.030249 
				20:[f37<14786.000000] yes=41,no=42,missing=42
					41:leaf=-0.015801 
					42:leaf=0.013945 
			10:[f9<0.487467] yes=21,no=22,missing=22
				21:[f12<0.146446] yes=43,no=44,missing=44
					43:leaf=-0.004852 
					44:leaf=0.033230 
				22:[f12<0.025321] yes=45,no=46,missing=46
					45:leaf=-0.055773 
					46:leaf=-0.001442 
	2:[f28<7846.000000] yes=5,no=6,missing=6
		5:[f1<-0.203882] yes=11,no=12,missing=12
			11:[f6<-0.621931] yes=23,no=24,missing=24
				23:[f7<0.385436] yes=47,no=48,missing=48
					47:leaf=-0.003606 
					48:leaf=0.049129 
				24:[f37<7846.000000] yes=49,no=50,missing=50
					49:leaf=-0.001097 
					50:leaf=0.061548 
			12:[f33<0.080053] yes=25,no=26,missing=26
				25:[f13<207.500000] yes=51,no=52,missing=52
					51:leaf=-0.052909 
					52:leaf=0.028987 
				26:[f8<1.030586] yes=53,no=54,missing=54
					53:leaf=0.040594 
					54:leaf=-0.093913 
		6:[f12<0.089572] yes=13,no=14,missing=14
			13:[f1<0.293167] yes=27,no=28,missing=28
				27:[f13<188.500000] yes=55,no=56,missing=56
					55:leaf=0.004364 
					56:leaf=0.029841 
				28:[f11<83.500000] yes=57,no=58,missing=58
					57:leaf=-0.035000 
					58:leaf=0.147808 
			14:[f13<17.500000] yes=29,no=30,missing=30
				29:[f37<14786.000000] yes=59,no=60,missing=60
					59:leaf=0.002530 
					60:leaf=0.030080 
				30:[f2<-0.448079] yes=61,no=62,missing=62
					61:leaf=-0.119329 
					62:leaf=0.049452 
booster[9]
0:[f15<0.065915] yes=1,no=2,missing=2
	1:[f1<-0.356820] yes=3,no=4,missing=4
		3:[f28<7846.000000] yes=7,no=8,missing=8
			7:[f18<0.075194] yes=15,no=16,missing=16
				15:[f2<-0.319549] yes=31,no=32,missing=32
					31:leaf=-0.213514 
					32:leaf=0.011981 
				16:[f6<-0.481181] yes=33,no=34,missing=34
					33:leaf=0.020028 
					34:leaf=0.063820 
			8:[f9<0.081201] yes=17,no=18,missing=18
				17:[f36<0.086170] yes=35,no=36,missing=36
					35:leaf=-0.012146 
					36:leaf=0.012450 
				18:[f18<0.078500] yes=37,no=38,missing=38
					37:leaf=-0.039261 
					38:leaf=-0.012995 
		4:[f12<0.045983] yes=9,no=10,missing=10
			9:[f1<0.981388] yes=19,no=20,missing=20
				19:[f9<0.475883] yes=39,no=40,missing=40
					39:leaf=-0.024730 
					40:leaf=-0.062229 
				20:[f2<-0.147549] yes=41,no=42,missing=42
					41:leaf=-0.039346 
					42:leaf=-0.080370 
			10:[f19<14291.000000] yes=21,no=22,missing=22
				21:[f7<0.027704] yes=43,no=44,missing=44
					43:leaf=-0.029551 
					44:leaf=0.006972 
				22:[f3<-1.046505] yes=45,no=46,missing=46
					45:leaf=-0.033340 
					46:leaf=0.034116 
	2:[f28<7846.000000] yes=5,no=6,missing=6
		5:[f1<0.369636] yes=11,no=12,missing=12
			11:[f2<-0.337512] yes=23,no=24,missing=24
				23:[f1<-0.127413] yes=47,no=48,missing=48
					47:leaf=0.020260 
					48:leaf=-0.038642 
				24:[f6<-0.564656] yes=49,no=50,missing=50
					49:leaf=0.026408 
					50:leaf=0.054046 
			12:[f16<3965.000000] yes=25,no=26,missing=26
				25:[f8<-0.401366] yes=51,no=52,missing=52
					51:leaf=-0.013942 
					52:leaf=0.065572 
				26:[f13<136.000000] yes=53,no=54,missing=54
					53:leaf=-0.104606 
					54:leaf=-0.015160 
		6:[f2<-0.405472] yes=13,no=14,missing=14
			13:[f34<7846.000000] yes=27,no=28,missing=28
				27:[f2<-0.441372] yes=55,no=56,missing=56
					55:leaf=-0.128409 
					56:leaf=-0.058594 
				28:[f2<-0.461332] yes=57,no=58,missing=58
					57:leaf=-0.158474 
					58:leaf=-0.012580 
			14:[f18<0.075194] yes=29,no=30,missing=30
				29:[f2<0.312078] yes=59,no=60,missing=60
					59:leaf=0.001187 
					60:leaf=-0.031994 
				30:[f37<7846.000000] yes=61,no=62,missing=62
					61:leaf=-0.020498 
					62:leaf=0.017338 
booster[10]
0:[f15<0.112022] yes=1,no=2,missing=2
	1:[f3<0.674586] yes=3,no=4,missing=4
		3:[f12<0.084524] yes=7,no=8,missing=8
			7:[f1<0.293167] yes=15,no=16,missing=16
				15:[f28<7846.000000] yes=31,no=32,missing=32
					31:leaf=0.026970 
					32:leaf=-0.013619 
				16:[f12<0.020204] yes=33,no=34,missing=34
					33:leaf=-0.049660 
					34:leaf=-0.008901 
			8:[f37<14786.000000] yes=17,no=18,missing=18
				17:[f12<0.422619] yes=35,no=36,missing=36
					35:leaf=-0.008804 
					36:leaf=0.021210 
				18:[f3<-1.637104] yes=37,no=38,missing=38
					37:leaf=-0.034434 
					38:leaf=0.035313 
		4:[f16<4264.000000] yes=9,no=10,missing=10
			9:[f9<-0.395236] yes=19,no=20,missing=20
				19:[f1<-0.280351] yes=39,no=40,missing=40
					39:leaf=-0.008050 
					40:leaf=-0.065566 
				20:[f37<7846.000000] yes=41,no=42,missing=42
					41:leaf=-0.010640 
					42:leaf=0.028627 
			10:[f12<0.255435] yes=21,no=22,missing=22
				21:[f9<0.479641] yes=43,no=44,missing=44
					43:leaf=0.001637 
					44:leaf=-0.038376 
				22:[f2<-0.396990] yes=45,no=46,missing=46
					45:leaf=-0.087966 
					46:leaf=0.052264 
	2:[f3<-0.509658] yes=5,no=6,missing=6
		5:[f9<-0.423566] yes=11,no=12,missing=12
			11:[f8<-0.478769] yes=23,no=24,missing=24
				23:[f15<0.142467] yes=47,no=48,missing=48
					47:leaf=-0.065825 
					48:leaf=0.067199 
				24:[f7<1.021454] yes=49,no=50,missing=50
					49:leaf=-0.052122 
					50:leaf=-0.154694 
			12:[f13<19.500000] yes=25,no=26,missing=26
				25:[f9<-0.131687] yes=51,no=52,missing=52
					51:leaf=0.002844 
					52:leaf=-0.029931 
				26:[f12<0.031754] yes=53,no=54,missing=54
					53:leaf=0.006514 
					54:leaf=0.039771 
		6:[f1<0.369636] yes=13,no=14,missing=14
			13:[f13<35.000000] yes=27,no=28,missing=28
				27:[f16<4264.000000] yes=55,no=56,missing=56
					55:leaf=0.028285 
					56:leaf=0.007061 
				28:[f7<0.809512] yes=57,no=58,missing=58
					57:leaf=0.030034 
					58:leaf=0.051667 
			14:[f12<0.087596] yes=29,no=30,missing=30
				29:[f8<-0.478769] yes=59,no=60,missing=60
					59:leaf=0.044909 
					60:leaf=-0.037519 
				30:[f11<23.500000] yes=61,no=62,missing=62
					61:leaf=0.007304 
					62:leaf=0.055109 
booster[11]
0:[f15<0.079240] yes=1,no=2,missing=2
	1:[f1<0.025525] yes=3,no=4,missing=4
		3:[f28<7846.000000] yes=7,no=8,missing=8
			7:[f9<0.568667] yes=15,no=16,missing=16
				15:[f3<-1.772353] yes=31,no=32,missing=32
					31:leaf=-0.140725 
					32:leaf=0.035449 
				16:[f16<93.500000] yes=33,no=34,missing=34
					33:leaf=0.102904 
					34:leaf=-0.127411 
			8:[f3<0.412004] yes=17,no=18,missing=18
				17:[f39<0.083810] yes=35,no=36,missing=36
					35:leaf=-0.022956 
					36:leaf=-0.006347 
				18:[f9<-0.077038] yes=37,no=38,missing=38
					37:leaf=0.010236 
					38:leaf=-0.006333 
		4:[f12<0.020204] yes=9,no=10,missing=10
			9:[f1<0.981388] yes=19,no=20,missing=20
				19:[f13<68.500000] yes=39,no=40,missing=40
					39:leaf=-0.024211 
					40:leaf=-0.060967 
				20:[f15<0.070227] yes=41,no=42,missing=42
					41:leaf=-0.057563 
					42:leaf=-0.119221 
			10:[f22<15082.000000] yes=21,no=22,missing=22
				21:[f15<0.076612] yes=43,no=44,missing=44
					43:leaf=-0.021483 
					44:leaf=-0.137871 
				22:[f11<22.500000] yes=45,no=46,missing=46
					45:leaf=-0.003361 
					46:leaf=0.051362 
	2:[f3<0.676407] yes=5,no=6,missing=6
		5:[f2<-0.428070] yes=11,no=12,missing=12
			11:[f34<7846.000000] yes=23,no=24,missing=24
				23:[f2<-0.450742] yes=47,no=48,missing=48
					47:leaf=-0.158861 
					48:leaf=-0.073884 
				24:[f2<-0.461375] yes=49,no=50,missing=50
					49:leaf=-0.157009 
					50:leaf=-0.022061 
			12:[f1<0.178463] yes=25,no=26,missing=26
				25:[f18<0.075194] yes=51,no=52,missing=52
					51:leaf=-0.007684 
					52:leaf=0.014745 
				26:[f12<0.021874] yes=53,no=54,missing=54
					53:leaf=-0.033299 
					54:leaf=0.005779 
		6:[f12<0.318609] yes=13,no=14,missing=14
			13:[f1<-0.203882] yes=27,no=28,missing=28
				27:[f13<34.500000] yes=55,no=56,missing=56
					55:leaf=0.010829 
					56:leaf=0.035256 
				28:[f37<14786.000000] yes=57,no=58,missing=58
					57:leaf=-0.016211 
					58:leaf=0.019810 
			14:[f2<-0.410909] yes=29,no=30,missing=30
				29:[f6<0.871295] yes=59,no=60,missing=60
					59:leaf=0.004002 
					60:leaf=-0.201223 
				30:[f11<10.500000] yes=61,no=62,missing=62
					61:leaf=0.057956 
					62:leaf=-0.001172 
booster[12]
0:[f15<0.112022] yes=1,no=2,missing=2
	1:[f3<-0.984946] yes=3,no=4,missing=4
		3:[f12<0.122024] yes=7,no=8,missing=8
			7:[f3<-1.981558] yes=15,no=16,missing=16
				15:[f2<0.384773] yes=31,no=32,missing=32
					31:leaf=-0.056862 
					32:leaf=-0.157100 
				16:[f6<-1.171899] yes=33,no=34,missing=34
					33:leaf=-0.043980 
					34:leaf=-0.019856 
			8:[f16<4264.000000] yes=17,no=18,missing=18
				17:[f6<-2.032290] yes=35,no=36,missing=36
					35:leaf=-0.107011 
					36:leaf=0.037655 
				18:[f15<0.020691] yes=37,no=38,missing=38
					37:leaf=0.118051 
					38:leaf=-0.007685 
		4:[f18<0.075194] yes=9,no=10,missing=10
			9:[f9<0.276343] yes=19,no=20,missing=20
				19:[f13<516.500000] yes=39,no=40,missing=40
					39:leaf=-0.005524 
					40:leaf=-0.066590 
				20:[f3<-0.231095] yes=41,no=42,missing=42
					41:leaf=-0.061202 
					42:leaf=-0.025400 
			10:[f2<-0.416642] yes=21,no=22,missing=22
				21:[f34<7846.000000] yes=43,no=44,missing=44
					43:leaf=-0.087386 
					44:leaf=-0.019240 
				22:[f37<7846.000000] yes=45,no=46,missing=46
					45:leaf=-0.020629 
					46:leaf=0.008696 
	2:[f13<12.500000] yes=5,no=6,missing=6
		5:[f9<0.398656] yes=11,no=12,missing=12
			11:[f3<-1.157635] yes=23,no=24,missing=24
				23:[f9<-0.395440] yes=47,no=48,missing=48
					47:leaf=-0.097713 
					48:leaf=-0.014473 
				24:[f4<1.613515] yes=49,no=50,missing=50
					49:leaf=0.006213 
					50:leaf=0.040196 
			12:[f18<0.075194] yes=25,no=26,missing=26
				25:[f15<0.303846] yes=51,no=52,missing=52
					51:leaf=-0.073435 
					52:leaf=0.012530 
				26:[f6<-0.771268] yes=53,no=54,missing=54
					53:leaf=-0.101751 
					54:leaf=0.007103 
		6:[f1<0.713746] yes=13,no=14,missing=14
			13:[f2<-0.295293] yes=27,no=28,missing=28
				27:[f36<0.086170] yes=55,no=56,missing=56
					55:leaf=-0.005657 
					56:leaf=0.020480 
				28:[f2<1.100147] yes=57,no=58,missing=58
					57:leaf=0.030756 
					58:leaf=-0.029838 
			14:[f13<30.500000] yes=29,no=30,missing=30
				29:[f9<-0.432329] yes=59,no=60,missing=60
					59:leaf=-0.166196 
					60:leaf=0.057097 
				30:[f11<79.500000] yes=61,no=62,missing=62
					61:leaf=-0.036453 
					62:leaf=0.108355 
booster[13]
0:[f28<7846.000000] yes=1,no=2,missing=2
	1:[f1<-0.203882] yes=3,no=4,missing=4
		3:[f34<7846.000000] yes=7,no=8,missing=8
			7:[f3<1.371675] yes=15,no=16,missing=16
				15:[f2<-0.254646] yes=31,no=32,missing=32
					31:leaf=-0.026270 
					32:leaf=0.017100 
				16:[f6<-1.421046] yes=33,no=34,missing=34
					33:leaf=-0.173225 
					34:leaf=0.049987 
			8:[f2<0.699659] yes=17,no=18,missing=18
				17:[f7<-0.132130] yes=35,no=36,missing=36
					35:leaf=0.031549 
					36:leaf=0.051460 
				18:[f16<93.500000] yes=37,no=38,missing=38
					37:leaf=0.085765 
					38:leaf=-0.040676 
		4:[f21<0.081288] yes=9,no=10,missing=10
			9:[f13<101.500000] yes=19,no=20,missing=20
				19:[f12<0.118056] yes=39,no=40,missing=40
					39:leaf=-0.101793 
					40:leaf=-0.009899 
				20:[f3<1.340113] yes=41,no=42,missing=42
					41:leaf=0.015791 
					42:leaf=-0.100108 
			10:[f11<50.000000] yes=21,no=22,missing=22
				21:[f2<-0.427639] yes=43,no=44,missing=44
					43:leaf=-0.080846 
					44:leaf=0.025130 
				22:[f34<7846.000000] yes=45,no=46,missing=46
					45:leaf=-0.024965 
					46:leaf=-0.165387 
	2:[f12<0.089572] yes=5,no=6,missing=6
		5:[f1<-0.280351] yes=11,no=12,missing=12
			11:[f3<-0.692210] yes=23,no=24,missing=24
				23:[f2<0.093150] yes=47,no=48,missing=48
					47:leaf=-0.009604 
					48:leaf=-0.032071 
				24:[f2<0.310500] yes=49,no=50,missing=50
					49:leaf=0.009068 
					50:leaf=-0.015461 
			12:[f1<1.401967] yes=25,no=26,missing=26
				25:[f15<0.103564] yes=51,no=52,missing=52
					51:leaf=-0.021466 
					52:leaf=-0.002562 
				26:[f12<0.020204] yes=53,no=54,missing=54
					53:leaf=-0.061234 
					54:leaf=-0.002095 
		6:[f22<15082.000000] yes=13,no=14,missing=14
			13:[f12<0.255435] yes=27,no=28,missing=28
				27:[f18<0.078500] yes=55,no=56,missing=56
					55:leaf=-0.042654 
					56:leaf=-0.002619 
				28:[f9<-0.351616] yes=57,no=58,missing=58
					57:leaf=-0.011548 
					58:leaf=0.026497 
			14:[f11<46.500000] yes=29,no=30,missing=30
				29:[f1<-0.203882] yes=59,no=60,missing=60
					59:leaf=0.046309 
					60:leaf=0.022581 
				30:[f8<-0.440067] yes=61,no=62,missing=62
					61:leaf=0.063005 
					62:leaf=0.119728 
booster[14]
0:[f15<0.065915] yes=1,no=2,missing=2
	1:[f7<0.970229] yes=3,no=4,missing=4
		3:[f9<-0.094239] yes=7,no=8,missing=8
			7:[f34<7846.000000] yes=15,no=16,missing=16
				15:[f2<-0.414059] yes=31,no=32,missing=32
					31:leaf=-0.078051 
					32:leaf=-0.017482 
				16:[f37<7846.000000] yes=33,no=34,missing=34
					33:leaf=-0.036280 
					34:leaf=0.004905 
			8:[f11<2.500000] yes=17,no=18,missing=18
				17:[f2<0.484158] yes=35,no=36,missing=36
					35:leaf=-0.015471 
					36:leaf=-0.041899 
				18:[f16<5318.000000] yes=37,no=38,missing=38
					37:leaf=-0.047528 
					38:leaf=-0.000792 
		4:[f1<-0.165647] yes=9,no=10,missing=10
			9:[f2<0.514548] yes=19,no=20,missing=20
				19:[f34<7846.000000] yes=39,no=40,missing=40
					39:leaf=-0.002207 
					40:leaf=0.019176 
				20:[f3<1.995747] yes=41,no=42,missing=42
					41:leaf=-0.042429 
					42:leaf=0.156720 
			10:[f12<0.042572] yes=21,no=22,missing=22
				21:[f22<15082.000000] yes=43,no=44,missing=44
					43:leaf=-0.062106 
					44:leaf=-0.007127 
				22:[f33<0.078822] yes=45,no=46,missing=46
					45:leaf=-0.018142 
					46:leaf=0.050376 
	2:[f3<0.676407] yes=5,no=6,missing=6
		5:[f2<-0.397989] yes=11,no=12,missing=12
			11:[f34<7846.000000] yes=23,no=24,missing=24
				23:[f2<-0.451284] yes=47,no=48,missing=48
					47:leaf=-0.139190 
					48:leaf=-0.052283 
				24:[f2<-0.461375] yes=49,no=50,missing=50
					49:leaf=-0.136948 
					50:leaf=-0.010428 
			12:[f18<0.075194] yes=25,no=26,missing=26
				25:[f9<0.448103] yes=51,no=52,missing=52
					51:leaf=-0.004589 
					52:leaf=-0.050315 
				26:[f37<7846.000000] yes=53,no=54,missing=54
					53:leaf=-0.020822 
					54:leaf=0.010853 
		6:[f37<7846.000000] yes=13,no=14,missing=14
			13:[f25<15537.000000] yes=27,no=28,missing=28
				27:[f1<-0.127413] yes=55,no=56,missing=56
					55:leaf=-0.045018 
					56:leaf=-0.139228 
				28:[f12<0.025978] yes=57,no=58,missing=58
					57:leaf=-0.010925 
					58:leaf=0.032912 
			14:[f18<0.093903] yes=29,no=30,missing=30
				29:[f13<189.500000] yes=59,no=60,missing=60
					59:leaf=0.010460 
					60:leaf=0.029205 
				30:[f9<-0.388159] yes=61,no=62,missing=62
					61:leaf=-0.015112 
					62:leaf=0.038351 
booster[15]
0:[f28<7846.000000] yes=1,no=2,missing=2
	1:[f11<8.500000] yes=3,no=4,missing=4
		3:[f2<-0.397218] yes=7,no=8,missing=8
			7:[f34<11470.500000] yes=15,no=16,missing=16
				15:[f5<0.395576] yes=31,no=32,missing=32
					31:leaf=-0.020147 
					32:leaf=-0.177091 
				16:[f6<-0.897665] yes=33,no=34,missing=34
					33:leaf=-0.066981 
					34:leaf=0.033166 
			8:[f34<7846.000000] yes=17,no=18,missing=18
				17:[f14<175.500000] yes=35,no=36,missing=36
					35:leaf=-0.018643 
					36:leaf=0.021790 
				18:[f2<0.735165] yes=37,no=38,missing=38
					37:leaf=0.039542 
					38:leaf=-0.021835 
		4:[f13<88.500000] yes=9,no=10,missing=10
			9:[f11<16.500000] yes=19,no=20,missing=20
				19:[f3<1.220363] yes=39,no=40,missing=40
					39:leaf=-0.167186 
					40:leaf=0.028191 
				20:[f3<-0.935905] yes=41,no=42,missing=42
					41:leaf=0.078878 
					42:leaf=-0.071365 
			10:[f27<0.081301] yes=21,no=22,missing=22
				21:[f7<1.438336] yes=43,no=44,missing=44
					43:leaf=-0.085970 
					44:leaf=0.073513 
				22:[f14<1415.500000] yes=45,no=46,missing=46
					45:leaf=0.075771 
					46:leaf=0.004190 
	2:[f12<0.084524] yes=5,no=6,missing=6
		5:[f11<2.500000] yes=11,no=12,missing=12
			11:[f39<0.083810] yes=23,no=24,missing=24
				23:[f7<0.970229] yes=47,no=48,missing=48
					47:leaf=-0.013356 
					48:leaf=0.008561 
				24:[f11<0.500000] yes=49,no=50,missing=50
					49:leaf=0.010538 
					50:leaf=-0.013660 
			12:[f28<13987.000000] yes=25,no=26,missing=26
				25:[f37<7846.000000] yes=51,no=52,missing=52
					51:leaf=-0.098288 
					52:leaf=-0.039207 
				26:[f12<0.020204] yes=53,no=54,missing=54
					53:leaf=-0.013955 
					54:leaf=0.027388 
		6:[f37<14786.000000] yes=13,no=14,missing=14
			13:[f12<0.262014] yes=27,no=28,missing=28
				27:[f12<0.091966] yes=55,no=56,missing=56
					55:leaf=0.055120 
					56:leaf=-0.008549 
				28:[f2<-0.329782] yes=57,no=58,missing=58
					57:leaf=-0.010137 
					58:leaf=0.024391 
			14:[f10<4.500000] yes=29,no=30,missing=30
				29:[f1<-0.050944] yes=59,no=60,missing=60
					59:leaf=0.040616 
					60:leaf=0.015688 
				30:[f1<7.098907] yes=61,no=62,missing=62
					61:leaf=0.071306 
					62:leaf=-0.170514 
booster[16]
0:[f15<0.057673] yes=1,no=2,missing=2
	1:[f3<-1.506820] yes=3,no=4,missing=4
		3:[f8<-0.478769] yes=7,no=8,missing=8
			7:[f17<22155.500000] yes=15,no=16,missing=16
				15:[f3<-1.545747] yes=31,no=32,missing=32
					31:leaf=-0.163523 
					32:leaf=0.040404 
				16:[f7<0.177377] yes=33,no=34,missing=34
					33:leaf=0.029800 
					34:leaf=-0.050905 
			8:[f36<0.086170] yes=17,no=18,missing=18
				17:[f6<-0.865449] yes=35,no=36,missing=36
					35:leaf=-0.083990 
					36:leaf=-0.046771 
				18:[f2<0.196062] yes=37,no=38,missing=38
					37:leaf=-0.013477 
					38:leaf=-0.110782 
		4:[f14<35.500000] yes=9,no=10,missing=10
			9:[f39<0.083810] yes=19,no=20,missing=20
				19:[f1<0.025525] yes=39,no=40,missing=40
					39:leaf=-0.007513 
					40:leaf=-0.046774 
				20:[f11<0.500000] yes=41,no=42,missing=42
					41:leaf=0.014618 
					42:leaf=-0.017536 
			10:[f15<0.014196] yes=21,no=22,missing=22
				21:[f14<131.000000] yes=43,no=44,missing=44
					43:leaf=-0.040971 
					44:leaf=-0.105875 
				22:[f12<0.020204] yes=45,no=46,missing=46
					45:leaf=-0.013958 
					46:leaf=0.016015 
	2:[f3<-0.686862] yes=5,no=6,missing=6
		5:[f9<0.357732] yes=11,no=12,missing=12
			11:[f2<-0.418855] yes=23,no=24,missing=24
				23:[f34<7846.000000] yes=47,no=48,missing=48
					47:leaf=-0.073432 
					48:leaf=-0.023422 
				24:[f12<0.392308] yes=49,no=50,missing=50
					49:leaf=-0.005004 
					50:leaf=0.030684 
			12:[f2<3.129231] yes=25,no=26,missing=26
				25:[f4<4.538565] yes=51,no=52,missing=52
					51:leaf=-0.035304 
					52:leaf=0.069808 
				26:[f12<0.118056] yes=53,no=54,missing=54
					53:leaf=-0.171377 
					54:leaf=-0.020910 
		6:[f1<0.140229] yes=13,no=14,missing=14
			13:[f18<0.075194] yes=27,no=28,missing=28
				27:[f9<0.471894] yes=55,no=56,missing=56
					55:leaf=0.003907 
					56:leaf=-0.029919 
				28:[f9<-0.390656] yes=57,no=58,missing=58
					57:leaf=-0.013364 
					58:leaf=0.020349 
			14:[f12<0.021874] yes=29,no=30,missing=30
				29:[f11<12.500000] yes=59,no=60,missing=60
					59:leaf=-0.010047 
					60:leaf=-0.058484 
				30:[f37<14786.000000] yes=61,no=62,missing=62
					61:leaf=-0.007831 
					62:leaf=0.026320 
booster[17]
0:[f15<0.112022] yes=1,no=2,missing=2
	1:[f3<0.705407] yes=3,no=4,missing=4
		3:[f18<0.075194] yes=7,no=8,missing=8
			7:[f2<0.092830] yes=15,no=16,missing=16
				15:[f13<516.500000] yes=31,no=32,missing=32
					31:leaf=-0.009476 
					32:leaf=-0.071678 
				16:[f2<1.706896] yes=33,no=34,missing=34
					33:leaf=-0.028916 
					34:leaf=-0.094609 
			8:[f2<-0.449583] yes=17,no=18,missing=18
				17:[f31<2874.000000] yes=35,no=36,missing=36
					35:leaf=-0.144774 
					36:leaf=-0.058480 
				18:[f1<-0.318585] yes=37,no=38,missing=38
					37:leaf=0.002611 
					38:leaf=-0.010637 
		4:[f16<4264.000000] yes=9,no=10,missing=10
			9:[f9<-0.441086] yes=19,no=20,missing=20
				19:[f2<-0.445977] yes=39,no=40,missing=40
					39:leaf=-0.049787 
					40:leaf=-0.155820 
				20:[f4<4.772569] yes=41,no=42,missing=42
					41:leaf=0.016436 
					42:leaf=0.058826 
			10:[f9<0.493141] yes=21,no=22,missing=22
				21:[f12<0.215839] yes=43,no=44,missing=44
					43:leaf=0.000834 
					44:leaf=0.033462 
				22:[f12<0.025321] yes=45,no=46,missing=46
					45:leaf=-0.038792 
					46:leaf=0.020692 
	2:[f13<12.500000] yes=5,no=6,missing=6
		5:[f14<74.500000] yes=11,no=12,missing=12
			11:[f3<-0.083787] yes=23,no=24,missing=24
				23:[f24<0.074376] yes=47,no=48,missing=48
					47:leaf=0.056110 
					48:leaf=-0.010059 
				24:[f5<-4.152009] yes=49,no=50,missing=50
					49:leaf=-0.168707 
					50:leaf=0.010877 
			12:[f14<78.500000] yes=25,no=26,missing=26
				25:[f7<0.576600] yes=51,no=52,missing=52
					51:leaf=-0.120543 
					52:leaf=-0.035978 
				26:[f6<0.423339] yes=53,no=54,missing=54
					53:leaf=0.009656 
					54:leaf=-0.051611 
		6:[f1<0.675512] yes=13,no=14,missing=14
			13:[f12<0.379808] yes=27,no=28,missing=28
				27:[f2<-0.295293] yes=55,no=56,missing=56
					55:leaf=0.001725 
					56:leaf=0.021116 
				28:[f14<186.000000] yes=57,no=58,missing=58
					57:leaf=0.001707 
					58:leaf=0.051898 
			14:[f10<1.500000] yes=29,no=30,missing=30
				29:[f13<32.500000] yes=59,no=60,missing=60
					59:leaf=0.049155 
					60:leaf=-0.039907 
				30:[f12<0.058231] yes=61,no=62,missing=62
					61:leaf=0.111140 
					62:leaf=0.007196 
booster[18]
0:[f28<7846.000000] yes=1,no=2,missing=2
	1:[f6<-0.710436] yes=3,no=4,missing=4
		3:[f16<3965.000000] yes=7,no=8,missing=8
			7:[f8<0.695174] yes=15,no=16,missing=16
				15:[f9<-0.427675] yes=31,no=32,missing=32
					31:leaf=-0.071719 
					32:leaf=0.028864 
				16:[f2<-0.282311] yes=33,no=34,missing=34
					33:leaf=0.014470 
					34:leaf=-0.221624 
			8:[f9<0.346891] yes=17,no=18,missing=18
				17:[f9<0.009837] yes=35,no=36,missing=36
					35:leaf=-0.019050 
					36:leaf=0.024796 
				18:[f14<3615.000000] yes=37,no=38,missing=38
					37:leaf=-0.109877 
					38:leaf=0.019599 
		4:[f1<-0.356820] yes=9,no=10,missing=10
			9:[f2<-0.338270] yes=19,no=20,missing=20
				19:[f2<-0.362360] yes=39,no=40,missing=40
					39:leaf=0.021369 
					40:leaf=-0.044211 
				20:[f2<1.332988] yes=41,no=42,missing=42
					41:leaf=0.040775 
					42:leaf=-0.054950 
			10:[f25<222.500000] yes=21,no=22,missing=22
				21:[f8<-0.459418] yes=43,no=44,missing=44
					43:leaf=-0.126031 
					44:leaf=0.075266 
				22:[f12<0.387500] yes=45,no=46,missing=46
					45:leaf=0.009436 
					46:leaf=0.051182 
	2:[f12<0.087596] yes=5,no=6,missing=6
		5:[f11<2.500000] yes=11,no=12,missing=12
			11:[f18<0.093903] yes=23,no=24,missing=24
				23:[f39<0.083810] yes=47,no=48,missing=48
					47:leaf=-0.011813 
					48:leaf=0.002038 
				24:[f4<3.368545] yes=49,no=50,missing=50
					49:leaf=0.008329 
					50:leaf=0.045101 
			12:[f37<14786.000000] yes=25,no=26,missing=26
				25:[f14<61.500000] yes=51,no=52,missing=52
					51:leaf=-0.012004 
					52:leaf=-0.039145 
				26:[f15<0.029963] yes=53,no=54,missing=54
					53:leaf=-0.032502 
					54:leaf=0.001078 
		6:[f22<15082.000000] yes=13,no=14,missing=14
			13:[f12<0.255435] yes=27,no=28,missing=28
				27:[f12<0.091966] yes=55,no=56,missing=56
					55:leaf=0.067294 
					56:leaf=-0.012435 
				28:[f2<-0.447068] yes=57,no=58,missing=58
					57:leaf=-0.082255 
					58:leaf=0.018737 
			14:[f10<2.500000] yes=29,no=30,missing=30
				29:[f1<-0.050944] yes=59,no=60,missing=60
					59:leaf=0.030111 
					60:leaf=0.005123 
				30:[f12<0.101724] yes=61,no=62,missing=62
					61:leaf=-0.086336 
					62:leaf=0.057428 
booster[19]
0:[f3<0.433507] yes=1,no=2,missing=2
	1:[f18<0.075194] yes=3,no=4,missing=4
		3:[f9<0.317854] yes=7,no=8,missing=8
			7:[f6<-0.197370] yes=15,no=16,missing=16
				15:[f12<0.141196] yes=31,no=32,missing=32
					31:leaf=-0.023266 
					32:leaf=0.013549 
				16:[f8<1.211193] yes=33,no=34,missing=34
					33:leaf=-0.000189 
					34:leaf=-0.037417 
			8:[f9<1.294258] yes=17,no=18,missing=18
				17:[f6<-0.009846] yes=35,no=36,missing=36
					35:leaf=-0.046595 
					36:leaf=-0.015190 
				18:[f5<-0.253741] yes=37,no=38,missing=38
					37:leaf=-0.045267 
					38:leaf=-0.098329 
		4:[f2<-0.325818] yes=9,no=10,missing=10
			9:[f34<7846.000000] yes=19,no=20,missing=20
				19:[f2<-0.441952] yes=39,no=40,missing=40
					39:leaf=-0.100181 
					40:leaf=-0.032020 
				20:[f2<-0.462257] yes=41,no=42,missing=42
					41:leaf=-0.132687 
					42:leaf=-0.002617 
			10:[f15<0.045053] yes=21,no=22,missing=22
				21:[f14<35.500000] yes=43,no=44,missing=44
					43:leaf=-0.001226 
					44:leaf=-0.024171 
				22:[f37<7846.000000] yes=45,no=46,missing=46
					45:leaf=-0.020693 
					46:leaf=0.009537 
	2:[f7<0.385436] yes=5,no=6,missing=6
		5:[f15<0.046065] yes=11,no=12,missing=12
			11:[f14<47.500000] yes=23,no=24,missing=24
				23:[f2<0.321849] yes=47,no=48,missing=48
					47:leaf=0.005965 
					48:leaf=-0.042160 
				24:[f15<0.008850] yes=49,no=50,missing=50
					49:leaf=-0.102633 
					50:leaf=-0.025072 
			12:[f14<8205.000000] yes=25,no=26,missing=26
				25:[f16<93.500000] yes=51,no=52,missing=52
					51:leaf=0.103289 
					52:leaf=0.005709 
				26:[f7<-2.486937] yes=53,no=54,missing=54
					53:leaf=0.143937 
					54:leaf=-0.059645 
		6:[f2<-0.423163] yes=13,no=14,missing=14
			13:[f6<-1.208443] yes=27,no=28,missing=28
				27:[f8<-0.523920] yes=55,no=56,missing=56
					55:leaf=-0.023345 
					56:leaf=-0.179195 
				28:[f15<0.039841] yes=57,no=58,missing=58
					57:leaf=-0.107510 
					58:leaf=-0.014578 
			14:[f1<-0.203882] yes=29,no=30,missing=30
				29:[f9<0.135050] yes=59,no=60,missing=60
					59:leaf=0.025871 
					60:leaf=0.006302 
				30:[f36<0.072279] yes=61,no=62,missing=62
					61:leaf=-0.036295 
					62:leaf=0.009351 
booster[20]
0:[f15<0.047257] yes=1,no=2,missing=2
	1:[f14<35.500000] yes=3,no=4,missing=4
		3:[f39<0.083810] yes=7,no=8,missing=8
			7:[f1<0.025525] yes=15,no=16,missing=16
				15:[f11<0.500000] yes=31,no=32,missing=32
					31:leaf=-0.015159 
					32:leaf=0.014048 
				16:[f8<-0.546496] yes=33,no=34,missing=34
					33:leaf=0.153040 
					34:leaf=-0.048779 
			8:[f11<0.500000] yes=17,no=18,missing=18
				17:[f14<29.500000] yes=35,no=36,missing=36
					35:leaf=0.007134 
					36:leaf=0.053387 
				18:[f8<-0.556172] yes=37,no=38,missing=38
					37:leaf=0.086935 
					38:leaf=-0.015543 
		4:[f15<0.014196] yes=9,no=10,missing=10
			9:[f14<133.000000] yes=19,no=20,missing=20
				19:[f33<0.080053] yes=39,no=40,missing=40
					39:leaf=-0.010658 
					40:leaf=-0.062246 
				20:[f9<0.017757] yes=41,no=42,missing=42
					41:leaf=-0.113881 
					42:leaf=-0.060873 
			10:[f12<0.034785] yes=21,no=22,missing=22
				21:[f3<-1.103137] yes=43,no=44,missing=44
					43:leaf=-0.043580 
					44:leaf=-0.016172 
				22:[f11<24.500000] yes=45,no=46,missing=46
					45:leaf=0.004542 
					46:leaf=0.056458 
	2:[f37<7846.000000] yes=5,no=6,missing=6
		5:[f27<0.081301] yes=11,no=12,missing=12
			11:[f40<1.500000] yes=23,no=24,missing=24
				23:[f2<0.339484] yes=47,no=48,missing=48
					47:leaf=-0.068175 
					48:leaf=0.035147 
				24:[f11<48.500000] yes=49,no=50,missing=50
					49:leaf=-0.132705 
					50:leaf=0.007479 
			12:[f10<2.500000] yes=25,no=26,missing=26
				25:[f13<74.000000] yes=51,no=52,missing=52
					51:leaf=-0.003505 
					52:leaf=-0.025765 
				26:[f2<-0.308645] yes=53,no=54,missing=54
					53:leaf=-0.093186 
					54:leaf=0.058231 
		6:[f3<-0.754300] yes=13,no=14,missing=14
			13:[f16<4264.000000] yes=27,no=28,missing=28
				27:[f18<0.134331] yes=55,no=56,missing=56
					55:leaf=0.006510 
					56:leaf=-0.099432 
				28:[f8<-0.472318] yes=57,no=58,missing=58
					57:leaf=0.000686 
					58:leaf=-0.018056 
			14:[f7<0.809512] yes=29,no=30,missing=30
				29:[f2<0.790932] yes=59,no=60,missing=60
					59:leaf=0.005063 
					60:leaf=-0.036246 
				30:[f6<-0.197370] yes=61,no=62,missing=62
					61:leaf=0.004976 
					62:leaf=0.023648 
booster[21]
0:[f28<7846.000000] yes=1,no=2,missing=2
	1:[f1<-0.280351] yes=3,no=4,missing=4
		3:[f34<11470.500000] yes=7,no=8,missing=8
			7:[f5<0.129982] yes=15,no=16,missing=16
				15:[f2<1.000719] yes=31,no=32,missing=32
					31:leaf=0.024456 
					32:leaf=-0.070454 
				16:[f5<1.704819] yes=33,no=34,missing=34
					33:leaf=-0.059963 
					34:leaf=0.011390 
			8:[f10<0.500000] yes=17,no=18,missing=18
				17:[f37<7913.500000] yes=35,no=36,missing=36
					35:leaf=0.002459 
					36:leaf=0.039663 
				18:[f2<-0.417893] yes=37,no=38,missing=38
					37:leaf=-0.070942 
					38:leaf=0.085676 
		4:[f17<22155.500000] yes=9,no=10,missing=10
			9:[f11<26.500000] yes=19,no=20,missing=20
				19:[f9<-0.420096] yes=39,no=40,missing=40
					39:leaf=-0.175892 
					40:leaf=0.058898 
				20:[f8<-0.359439] yes=41,no=42,missing=42
					41:leaf=-0.192838 
					42:leaf=-0.017830 
			10:[f13<28.500000] yes=21,no=22,missing=22
				21:[f31<5864.500000] yes=43,no=44,missing=44
					43:leaf=-0.047149 
					44:leaf=0.024698 
				22:[f6<-0.508691] yes=45,no=46,missing=46
					45:leaf=-0.017872 
					46:leaf=0.014324 
	2:[f12<0.087596] yes=5,no=6,missing=6
		5:[f1<-0.280351] yes=11,no=12,missing=12
			11:[f2<0.099697] yes=23,no=24,missing=24
				23:[f34<7846.000000] yes=47,no=48,missing=48
					47:leaf=-0.007193 
					48:leaf=0.009538 
				24:[f13<159.000000] yes=49,no=50,missing=50
					49:leaf=-0.016171 
					50:leaf=0.013329 
			12:[f34<7846.000000] yes=25,no=26,missing=26
				25:[f11<83.500000] yes=51,no=52,missing=52
					51:leaf=-0.024908 
					52:leaf=0.108243 
				26:[f2<0.750853] yes=53,no=54,missing=54
					53:leaf=-0.006046 
					54:leaf=-0.045933 
		6:[f22<15082.000000] yes=13,no=14,missing=14
			13:[f1<0.560808] yes=27,no=28,missing=28
				27:[f14<102.500000] yes=55,no=56,missing=56
					55:leaf=-0.005213 
					56:leaf=0.019398 
				28:[f12<0.091966] yes=57,no=58,missing=58
					57:leaf=0.080736 
					58:leaf=-0.020691 
			14:[f10<2.500000] yes=29,no=30,missing=30
				29:[f1<-0.356820] yes=59,no=60,missing=60
					59:leaf=0.043263 
					60:leaf=0.012378 
				30:[f12<0.101724] yes=61,no=62,missing=62
					61:leaf=-0.078444 
					62:leaf=0.049995 
booster[22]
0:[f7<0.450896] yes=1,no=2,missing=2
	1:[f12<0.284162] yes=3,no=4,missing=4
		3:[f2<1.345082] yes=7,no=8,missing=8
			7:[f3<-0.933017] yes=15,no=16,missing=16
				15:[f8<4.639492] yes=31,no=32,missing=32
					31:leaf=-0.015688 
					32:leaf=-0.107246 
				16:[f37<7846.000000] yes=33,no=34,missing=34
					33:leaf=-0.021293 
					34:leaf=-0.001023 
			8:[f16<93.500000] yes=17,no=18,missing=18
				17:[f11<7.500000] yes=35,no=36,missing=36
					35:leaf=0.102888 
					36:leaf=-0.064255 
				18:[f13<247.000000] yes=37,no=38,missing=38
					37:leaf=-0.077868 
					38:leaf=-0.016586 
		4:[f2<-0.259121] yes=9,no=10,missing=10
			9:[f15<0.091384] yes=19,no=20,missing=20
				19:[f3<-1.763302] yes=39,no=40,missing=40
					39:leaf=-0.190140 
					40:leaf=-0.016449 
				20:[f15<0.150581] yes=41,no=42,missing=42
					41:leaf=0.030292 
					42:leaf=-0.012081 
			10:[f13<120.000000] yes=21,no=22,missing=22
				21:[f7<-2.723323] yes=43,no=44,missing=44
					43:leaf=-0.229996 
					44:leaf=0.017277 
				22:[f6<-2.546676] yes=45,no=46,missing=46
					45:leaf=-0.095894 
					46:leaf=0.041097 
	2:[f34<7846.000000] yes=5,no=6,missing=6
		5:[f2<-0.320665] yes=11,no=12,missing=12
			11:[f9<-0.436595] yes=23,no=24,missing=24
				23:[f28<7846.000000] yes=47,no=48,missing=48
					47:leaf=0.000060 
					48:leaf=-0.117478 
				24:[f22<7846.000000] yes=49,no=50,missing=50
					49:leaf=-0.121297 
					50:leaf=-0.022688 
			12:[f8<2.107775] yes=25,no=26,missing=26
				25:[f15<0.056576] yes=51,no=52,missing=52
					51:leaf=-0.007850 
					52:leaf=0.010541 
				26:[f14<5.500000] yes=53,no=54,missing=54
					53:leaf=-0.154788 
					54:leaf=-0.031704 
		6:[f2<0.227364] yes=13,no=14,missing=14
			13:[f1<-0.280351] yes=27,no=28,missing=28
				27:[f18<0.093903] yes=55,no=56,missing=56
					55:leaf=0.015536 
					56:leaf=0.031402 
				28:[f37<14786.000000] yes=57,no=58,missing=58
					57:leaf=-0.005295 
					58:leaf=0.017804 
			14:[f13<150.500000] yes=29,no=30,missing=30
				29:[f14<1204.000000] yes=59,no=60,missing=60
					59:leaf=-0.006365 
					60:leaf=-0.067923 
				30:[f37<7846.000000] yes=61,no=62,missing=62
					61:leaf=-0.102084 
					62:leaf=0.019565 
booster[23]
0:[f7<-0.586774] yes=1,no=2,missing=2
	1:[f8<2.610894] yes=3,no=4,missing=4
		3:[f15<0.138616] yes=7,no=8,missing=8
			7:[f9<-0.446928] yes=15,no=16,missing=16
				15:[f1<1.899016] yes=29,no=30,missing=30
					29:leaf=-0.077236 
					30:leaf=0.029303 
				16:[f2<-0.111335] yes=31,no=32,missing=32
					31:leaf=-0.003273 
					32:leaf=-0.016136 
			8:[f14<181.000000] yes=17,no=18,missing=18
				17:[f6<-0.271568] yes=33,no=34,missing=34
					33:leaf=-0.026170 
					34:leaf=0.009734 
				18:[f5<0.490595] yes=35,no=36,missing=36
					35:leaf=0.031575 
					36:leaf=-0.016408 
		4:[f2<1.881115] yes=9,no=10,missing=10
			9:[f2<0.356966] yes=19,no=20,missing=20
				19:[f9<0.300847] yes=37,no=38,missing=38
					37:leaf=-0.042324 
					38:leaf=-0.180104 
				20:[f4<-0.024514] yes=39,no=40,missing=40
					39:leaf=0.025706 
					40:leaf=-0.092110 
			10:leaf=-0.172202 
	2:[f18<0.093903] yes=5,no=6,missing=6
		5:[f12<0.046967] yes=11,no=12,missing=12
			11:[f1<1.019622] yes=21,no=22,missing=22
				21:[f37<7846.000000] yes=41,no=42,missing=42
					41:leaf=-0.023441 
					42:leaf=0.000822 
				22:[f36<0.072279] yes=43,no=44,missing=44
					43:leaf=-0.092331 
					44:leaf=-0.028226 
			12:[f34<11470.500000] yes=23,no=24,missing=24
				23:[f12<0.048200] yes=45,no=46,missing=46
					45:leaf=0.104309 
					46:leaf=0.004798 
				24:[f5<0.463613] yes=47,no=48,missing=48
					47:leaf=0.038460 
					48:leaf=0.010433 
		6:[f2<-0.325658] yes=13,no=14,missing=14
			13:[f34<7846.000000] yes=25,no=26,missing=26
				25:[f2<-0.436946] yes=49,no=50,missing=50
					49:leaf=-0.090079 
					50:leaf=-0.024364 
				26:[f9<-0.409857] yes=51,no=52,missing=52
					51:leaf=-0.012244 
					52:leaf=0.015134 
			14:[f31<4554.500000] yes=27,no=28,missing=28
				27:[f11<8.500000] yes=53,no=54,missing=54
					53:leaf=0.028901 
					54:leaf=-0.014773 
				28:[f4<4.070557] yes=55,no=56,missing=56
					55:leaf=0.004484 
					56:leaf=0.040202 
booster[24]
0:[f6<-0.593126] yes=1,no=2,missing=2
	1:[f7<-0.689272] yes=3,no=4,missing=4
		3:[f18<0.075194] yes=7,no=8,missing=8
			7:[f2<0.252563] yes=15,no=16,missing=16
				15:[f8<-0.330413] yes=31,no=32,missing=32
					31:leaf=-0.013436 
					32:leaf=-0.051310 
				16:[f13<178.000000] yes=33,no=34,missing=34
					33:leaf=-0.087690 
					34:leaf=-0.010442 
			8:[f9<-0.442416] yes=17,no=18,missing=18
				17:[f1<2.319595] yes=35,no=36,missing=36
					35:leaf=-0.089217 
					36:leaf=0.030765 
				18:[f10<1.500000] yes=37,no=38,missing=38
					37:leaf=-0.012747 
					38:leaf=0.027340 
		4:[f8<5.655404] yes=9,no=10,missing=10
			9:[f2<-0.428785] yes=19,no=20,missing=20
				19:[f34<4289.000000] yes=39,no=40,missing=40
					39:leaf=-0.114076 
					40:leaf=-0.026653 
				20:[f3<-1.812485] yes=41,no=42,missing=42
					41:leaf=-0.036995 
					42:leaf=-0.002613 
			10:[f14<495.000000] yes=21,no=22,missing=22
				21:leaf=-0.175898 
				22:[f6<-1.399825] yes=45,no=46,missing=46
					45:leaf=-0.110526 
					46:leaf=0.011679 
	2:[f28<7846.000000] yes=5,no=6,missing=6
		5:[f11<7.500000] yes=11,no=12,missing=12
			11:[f37<14786.000000] yes=23,no=24,missing=24
				23:[f2<1.053380] yes=47,no=48,missing=48
					47:leaf=0.016870 
					48:leaf=-0.098795 
				24:[f5<-0.133033] yes=49,no=50,missing=50
					49:leaf=0.042183 
					50:leaf=0.018510 
			12:[f18<0.097428] yes=25,no=26,missing=26
				25:[f7<1.395496] yes=51,no=52,missing=52
					51:leaf=-0.056181 
					52:leaf=0.040873 
				26:[f15<0.081098] yes=53,no=54,missing=54
					53:leaf=-0.072325 
					54:leaf=0.059228 
		6:[f7<0.970229] yes=13,no=14,missing=14
			13:[f2<1.241776] yes=27,no=28,missing=28
				27:[f37<7846.000000] yes=55,no=56,missing=56
					55:leaf=-0.018470 
					56:leaf=0.000618 
				28:[f16<93.500000] yes=57,no=58,missing=58
					57:leaf=0.068306 
					58:leaf=-0.048786 
			14:[f3<-1.853077] yes=29,no=30,missing=30
				29:[f14<71.500000] yes=59,no=60,missing=60
					59:leaf=-0.035049 
					60:leaf=-0.136651 
				30:[f34<7846.000000] yes=61,no=62,missing=62
					61:leaf=-0.000396 
					62:leaf=0.016455 
booster[25]
0:[f3<-1.506820] yes=1,no=2,missing=2
	1:[f8<-0.504570] yes=3,no=4,missing=4
		3:[f9<-0.243583] yes=7,no=8,missing=8
			7:[f6<0.479410] yes=15,no=16,missing=16
				15:[f7<-1.026605] yes=31,no=32,missing=32
					31:leaf=-0.085066 
					32:leaf=0.023704 
				16:[f6<1.202125] yes=33,no=34,missing=34
					33:leaf=-0.177477 
					34:leaf=0.014402 
			8:[f7<-0.132130] yes=17,no=18,missing=18
				17:[f3<-2.000851] yes=35,no=36,missing=36
					35:leaf=-0.003306 
					36:leaf=0.095088 
				18:[f15<0.046486] yes=37,no=38,missing=38
					37:leaf=-0.123539 
					38:leaf=0.020256 
		4:[f12<0.019819] yes=9,no=10,missing=10
			9:[f1<2.204892] yes=19,no=20,missing=20
				19:[f31<3654.000000] yes=39,no=40,missing=40
					39:leaf=-0.046327 
					40:leaf=-0.020186 
				20:[f17<66003.000000] yes=41,no=42,missing=42
					41:leaf=-0.146985 
					42:leaf=-0.026576 
			10:[f9<0.610722] yes=21,no=22,missing=22
				21:[f16<2925.500000] yes=43,no=44,missing=44
					43:leaf=0.054165 
					44:leaf=-0.009062 
				22:leaf=-0.194011 
	2:[f15<0.138616] yes=5,no=6,missing=6
		5:[f2<-0.416716] yes=11,no=12,missing=12
			11:[f34<7846.000000] yes=23,no=24,missing=24
				23:[f7<-1.150717] yes=45,no=46,missing=46
					45:leaf=-0.018338 
					46:leaf=-0.068166 
				24:[f2<-0.461369] yes=47,no=48,missing=48
					47:leaf=-0.113915 
					48:leaf=-0.006827 
			12:[f18<0.075194] yes=25,no=26,missing=26
				25:[f2<1.287601] yes=49,no=50,missing=50
					49:leaf=-0.005775 
					50:leaf=-0.048056 
				26:[f4<-0.492522] yes=51,no=52,missing=52
					51:leaf=0.013507 
					52:leaf=0.000881 
		6:[f13<16.500000] yes=13,no=14,missing=14
			13:[f1<-0.242116] yes=27,no=28,missing=28
				27:[f6<-1.981277] yes=53,no=54,missing=54
					53:leaf=-0.040630 
					54:leaf=0.010145 
				28:[f13<2.500000] yes=55,no=56,missing=56
					55:leaf=-0.053090 
					56:leaf=-0.003421 
			14:[f11<79.500000] yes=29,no=30,missing=30
				29:[f9<-0.320590] yes=57,no=58,missing=58
					57:leaf=0.004814 
					58:leaf=0.025505 
				30:[f18<0.095543] yes=59,no=60,missing=60
					59:leaf=0.152442 
					60:leaf=0.061634 
booster[26]
0:[f3<0.669119] yes=1,no=2,missing=2
	1:[f15<0.138616] yes=3,no=4,missing=4
		3:[f2<1.706896] yes=7,no=8,missing=8
			7:[f34<7846.000000] yes=15,no=16,missing=16
				15:[f2<-0.001692] yes=31,no=32,missing=32
					31:leaf=-0.017176 
					32:leaf=0.003922 
				16:[f2<0.095394] yes=33,no=34,missing=34
					33:leaf=0.002675 
					34:leaf=-0.016702 
			8:[f8<-0.440067] yes=17,no=18,missing=18
				17:[f15<0.056528] yes=35,no=36,missing=36
					35:leaf=-0.088927 
					36:leaf=0.033037 
				18:[f2<6.473953] yes=37,no=38,missing=38
					37:leaf=-0.076036 
					38:leaf=-0.159379 
		4:[f13<3.500000] yes=9,no=10,missing=10
			9:[f24<0.074376] yes=19,no=20,missing=20
				19:[f6<1.111076] yes=39,no=40,missing=40
					39:leaf=0.080241 
					40:leaf=-0.211641 
				20:[f4<3.017539] yes=41,no=42,missing=42
					41:leaf=-0.013702 
					42:leaf=0.061561 
			10:[f11<79.500000] yes=21,no=22,missing=22
				21:[f2<-0.438001] yes=43,no=44,missing=44
					43:leaf=-0.028193 
					44:leaf=0.015120 
				22:[f3<-1.466683] yes=45,no=46,missing=46
					45:leaf=-0.112979 
					46:leaf=0.132844 
	2:[f6<-0.508691] yes=5,no=6,missing=6
		5:[f15<0.081514] yes=11,no=12,missing=12
			11:[f8<0.530693] yes=23,no=24,missing=24
				23:[f14<1254.500000] yes=47,no=48,missing=48
					47:leaf=-0.004918 
					48:leaf=-0.045038 
				24:[f4<-0.141516] yes=49,no=50,missing=50
					49:leaf=-0.041655 
					50:leaf=-0.138820 
			12:[f5<0.544196] yes=25,no=26,missing=26
				25:[f5<-0.284301] yes=51,no=52,missing=52
					51:leaf=-0.008558 
					52:leaf=0.016881 
				26:[f6<-1.360333] yes=53,no=54,missing=54
					53:leaf=-0.054859 
					54:leaf=-0.003370 
		6:[f12<0.386752] yes=13,no=14,missing=14
			13:[f1<-0.395054] yes=27,no=28,missing=28
				27:[f2<0.097299] yes=55,no=56,missing=56
					55:leaf=0.019822 
					56:leaf=0.002964 
				28:[f15<0.028756] yes=57,no=58,missing=58
					57:leaf=-0.019772 
					58:leaf=0.005664 
			14:[f2<-0.381826] yes=29,no=30,missing=30
				29:[f8<-0.472318] yes=59,no=60,missing=60
					59:leaf=0.057709 
					60:leaf=-0.091770 
				30:[f3<0.937724] yes=61,no=62,missing=62
					61:leaf=0.016117 
					62:leaf=0.043461 
booster[27]
0:[f15<0.112022] yes=1,no=2,missing=2
	1:[f7<-0.908708] yes=3,no=4,missing=4
		3:[f9<0.130590] yes=7,no=8,missing=8
			7:[f8<3.146263] yes=15,no=16,missing=16
				15:[f13<516.500000] yes=31,no=32,missing=32
					31:leaf=-0.006115 
					32:leaf=-0.061383 
				16:[f14<19.500000] yes=33,no=34,missing=34
					33:leaf=0.005835 
					34:leaf=-0.075639 
			8:[f36<0.072279] yes=17,no=18,missing=18
				17:[f6<-0.680577] yes=35,no=36,missing=36
					35:leaf=-0.078942 
					36:leaf=0.020210 
				18:[f3<1.964232] yes=37,no=38,missing=38
					37:leaf=-0.037923 
					38:leaf=0.084052 
		4:[f6<-0.055398] yes=9,no=10,missing=10
			9:[f2<-0.428834] yes=19,no=20,missing=20
				19:[f34<4289.000000] yes=39,no=40,missing=40
					39:leaf=-0.098609 
					40:leaf=-0.024502 
				20:[f9<-0.077592] yes=41,no=42,missing=42
					41:leaf=-0.000709 
					42:leaf=-0.012069 
			10:[f2<-0.452499] yes=21,no=22,missing=22
				21:[f4<-0.375520] yes=43,no=44,missing=44
					43:leaf=-0.141873 
					44:leaf=-0.060818 
				22:[f37<7846.000000] yes=45,no=46,missing=46
					45:leaf=-0.014007 
					46:leaf=0.005119 
	2:[f13<12.500000] yes=5,no=6,missing=6
		5:[f14<74.500000] yes=11,no=12,missing=12
			11:[f33<0.078822] yes=23,no=24,missing=24
				23:[f9<0.381869] yes=47,no=48,missing=48
					47:leaf=-0.006778 
					48:leaf=-0.056832 
				24:[f2<5.794042] yes=49,no=50,missing=50
					49:leaf=0.004861 
					50:leaf=-0.192404 
			12:[f15<0.127111] yes=25,no=26,missing=26
				25:[f9<-0.446279] yes=51,no=52,missing=52
					51:leaf=0.195849 
					52:leaf=0.000187 
				26:[f2<-0.112487] yes=53,no=54,missing=54
					53:leaf=-0.012903 
					54:leaf=-0.091134 
		6:[f1<-0.165647] yes=13,no=14,missing=14
			13:[f5<0.101322] yes=27,no=28,missing=28
				27:[f9<-0.396587] yes=55,no=56,missing=56
					55:leaf=-0.010041 
					56:leaf=0.022466 
				28:[f34<11470.500000] yes=57,no=58,missing=58
					57:leaf=-0.030548 
					58:leaf=0.010480 
			14:[f12<0.088933] yes=29,no=30,missing=30
				29:[f1<6.295983] yes=59,no=60,missing=60
					59:leaf=-0.010060 
					60:leaf=0.108368 
				30:[f8<0.124328] yes=61,no=62,missing=62
					61:leaf=0.020227 
					62:leaf=-0.012232 
booster[28]
0:[f2<-0.386178] yes=1,no=2,missing=2
	1:[f34<7846.000000] yes=3,no=4,missing=4
		3:[f2<-0.416173] yes=7,no=8,missing=8
			7:[f37<14786.000000] yes=15,no=16,missing=16
				15:[f16<4471.000000] yes=31,no=32,missing=32
					31:leaf=-0.046993 
					32:leaf=-0.103727 
				16:[f2<-0.441952] yes=33,no=34,missing=34
					33:leaf=-0.082576 
					34:leaf=-0.020406 
			8:[f31<2740.500000] yes=17,no=18,missing=18
				17:[f5<1.423518] yes=35,no=36,missing=36
					35:leaf=-0.120930 
					36:leaf=0.023967 
				18:[f22<677.500000] yes=37,no=38,missing=38
					37:leaf=-0.142699 
					38:leaf=-0.017205 
		4:[f2<-0.463132] yes=9,no=10,missing=10
			9:[f2<-0.515873] yes=19,no=20,missing=20
				19:leaf=0.058851 
				20:[f18<0.075194] yes=39,no=40,missing=40
					39:leaf=-0.090354 
					40:leaf=-0.143745 
			10:[f7<-1.567925] yes=21,no=22,missing=22
				21:[f5<0.326851] yes=41,no=42,missing=42
					41:leaf=-0.056073 
					42:leaf=0.008293 
				22:[f9<-0.385934] yes=43,no=44,missing=44
					43:leaf=-0.002237 
					44:leaf=-0.187545 
	2:[f15<0.045924] yes=5,no=6,missing=6
		5:[f14<35.500000] yes=11,no=12,missing=12
			11:[f39<0.083810] yes=23,no=24,missing=24
				23:[f15<0.039231] yes=45,no=46,missing=46
					45:leaf=-0.006941 
					46:leaf=-0.062348 
				24:[f5<-0.408129] yes=47,no=48,missing=48
					47:leaf=-0.036246 
					48:leaf=0.009320 
			12:[f15<0.014196] yes=25,no=26,missing=26
				25:[f14<131.000000] yes=49,no=50,missing=50
					49:leaf=-0.030720 
					50:leaf=-0.094861 
				26:[f8<1.011235] yes=51,no=52,missing=52
					51:leaf=-0.009163 
					52:leaf=-0.053021 
		6:[f1<-0.012709] yes=13,no=14,missing=14
			13:[f13<182.000000] yes=27,no=28,missing=28
				27:[f14<1637.500000] yes=53,no=54,missing=54
					53:leaf=0.004808 
					54:leaf=-0.032938 
				28:[f37<7846.000000] yes=55,no=56,missing=56
					55:leaf=-0.023723 
					56:leaf=0.019105 
			14:[f21<0.081288] yes=29,no=30,missing=30
				29:[f37<7846.000000] yes=57,no=58,missing=58
					57:leaf=-0.086336 
					58:leaf=-0.016057 
				30:[f12<0.020204] yes=59,no=60,missing=60
					59:leaf=-0.007042 
					60:leaf=0.015755 
booster[29]
0:[f16<4264.000000] yes=1,no=2,missing=2
	1:[f9<-0.312272] yes=3,no=4,missing=4
		3:[f34<7846.000000] yes=7,no=8,missing=8
			7:[f11<44.500000] yes=15,no=16,missing=16
				15:[f12<0.102632] yes=31,no=32,missing=32
					31:leaf=-0.032002 
					32:leaf=0.008737 
				16:[f13<10.500000] yes=33,no=34,missing=34
					33:leaf=-0.130081 
					34:leaf=0.124439 
			8:[f2<-0.451445] yes=17,no=18,missing=18
				17:[f15<0.244048] yes=35,no=36,missing=36
					35:leaf=-0.059055 
					36:leaf=0.085894 
				18:[f3<-1.377900] yes=37,no=38,missing=38
					37:leaf=-0.021569 
					38:leaf=0.007940 
		4:[f15<0.045783] yes=9,no=10,missing=10
			9:[f14<3.500000] yes=19,no=20,missing=20
				19:[f4<1.262509] yes=39,no=40,missing=40
					39:leaf=0.007058 
					40:leaf=0.052630 
				20:[f10<2.500000] yes=41,no=42,missing=42
					41:leaf=-0.010976 
					42:leaf=0.075267 
			10:[f37<7846.000000] yes=21,no=22,missing=22
				21:[f30<0.076755] yes=43,no=44,missing=44
					43:leaf=-0.091968 
					44:leaf=-0.001075 
				22:[f11<11.500000] yes=45,no=46,missing=46
					45:leaf=0.015670 
					46:leaf=-0.010609 
	2:[f6<-0.197370] yes=5,no=6,missing=6
		5:[f12<0.025321] yes=11,no=12,missing=12
			11:[f1<1.401967] yes=23,no=24,missing=24
				23:[f9<-0.434878] yes=47,no=48,missing=48
					47:leaf=-0.049505 
					48:leaf=-0.009630 
				24:[f7<-0.050857] yes=49,no=50,missing=50
					49:leaf=-0.015255 
					50:leaf=-0.081469 
			12:[f22<15082.000000] yes=25,no=26,missing=26
				25:[f1<1.784312] yes=51,no=52,missing=52
					51:leaf=0.005202 
					52:leaf=-0.051111 
				26:[f11<28.500000] yes=53,no=54,missing=54
					53:leaf=0.009021 
					54:leaf=0.057283 
		6:[f2<1.276702] yes=13,no=14,missing=14
			13:[f28<7846.000000] yes=27,no=28,missing=28
				27:[f1<0.599043] yes=55,no=56,missing=56
					55:leaf=0.021286 
					56:leaf=-0.036493 
				28:[f7<0.576600] yes=57,no=58,missing=58
					57:leaf=-0.003649 
					58:leaf=0.005645 
			14:[f12<0.129047] yes=29,no=30,missing=30
				29:[f4<0.911503] yes=59,no=60,missing=60
					59:leaf=-0.037581 
					60:leaf=-0.126939 
				30:[f5<1.376903] yes=61,no=62,missing=62
					61:leaf=0.027222 
					62:leaf=-0.212341 
booster[30]
0:[f8<2.527040] yes=1,no=2,missing=2
	1:[f37<7846.000000] yes=3,no=4,missing=4
		3:[f27<0.081301] yes=7,no=8,missing=8
			7:[f2<-0.046037] yes=15,no=16,missing=16
				15:[f5<-0.376931] yes=29,no=30,missing=30
					29:leaf=-0.167775 
					30:leaf=-0.067425 
				16:[f2<-0.037192] yes=31,no=32,missing=32
					31:leaf=0.054489 
					32:leaf=-0.038548 
			8:[f2<-0.413165] yes=17,no=18,missing=18
				17:[f15<0.038851] yes=33,no=34,missing=34
					33:leaf=-0.138368 
					34:leaf=-0.032919 
				18:[f11<17.500000] yes=35,no=36,missing=36
					35:leaf=-0.008397 
					36:leaf=0.023212 
		4:[f3<-0.547994] yes=9,no=10,missing=10
			9:[f3<-1.668674] yes=19,no=20,missing=20
				19:[f15<0.140165] yes=37,no=38,missing=38
					37:leaf=-0.025428 
					38:leaf=0.009630 
				20:[f9<1.739035] yes=39,no=40,missing=40
					39:leaf=-0.002246 
					40:leaf=-0.085002 
			10:[f7<0.809512] yes=21,no=22,missing=22
				21:[f9<0.464393] yes=41,no=42,missing=42
					41:leaf=0.002757 
					42:leaf=-0.017148 
				22:[f13<193.000000] yes=43,no=44,missing=44
					43:leaf=0.009305 
					44:leaf=0.022555 
	2:[f12<0.085145] yes=5,no=6,missing=6
		5:[f1<1.057857] yes=11,no=12,missing=12
			11:[f6<0.933478] yes=23,no=24,missing=24
				23:[f7<-0.488552] yes=45,no=46,missing=46
					45:leaf=-0.046090 
					46:leaf=-0.020832 
				24:[f6<1.222699] yes=47,no=48,missing=48
					47:leaf=0.013303 
					48:leaf=-0.045869 
			12:[f3<0.263864] yes=25,no=26,missing=26
				25:[f34<4289.000000] yes=49,no=50,missing=50
					49:leaf=-0.066331 
					50:leaf=-0.145592 
				26:[f3<0.594478] yes=51,no=52,missing=52
					51:leaf=0.069103 
					52:leaf=-0.090356 
		6:[f14<13.500000] yes=13,no=14,missing=14
			13:leaf=-0.250235 
			14:[f12<0.106686] yes=27,no=28,missing=28
				27:[f11<22.000000] yes=53,no=54,missing=54
					53:leaf=-0.008187 
					54:leaf=0.099975 
				28:[f3<1.906789] yes=55,no=56,missing=56
					55:leaf=0.001971 
					56:leaf=0.108532 
booster[31]
0:[f12<0.514706] yes=1,no=2,missing=2
	1:[f3<0.429607] yes=3,no=4,missing=4
		3:[f18<0.075194] yes=7,no=8,missing=8
			7:[f2<0.312146] yes=15,no=16,missing=16
				15:[f8<-0.407816] yes=29,no=30,missing=30
					29:leaf=-0.000040 
					30:leaf=-0.014760 
				16:[f4<0.209491] yes=31,no=32,missing=32
					31:leaf=-0.026871 
					32:leaf=-0.100274 
			8:[f34<7846.000000] yes=17,no=18,missing=18
				17:[f2<-0.426054] yes=33,no=34,missing=34
					33:leaf=-0.054262 
					34:leaf=-0.006153 
				18:[f37<7846.000000] yes=35,no=36,missing=36
					35:leaf=-0.016324 
					36:leaf=0.004103 
		4:[f9<-0.393137] yes=9,no=10,missing=10
			9:[f34<7846.000000] yes=19,no=20,missing=20
				19:[f4<-0.024514] yes=37,no=38,missing=38
					37:leaf=-0.058892 
					38:leaf=0.004562 
				20:[f8<-0.440067] yes=39,no=40,missing=40
					39:leaf=0.013421 
					40:leaf=-0.019220 
			10:[f16<4264.000000] yes=21,no=22,missing=22
				21:[f33<0.083242] yes=41,no=42,missing=42
					41:leaf=0.005972 
					42:leaf=0.020227 
				22:[f2<1.247651] yes=43,no=44,missing=44
					43:leaf=0.003271 
					44:leaf=-0.032084 
	2:[f9<-0.262208] yes=5,no=6,missing=6
		5:[f34<7846.000000] yes=11,no=12,missing=12
			11:[f6<-0.197370] yes=23,no=24,missing=24
				23:[f2<-0.280893] yes=45,no=46,missing=46
					45:leaf=-0.162048 
					46:leaf=0.036452 
				24:[f3<-1.185228] yes=47,no=48,missing=48
					47:leaf=-0.197883 
					48:leaf=0.006595 
			12:[f1<-0.395054] yes=25,no=26,missing=26
				25:[f3<-1.277087] yes=49,no=50,missing=50
					49:leaf=-0.088042 
					50:leaf=0.056377 
				26:[f28<1772.500000] yes=51,no=52,missing=52
					51:leaf=0.093175 
					52:leaf=-0.001482 
		6:[f2<4.563654] yes=13,no=14,missing=14
			13:[f37<14786.000000] yes=27,no=28,missing=28
				27:[f1<1.669609] yes=53,no=54,missing=54
					53:leaf=0.025685 
					54:leaf=-0.142470 
				28:[f14<1.500000] yes=55,no=56,missing=56
					55:leaf=-0.141654 
					56:leaf=0.049824 
			14:leaf=-0.237093 
booster[32]
0:[f28<1772.500000] yes=1,no=2,missing=2
	1:[f5<-0.103232] yes=3,no=4,missing=4
		3:[f5<-0.223335] yes=7,no=8,missing=8
			7:[f6<-2.887330] yes=15,no=16,missing=16
				15:leaf=-0.217009 
				16:[f2<-0.367334] yes=31,no=32,missing=32
					31:leaf=-0.024571 
					32:leaf=0.021278 
			8:[f1<0.063760] yes=17,no=18,missing=18
				17:[f5<-0.193083] yes=33,no=34,missing=34
					33:leaf=0.068809 
					34:leaf=0.037108 
				18:[f3<-0.005745] yes=35,no=36,missing=36
					35:leaf=-0.082067 
					36:leaf=0.016972 
		4:[f34<7913.500000] yes=9,no=10,missing=10
			9:[f11<25.500000] yes=19,no=20,missing=20
				19:[f14<12.500000] yes=37,no=38,missing=38
					37:leaf=-0.262965 
					38:leaf=-0.017856 
				20:[f5<1.704819] yes=39,no=40,missing=40
					39:leaf=0.138417 
					40:leaf=0.015459 
			10:[f7<-0.488552] yes=21,no=22,missing=22
				21:[f31<2571.000000] yes=41,no=42,missing=42
					41:leaf=0.026680 
					42:leaf=-0.032812 
				22:[f1<5.091597] yes=43,no=44,missing=44
					43:leaf=0.021672 
					44:leaf=-0.152750 
	2:[f4<1.496513] yes=5,no=6,missing=6
		5:[f12<0.031754] yes=11,no=12,missing=12
			11:[f11<3.500000] yes=23,no=24,missing=24
				23:[f39<0.083810] yes=45,no=46,missing=46
					45:leaf=-0.006515 
					46:leaf=0.003530 
				24:[f28<13987.000000] yes=47,no=48,missing=48
					47:leaf=-0.037505 
					48:leaf=-0.006249 
			12:[f28<13987.000000] yes=25,no=26,missing=26
				25:[f12<0.262014] yes=49,no=50,missing=50
					49:leaf=-0.009792 
					50:leaf=0.009277 
				26:[f11<26.500000] yes=51,no=52,missing=52
					51:leaf=0.011137 
					52:leaf=0.046942 
		6:[f1<0.293167] yes=13,no=14,missing=14
			13:[f2<1.225675] yes=27,no=28,missing=28
				27:[f3<-1.765105] yes=53,no=54,missing=54
					53:leaf=-0.058835 
					54:leaf=0.020207 
				28:[f16<2925.500000] yes=55,no=56,missing=56
					55:leaf=0.068873 
					56:leaf=-0.113931 
			14:[f25<15537.000000] yes=29,no=30,missing=30
				29:[f2<2.415780] yes=57,no=58,missing=58
					57:leaf=-0.040489 
					58:leaf=0.123574 
				30:[f14<682.000000] yes=59,no=60,missing=60
					59:leaf=0.030885 
					60:leaf=-0.020065 
booster[33]
0:[f15<0.045352] yes=1,no=2,missing=2
	1:[f14<57.500000] yes=3,no=4,missing=4
		3:[f1<1.325498] yes=7,no=8,missing=8
			7:[f2<-0.453177] yes=15,no=16,missing=16
				15:[f3<-2.230607] yes=31,no=32,missing=32
					31:leaf=0.150339 
					32:leaf=-0.100768 
				16:[f3<-2.207968] yes=33,no=34,missing=34
					33:leaf=-0.133763 
					34:leaf=0.000102 
			8:[f3<-0.220538] yes=17,no=18,missing=18
				17:[f15<0.025978] yes=35,no=36,missing=36
					35:leaf=0.005179 
					36:leaf=-0.134999 
				18:[f8<1.749787] yes=37,no=38,missing=38
					37:leaf=-0.095821 
					38:leaf=0.040492 
		4:[f13<5.500000] yes=9,no=10,missing=10
			9:[f14<140.000000] yes=19,no=20,missing=20
				19:[f34<7846.000000] yes=39,no=40,missing=40
					39:leaf=-0.039867 
					40:leaf=-0.012478 
				20:[f12<0.087121] yes=41,no=42,missing=42
					41:leaf=-0.065836 
					42:leaf=0.036530 
			10:[f15<0.016189] yes=21,no=22,missing=22
				21:[f8<0.540368] yes=43,no=44,missing=44
					43:leaf=0.104657 
					44:leaf=-0.155242 
				22:[f14<544.500000] yes=45,no=46,missing=46
					45:leaf=-0.002028 
					46:leaf=-0.040528 
	2:[f1<-0.318585] yes=5,no=6,missing=6
		5:[f2<1.370053] yes=11,no=12,missing=12
			11:[f7<0.103729] yes=23,no=24,missing=24
				23:[f14<8205.000000] yes=47,no=48,missing=48
					47:leaf=0.001413 
					48:leaf=-0.051347 
				24:[f3<-1.894138] yes=49,no=50,missing=50
					49:leaf=-0.058965 
					50:leaf=0.011412 
			12:[f13<196.500000] yes=25,no=26,missing=26
				25:[f7<1.699051] yes=51,no=52,missing=52
					51:leaf=-0.071194 
					52:leaf=0.168127 
				26:[f2<5.226657] yes=53,no=54,missing=54
					53:leaf=0.022109 
					54:leaf=-0.115143 
		6:[f12<0.020204] yes=13,no=14,missing=14
			13:[f11<20.500000] yes=27,no=28,missing=28
				27:[f31<2874.000000] yes=55,no=56,missing=56
					55:leaf=0.008179 
					56:leaf=-0.008668 
				28:[f14<355.500000] yes=57,no=58,missing=58
					57:leaf=-0.002742 
					58:leaf=-0.065215 
			14:[f37<14786.000000] yes=29,no=30,missing=30
				29:[f8<-0.369115] yes=59,no=60,missing=60
					59:leaf=-0.009060 
					60:leaf=0.005796 
				30:[f12<0.036206] yes=61,no=62,missing=62
					61:leaf=0.082883 
					62:leaf=0.012426 
booster[34]
0:[f6<-0.593126] yes=1,no=2,missing=2
	1:[f8<-0.543271] yes=3,no=4,missing=4
		3:[f9<0.211680] yes=7,no=8,missing=8
			7:[f7<1.480412] yes=15,no=16,missing=16
				15:[f5<-1.891186] yes=31,no=32,missing=32
					31:leaf=-0.170760 
					32:leaf=0.042483 
				16:[f6<-1.629503] yes=33,no=34,missing=34
					33:leaf=-0.001482 
					34:leaf=-0.203343 
			8:[f15<0.060850] yes=17,no=18,missing=18
				17:leaf=-0.162698 
				18:[f15<0.063463] yes=35,no=36,missing=36
					35:leaf=0.220029 
					36:leaf=-0.028466 
		4:[f7<-0.689272] yes=9,no=10,missing=10
			9:[f10<1.500000] yes=19,no=20,missing=20
				19:[f18<0.075194] yes=37,no=38,missing=38
					37:leaf=-0.032306 
					38:leaf=-0.011997 
				20:[f2<-0.308010] yes=39,no=40,missing=40
					39:leaf=-0.034628 
					40:leaf=0.043407 
			10:[f5<1.006175] yes=21,no=22,missing=22
				21:[f36<0.072279] yes=41,no=42,missing=42
					41:leaf=-0.014966 
					42:leaf=0.001049 
				22:[f3<-1.469981] yes=43,no=44,missing=44
					43:leaf=-0.064452 
					44:leaf=-0.016329 
	2:[f12<0.612500] yes=5,no=6,missing=6
		5:[f3<1.566715] yes=11,no=12,missing=12
			11:[f9<-0.093432] yes=23,no=24,missing=24
				23:[f34<7846.000000] yes=45,no=46,missing=46
					45:leaf=-0.006674 
					46:leaf=0.008765 
				24:[f13<150.500000] yes=47,no=48,missing=48
					47:leaf=-0.007420 
					48:leaf=0.008284 
			12:[f21<0.081288] yes=25,no=26,missing=26
				25:[f1<-0.050944] yes=49,no=50,missing=50
					49:leaf=0.010664 
					50:leaf=-0.034356 
				26:[f12<0.035099] yes=51,no=52,missing=52
					51:leaf=0.017016 
					52:leaf=0.051553 
		6:[f2<-0.281405] yes=13,no=14,missing=14
			13:[f33<0.078822] yes=27,no=28,missing=28
				27:[f22<7846.000000] yes=53,no=54,missing=54
					53:leaf=0.081210 
					54:leaf=-0.086779 
				28:[f6<1.096759] yes=55,no=56,missing=56
					55:leaf=0.020656 
					56:leaf=-0.138779 
			14:[f8<4.829774] yes=29,no=30,missing=30
				29:[f10<1.500000] yes=57,no=58,missing=58
					57:leaf=0.030621 
					58:leaf=0.052487 
				30:leaf=-0.263375 
booster[35]
0:[f8<2.107775] yes=1,no=2,missing=2
	1:[f16<4264.000000] yes=3,no=4,missing=4
		3:[f4<3.368545] yes=7,no=8,missing=8
			7:[f4<-0.492522] yes=15,no=16,missing=16
				15:[f2<-0.198250] yes=31,no=32,missing=32
					31:leaf=0.002026 
					32:leaf=0.019023 
				16:[f15<0.141701] yes=33,no=34,missing=34
					33:leaf=-0.001305 
					34:leaf=0.013684 
			8:[f3<-1.754260] yes=17,no=18,missing=18
				17:[f4<3.719551] yes=35,no=36,missing=36
					35:leaf=0.033564 
					36:leaf=-0.163711 
				18:[f1<0.101994] yes=37,no=38,missing=38
					37:leaf=0.032602 
					38:leaf=0.000559 
		4:[f3<-0.976238] yes=9,no=10,missing=10
			9:[f8<-0.478769] yes=19,no=20,missing=20
				19:[f7<0.917866] yes=39,no=40,missing=40
					39:leaf=0.008929 
					40:leaf=-0.037453 
				20:[f4<-0.141516] yes=41,no=42,missing=42
					41:leaf=-0.009817 
					42:leaf=-0.024369 
			10:[f2<0.771484] yes=21,no=22,missing=22
				21:[f14<8205.000000] yes=43,no=44,missing=44
					43:leaf=0.001142 
					44:leaf=-0.030533 
				22:[f3<1.995747] yes=45,no=46,missing=46
					45:leaf=-0.025192 
					46:leaf=0.109903 
	2:[f12<0.075499] yes=5,no=6,missing=6
		5:[f1<1.210795] yes=11,no=12,missing=12
			11:[f15<0.115214] yes=23,no=24,missing=24
				23:[f14<837.500000] yes=47,no=48,missing=48
					47:leaf=-0.018634 
					48:leaf=-0.047230 
				24:[f6<0.326936] yes=49,no=50,missing=50
					49:leaf=-0.016398 
					50:leaf=0.018684 
			12:[f8<4.458886] yes=25,no=26,missing=26
				25:[f12<0.047065] yes=51,no=52,missing=52
					51:leaf=-0.137483 
					52:leaf=-0.029975 
				26:[f8<5.739257] yes=53,no=54,missing=54
					53:leaf=0.055291 
					54:leaf=-0.139463 
		6:[f15<0.019708] yes=13,no=14,missing=14
			13:[f6<-0.746344] yes=27,no=28,missing=28
				27:leaf=0.058928 
				28:leaf=0.188013 
			14:[f15<0.056319] yes=29,no=30,missing=30
				29:[f6<-2.111295] yes=57,no=58,missing=58
					57:leaf=0.097826 
					58:leaf=-0.150447 
				30:[f14<13.500000] yes=59,no=60,missing=60
					59:leaf=-0.221029 
					60:leaf=0.020208 
booster[36]
0:[f28<1772.500000] yes=1,no=2,missing=2
	1:[f5<-0.133033] yes=3,no=4,missing=4
		3:[f1<-0.127413] yes=7,no=8,missing=8
			7:[f5<-0.253741] yes=15,no=16,missing=16
				15:[f9<-0.351082] yes=31,no=32,missing=32
					31:leaf=-0.031209 
					32:leaf=0.022884 
				16:[f33<0.079520] yes=33,no=34,missing=34
					33:leaf=0.022229 
					34:leaf=0.048767 
			8:[f16<2925.500000] yes=17,no=18,missing=18
				17:[f3<0.343671] yes=35,no=36,missing=36
					35:leaf=-0.033310 
					36:leaf=0.094557 
				18:[f40<2.500000] yes=37,no=38,missing=38
					37:leaf=-0.006117 
					38:leaf=-0.208975 
		4:[f34<7913.500000] yes=9,no=10,missing=10
			9:[f11<25.500000] yes=19,no=20,missing=20
				19:[f14<143.000000] yes=39,no=40,missing=40
					39:leaf=-0.091039 
					40:leaf=-0.011469 
				20:[f5<1.704819] yes=41,no=42,missing=42
					41:leaf=0.143744 
					42:leaf=0.005762 
			10:[f15<0.211821] yes=21,no=22,missing=22
				21:[f7<-1.026605] yes=43,no=44,missing=44
					43:leaf=-0.023203 
					44:leaf=0.014103 
				22:[f7<1.416721] yes=45,no=46,missing=46
					45:leaf=0.080307 
					46:leaf=-0.056695 
	2:[f6<-0.197370] yes=5,no=6,missing=6
		5:[f5<0.129982] yes=11,no=12,missing=12
			11:[f18<0.075194] yes=23,no=24,missing=24
				23:[f9<-0.125343] yes=47,no=48,missing=48
					47:leaf=0.001755 
					48:leaf=-0.017341 
				24:[f1<0.675512] yes=49,no=50,missing=50
					49:leaf=0.004172 
					50:leaf=-0.016602 
			12:[f8<-0.543271] yes=25,no=26,missing=26
				25:[f2<-0.421265] yes=51,no=52,missing=52
					51:leaf=-0.162590 
					52:leaf=0.046711 
				26:[f14<106.500000] yes=53,no=54,missing=54
					53:leaf=-0.026250 
					54:leaf=-0.009976 
		6:[f2<-0.451790] yes=13,no=14,missing=14
			13:[f5<-0.162982] yes=27,no=28,missing=28
				27:[f4<3.485547] yes=55,no=56,missing=56
					55:leaf=-0.035109 
					56:leaf=0.245103 
				28:[f7<1.641577] yes=57,no=58,missing=58
					57:leaf=-0.116595 
					58:leaf=0.105192 
			14:[f12<0.563492] yes=29,no=30,missing=30
				29:[f7<0.970229] yes=59,no=60,missing=60
					59:leaf=-0.000524 
					60:leaf=0.008312 
				30:[f2<4.437207] yes=61,no=62,missing=62
					61:leaf=0.026803 
					62:leaf=-0.212652 
booster[37]
0:[f34<7846.000000] yes=1,no=2,missing=2
	1:[f2<-0.272338] yes=3,no=4,missing=4
		3:[f2<-0.416173] yes=7,no=8,missing=8
			7:[f7<-1.150717] yes=15,no=16,missing=16
				15:[f11<1.500000] yes=31,no=32,missing=32
					31:leaf=-0.045844 
					32:leaf=0.060557 
				16:[f8<1.904593] yes=33,no=34,missing=34
					33:leaf=-0.043499 
					34:leaf=-0.147372 
			8:[f6<-0.996938] yes=17,no=18,missing=18
				17:[f8<-0.543271] yes=35,no=36,missing=36
					35:leaf=0.063686 
					36:leaf=-0.039885 
				18:[f9<-0.274928] yes=37,no=38,missing=38
					37:leaf=-0.007981 
					38:leaf=-0.087393 
		4:[f11<8.500000] yes=9,no=10,missing=10
			9:[f3<-1.682796] yes=19,no=20,missing=20
				19:[f8<-0.478769] yes=39,no=40,missing=40
					39:leaf=0.037111 
					40:leaf=-0.046857 
				20:[f2<-0.001951] yes=41,no=42,missing=42
					41:leaf=-0.002241 
					42:leaf=0.009353 
			10:[f12<0.016836] yes=21,no=22,missing=22
				21:[f33<0.076712] yes=43,no=44,missing=44
					43:leaf=-0.101928 
					44:leaf=-0.040422 
				22:[f22<15082.000000] yes=45,no=46,missing=46
					45:leaf=-0.026729 
					46:leaf=0.021479 
	2:[f2<0.099956] yes=5,no=6,missing=6
		5:[f37<7846.000000] yes=11,no=12,missing=12
			11:[f27<0.081301] yes=23,no=24,missing=24
				23:[f2<-0.046037] yes=47,no=48,missing=48
					47:leaf=-0.070044 
					48:leaf=-0.000871 
				24:[f1<4.422493] yes=49,no=50,missing=50
					49:leaf=-0.001370 
					50:leaf=-0.082922 
			12:[f7<-1.026605] yes=25,no=26,missing=26
				25:[f2<-0.393982] yes=51,no=52,missing=52
					51:leaf=-0.022659 
					52:leaf=-0.000176 
				26:[f1<-0.433289] yes=53,no=54,missing=54
					53:leaf=0.014925 
					54:leaf=0.004892 
		6:[f13<166.500000] yes=13,no=14,missing=14
			13:[f14<1637.000000] yes=27,no=28,missing=28
				27:[f12<0.594118] yes=55,no=56,missing=56
					55:leaf=-0.012225 
					56:leaf=0.035210 
				28:[f13<128.500000] yes=57,no=58,missing=58
					57:leaf=-0.037540 
					58:leaf=-0.103385 
			14:[f37<7846.000000] yes=29,no=30,missing=30
				29:[f25<15537.000000] yes=59,no=60,missing=60
					59:leaf=-0.139174 
					60:leaf=-0.019465 
				30:[f14<8205.000000] yes=61,no=62,missing=62
					61:leaf=0.017268 
					62:leaf=-0.025854 
booster[38]
0:[f15<0.045352] yes=1,no=2,missing=2
	1:[f14<35.500000] yes=3,no=4,missing=4
		3:[f39<0.083810] yes=7,no=8,missing=8
			7:[f15<0.039231] yes=15,no=16,missing=16
				15:[f9<0.386658] yes=31,no=32,missing=32
					31:leaf=-0.004914 
					32:leaf=-0.042313 
				16:[f3<-0.894564] yes=33,no=34,missing=34
					33:leaf=-0.151394 
					34:leaf=-0.042918 
			8:[f11<0.500000] yes=17,no=18,missing=18
				17:[f14<29.500000] yes=35,no=36,missing=36
					35:leaf=0.006294 
					36:leaf=0.044315 
				18:[f4<-0.024514] yes=37,no=38,missing=38
					37:leaf=-0.003622 
					38:leaf=-0.039061 
		4:[f15<0.029631] yes=9,no=10,missing=10
			9:[f14<669.000000] yes=19,no=20,missing=20
				19:[f2<-0.148493] yes=39,no=40,missing=40
					39:leaf=-0.010718 
					40:leaf=-0.037070 
				20:[f2<0.041729] yes=41,no=42,missing=42
					41:leaf=0.119207 
					42:leaf=-0.145446 
			10:[f15<0.030189] yes=21,no=22,missing=22
				21:[f8<1.427276] yes=43,no=44,missing=44
					43:leaf=0.058272 
					44:leaf=-0.127820 
				22:[f3<-0.933017] yes=45,no=46,missing=46
					45:leaf=-0.033157 
					46:leaf=-0.005307 
	2:[f8<5.216788] yes=5,no=6,missing=6
		5:[f2<-0.377141] yes=11,no=12,missing=12
			11:[f2<-0.462288] yes=23,no=24,missing=24
				23:[f2<-0.515873] yes=47,no=48,missing=48
					47:leaf=0.068082 
					48:leaf=-0.116198 
				24:[f34<7846.000000] yes=49,no=50,missing=50
					49:leaf=-0.021879 
					50:leaf=-0.001986 
			12:[f18<0.075194] yes=25,no=26,missing=26
				25:[f14<8205.000000] yes=51,no=52,missing=52
					51:leaf=-0.001123 
					52:leaf=-0.041642 
				26:[f4<-0.492522] yes=53,no=54,missing=54
					53:leaf=0.012729 
					54:leaf=0.003479 
		6:[f4<2.198524] yes=13,no=14,missing=14
			13:[f13<95.000000] yes=27,no=28,missing=28
				27:[f13<5.500000] yes=55,no=56,missing=56
					55:leaf=-0.100693 
					56:leaf=-0.010327 
				28:[f13<247.000000] yes=57,no=58,missing=58
					57:leaf=-0.125325 
					58:leaf=-0.030319 
			14:[f15<0.103756] yes=29,no=30,missing=30
				29:[f7<1.238765] yes=59,no=60,missing=60
					59:leaf=-0.180428 
					60:leaf=0.141986 
				30:[f1<-0.433289] yes=61,no=62,missing=62
					61:leaf=0.053543 
					62:leaf=0.120622 
booster[39]
0:[f9<-0.435779] yes=1,no=2,missing=2
	1:[f2<-0.463132] yes=3,no=4,missing=4
		3:[f36<0.072279] yes=7,no=8,missing=8
			7:leaf=0.150271 
			8:[f2<-0.515873] yes=15,no=16,missing=16
				15:leaf=0.005243 
				16:[f30<0.076755] yes=29,no=30,missing=30
					29:leaf=-0.063333 
					30:leaf=-0.132754 
		4:[f36<0.072279] yes=9,no=10,missing=10
			9:[f4<0.326492] yes=17,no=18,missing=18
				17:[f6<-0.173129] yes=31,no=32,missing=32
					31:leaf=-0.045420 
					32:leaf=-0.109102 
				18:[f7<-0.586774] yes=33,no=34,missing=34
					33:leaf=0.155538 
					34:leaf=-0.035118 
			10:[f12<0.029911] yes=19,no=20,missing=20
				19:[f2<-0.436564] yes=35,no=36,missing=36
					35:leaf=-0.015102 
					36:leaf=-0.099998 
				20:[f6<1.053297] yes=37,no=38,missing=38
					37:leaf=0.021681 
					38:leaf=-0.136004 
	2:[f15<0.154596] yes=5,no=6,missing=6
		5:[f9<-0.107189] yes=11,no=12,missing=12
			11:[f34<7846.000000] yes=21,no=22,missing=22
				21:[f14<950.000000] yes=39,no=40,missing=40
					39:leaf=-0.001497 
					40:leaf=-0.017008 
				22:[f11<0.500000] yes=41,no=42,missing=42
					41:leaf=0.012205 
					42:leaf=0.001606 
			12:[f13<161.500000] yes=23,no=24,missing=24
				23:[f13<131.500000] yes=43,no=44,missing=44
					43:leaf=-0.006536 
					44:leaf=-0.057799 
				24:[f11<23.500000] yes=45,no=46,missing=46
					45:leaf=0.009122 
					46:leaf=-0.038989 
		6:[f13<3.500000] yes=13,no=14,missing=14
			13:[f3<1.347654] yes=25,no=26,missing=26
				25:[f2<1.668413] yes=47,no=48,missing=48
					47:leaf=-0.009775 
					48:leaf=-0.176271 
				26:[f14<11.500000] yes=49,no=50,missing=50
					49:leaf=0.008182 
					50:leaf=0.075513 
			14:[f14<16.500000] yes=27,no=28,missing=28
				27:[f15<0.258333] yes=51,no=52,missing=52
					51:leaf=-0.020621 
					52:leaf=0.059815 
				28:[f13<8.500000] yes=53,no=54,missing=54
					53:leaf=-0.002574 
					54:leaf=0.015334 
booster[40]
0:[f7<-1.026605] yes=1,no=2,missing=2
	1:[f8<-0.478769] yes=3,no=4,missing=4
		3:[f9<0.261472] yes=7,no=8,missing=8
			7:[f7<-2.486937] yes=15,no=16,missing=16
				15:[f4<0.794501] yes=31,no=32,missing=32
					31:leaf=-0.089848 
					32:leaf=0.084076 
				16:[f13<93.500000] yes=33,no=34,missing=34
					33:leaf=0.018122 
					34:leaf=-0.018554 
			8:[f13<247.000000] yes=17,no=18,missing=18
				17:[f8<-0.511020] yes=35,no=36,missing=36
					35:leaf=-0.015406 
					36:leaf=-0.110456 
				18:[f4<-0.492522] yes=37,no=38,missing=38
					37:leaf=-0.108972 
					38:leaf=0.096091 
		4:[f12<0.084524] yes=9,no=10,missing=10
			9:[f11<9.500000] yes=19,no=20,missing=20
				19:[f5<-0.103232] yes=39,no=40,missing=40
					39:leaf=-0.007670 
					40:leaf=-0.021878 
				20:[f9<-0.321538] yes=41,no=42,missing=42
					41:leaf=0.000066 
					42:leaf=-0.054510 
			10:[f6<1.368317] yes=21,no=22,missing=22
				21:[f31<3654.000000] yes=43,no=44,missing=44
					43:leaf=0.030991 
					44:leaf=0.000567 
				22:[f12<0.833333] yes=45,no=46,missing=46
					45:leaf=-0.238549 
					46:leaf=0.019908 
	2:[f37<7846.000000] yes=5,no=6,missing=6
		5:[f27<0.081301] yes=11,no=12,missing=12
			11:[f14<839.000000] yes=23,no=24,missing=24
				23:[f2<-0.045439] yes=47,no=48,missing=48
					47:leaf=-0.056056 
					48:leaf=-0.000604 
				24:[f13<249.000000] yes=49,no=50,missing=50
					49:leaf=-0.138017 
					50:leaf=-0.064877 
			12:[f11<17.500000] yes=25,no=26,missing=26
				25:[f3<-1.901654] yes=51,no=52,missing=52
					51:leaf=-0.115825 
					52:leaf=-0.007347 
				26:[f6<-0.078495] yes=53,no=54,missing=54
					53:leaf=-0.019589 
					54:leaf=0.048205 
		6:[f3<-0.660241] yes=13,no=14,missing=14
			13:[f22<677.500000] yes=27,no=28,missing=28
				27:[f8<-0.543271] yes=55,no=56,missing=56
					55:leaf=0.087888 
					56:leaf=-0.054376 
				28:[f12<0.392308] yes=57,no=58,missing=58
					57:leaf=-0.004248 
					58:leaf=0.022600 
			14:[f28<1772.500000] yes=29,no=30,missing=30
				29:[f1<3.925444] yes=59,no=60,missing=60
					59:leaf=0.022097 
					60:leaf=-0.057599 
				30:[f18<0.093903] yes=61,no=62,missing=62
					61:leaf=0.001701 
					62:leaf=0.010326 
booster[41]
0:[f4<1.496513] yes=1,no=2,missing=2
	1:[f8<0.643572] yes=3,no=4,missing=4
		3:[f2<-0.449534] yes=7,no=8,missing=8
			7:[f9<-0.449598] yes=15,no=16,missing=16
				15:[f2<-0.462873] yes=31,no=32,missing=32
					31:leaf=-0.097545 
					32:leaf=-0.020737 
				16:leaf=-0.160033 
			8:[f28<1772.500000] yes=17,no=18,missing=18
				17:[f8<0.101752] yes=35,no=36,missing=36
					35:leaf=0.009946 
					36:leaf=0.033531 
				18:[f3<-2.063302] yes=37,no=38,missing=38
					37:leaf=-0.035868 
					38:leaf=0.000163 
		4:[f18<0.134331] yes=9,no=10,missing=10
			9:[f18<0.078500] yes=19,no=20,missing=20
				19:[f13<271.500000] yes=39,no=40,missing=40
					39:leaf=-0.025413 
					40:leaf=0.006908 
				20:[f8<5.616703] yes=41,no=42,missing=42
					41:leaf=-0.001378 
					42:leaf=-0.052637 
			10:[f7<0.248791] yes=21,no=22,missing=22
				21:leaf=-0.180973 
				22:[f7<0.917866] yes=45,no=46,missing=46
					45:leaf=0.009892 
					46:leaf=-0.137442 
	2:[f2<0.434808] yes=5,no=6,missing=6
		5:[f1<1.134326] yes=11,no=12,missing=12
			11:[f3<-1.786894] yes=23,no=24,missing=24
				23:[f8<0.011449] yes=47,no=48,missing=48
					47:leaf=-0.085296 
					48:leaf=0.021203 
				24:[f4<3.368545] yes=49,no=50,missing=50
					49:leaf=0.011669 
					50:leaf=0.026505 
			12:[f6<-0.651078] yes=25,no=26,missing=26
				25:[f7<-2.075379] yes=51,no=52,missing=52
					51:leaf=0.127169 
					52:leaf=-0.122227 
				26:[f1<1.822547] yes=53,no=54,missing=54
					53:leaf=-0.044316 
					54:leaf=0.020486 
		6:[f6<0.918079] yes=13,no=14,missing=14
			13:[f15<0.069183] yes=27,no=28,missing=28
				27:[f4<2.081522] yes=55,no=56,missing=56
					55:leaf=-0.023874 
					56:leaf=-0.130923 
				28:[f16<5318.000000] yes=57,no=58,missing=58
					57:leaf=-0.010844 
					58:leaf=-0.104011 
			14:[f3<-0.915875] yes=29,no=30,missing=30
				29:[f3<-1.595443] yes=59,no=60,missing=60
					59:leaf=-0.010319 
					60:leaf=-0.174672 
				30:[f40<2.500000] yes=61,no=62,missing=62
					61:leaf=0.039743 
					62:leaf=-0.028805 
booster[42]
0:[f3<1.562464] yes=1,no=2,missing=2
	1:[f12<0.087596] yes=3,no=4,missing=4
		3:[f1<-0.280351] yes=7,no=8,missing=8
			7:[f2<0.370700] yes=15,no=16,missing=16
				15:[f39<0.083810] yes=31,no=32,missing=32
					31:leaf=-0.002941 
					32:leaf=0.005930 
				16:[f9<0.377822] yes=33,no=34,missing=34
					33:leaf=-0.066117 
					34:leaf=-0.010219 
			8:[f2<-0.455624] yes=17,no=18,missing=18
				17:[f16<2925.500000] yes=35,no=36,missing=36
					35:leaf=0.023126 
					36:leaf=-0.109091 
				18:[f36<0.072279] yes=37,no=38,missing=38
					37:leaf=-0.020541 
					38:leaf=-0.005040 
		4:[f1<-0.050944] yes=9,no=10,missing=10
			9:[f10<1.500000] yes=19,no=20,missing=20
				19:[f1<-0.356820] yes=39,no=40,missing=40
					39:leaf=0.022350 
					40:leaf=0.004722 
				20:[f14<6550.000000] yes=41,no=42,missing=42
					41:leaf=0.035528 
					42:leaf=-0.069342 
			10:[f11<9.500000] yes=21,no=22,missing=22
				21:[f13<103.500000] yes=43,no=44,missing=44
					43:leaf=-0.022720 
					44:leaf=0.008205 
				22:[f36<0.072279] yes=45,no=46,missing=46
					45:leaf=-0.027179 
					46:leaf=0.020304 
	2:[f2<3.195330] yes=5,no=6,missing=6
		5:[f8<0.682274] yes=11,no=12,missing=12
			11:[f2<1.088947] yes=23,no=24,missing=24
				23:[f15<0.037123] yes=47,no=48,missing=48
					47:leaf=-0.001271 
					48:leaf=0.016405 
				24:[f14<178.500000] yes=49,no=50,missing=50
					49:leaf=-0.140528 
					50:leaf=0.002569 
			12:[f2<-0.257938] yes=25,no=26,missing=26
				25:[f7<-1.893792] yes=51,no=52,missing=52
					51:leaf=0.125619 
					52:leaf=-0.078168 
				26:[f2<-0.076587] yes=53,no=54,missing=54
					53:leaf=0.019620 
					54:leaf=-0.015876 
		6:[f15<0.039781] yes=13,no=14,missing=14
			13:[f2<3.754929] yes=27,no=28,missing=28
				27:[f7<0.385436] yes=55,no=56,missing=56
					55:leaf=0.324729 
					56:leaf=0.167820 
				28:[f17<878.500000] yes=57,no=58,missing=58
					57:leaf=0.151485 
					58:leaf=0.002235 
			14:[f32<32886.000000] yes=29,no=30,missing=30
				29:[f14<29.000000] yes=59,no=60,missing=60
					59:leaf=0.116721 
					60:leaf=-0.039026 
				30:[f14<117.500000] yes=61,no=62,missing=62
					61:leaf=-0.157092 
					62:leaf=0.105522 
booster[43]
0:[f6<-0.197370] yes=1,no=2,missing=2
	1:[f12<0.087596] yes=3,no=4,missing=4
		3:[f1<1.363733] yes=7,no=8,missing=8
			7:[f5<0.101322] yes=15,no=16,missing=16
				15:[f2<0.232585] yes=31,no=32,missing=32
					31:leaf=0.000853 
					32:leaf=-0.015446 
				16:[f11<10.500000] yes=33,no=34,missing=34
					33:leaf=-0.014000 
					34:leaf=0.044533 
			8:[f13<291.500000] yes=17,no=18,missing=18
				17:[f7<0.103729] yes=35,no=36,missing=36
					35:leaf=0.000813 
					36:leaf=-0.035880 
				18:[f2<-0.441126] yes=37,no=38,missing=38
					37:leaf=0.073838 
					38:leaf=-0.060272 
		4:[f14<1254.500000] yes=9,no=10,missing=10
			9:[f14<1204.000000] yes=19,no=20,missing=20
				19:[f3<0.020628] yes=39,no=40,missing=40
					39:leaf=0.008456 
					40:leaf=-0.010673 
				20:[f11<4.500000] yes=41,no=42,missing=42
					41:leaf=0.015505 
					42:leaf=-0.187853 
			10:[f1<4.537196] yes=21,no=22,missing=22
				21:[f11<48.500000] yes=43,no=44,missing=44
					43:leaf=0.020033 
					44:leaf=0.096704 
				22:[f13<414.000000] yes=45,no=46,missing=46
					45:leaf=-0.124978 
					46:leaf=0.090076 
	2:[f7<0.864312] yes=5,no=6,missing=6
		5:[f37<7846.000000] yes=11,no=12,missing=12
			11:[f25<15537.000000] yes=23,no=24,missing=24
				23:[f14<416.500000] yes=47,no=48,missing=48
					47:leaf=-0.023491 
					48:leaf=-0.085308 
				24:[f11<17.500000] yes=49,no=50,missing=50
					49:leaf=-0.011035 
					50:leaf=0.034867 
			12:[f1<0.178463] yes=25,no=26,missing=26
				25:[f13<182.000000] yes=51,no=52,missing=52
					51:leaf=0.000303 
					52:leaf=0.011092 
				26:[f9<-0.147067] yes=53,no=54,missing=54
					53:leaf=0.001429 
					54:leaf=-0.020398 
		6:[f3<-1.897894] yes=13,no=14,missing=14
			13:[f15<0.117764] yes=27,no=28,missing=28
				27:[f15<0.115214] yes=55,no=56,missing=56
					55:leaf=-0.094763 
					56:leaf=0.169263 
				28:leaf=-0.193328 
			14:[f34<11470.500000] yes=29,no=30,missing=30
				29:[f2<-0.338566] yes=57,no=58,missing=58
					57:leaf=-0.015232 
					58:leaf=0.006693 
				30:[f3<1.401475] yes=59,no=60,missing=60
					59:leaf=0.011102 
					60:leaf=0.030083 
booster[44]
0:[f3<-1.506820] yes=1,no=2,missing=2
	1:[f8<-0.504570] yes=3,no=4,missing=4
		3:[f9<-0.243583] yes=7,no=8,missing=8
			7:[f6<0.479410] yes=15,no=16,missing=16
				15:[f7<-1.026605] yes=31,no=32,missing=32
					31:leaf=-0.076693 
					32:leaf=0.017490 
				16:[f6<1.202125] yes=33,no=34,missing=34
					33:leaf=-0.158379 
					34:leaf=0.028007 
			8:[f7<-0.132130] yes=17,no=18,missing=18
				17:[f37<14786.000000] yes=35,no=36,missing=36
					35:leaf=0.096401 
					36:leaf=0.017048 
				18:[f16<4910.500000] yes=37,no=38,missing=38
					37:leaf=-0.043429 
					38:leaf=0.045671 
		4:[f13<3.500000] yes=9,no=10,missing=10
			9:[f31<3654.000000] yes=19,no=20,missing=20
				19:[f5<-3.594396] yes=39,no=40,missing=40
					39:leaf=0.121385 
					40:leaf=-0.067062 
				20:[f15<0.037386] yes=41,no=42,missing=42
					41:leaf=-0.004678 
					42:leaf=-0.038361 
			10:[f5<-1.891186] yes=21,no=22,missing=22
				21:[f14<967.000000] yes=43,no=44,missing=44
					43:leaf=-0.115158 
					44:leaf=-0.007413 
				22:[f7<-1.420485] yes=45,no=46,missing=46
					45:leaf=-0.032226 
					46:leaf=-0.004962 
	2:[f4<4.655566] yes=5,no=6,missing=6
		5:[f16<93.500000] yes=11,no=12,missing=12
			11:[f9<-0.150778] yes=23,no=24,missing=24
				23:[f14<271.500000] yes=47,no=48,missing=48
					47:leaf=0.077786 
					48:leaf=-0.142771 
				24:[f2<2.939873] yes=49,no=50,missing=50
					49:leaf=0.067257 
					50:leaf=-0.025009 
			12:[f2<0.780194] yes=25,no=26,missing=26
				25:[f34<7846.000000] yes=51,no=52,missing=52
					51:leaf=-0.003890 
					52:leaf=0.002600 
				26:[f12<0.236068] yes=53,no=54,missing=54
					53:leaf=-0.024850 
					54:leaf=0.020409 
		6:[f6<0.948780] yes=13,no=14,missing=14
			13:[f11<3.500000] yes=27,no=28,missing=28
				27:[f16<4264.000000] yes=55,no=56,missing=56
					55:leaf=0.029417 
					56:leaf=-0.065154 
				28:[f15<0.089374] yes=57,no=58,missing=58
					57:leaf=-0.111178 
					58:leaf=0.026422 
			14:[f31<2874.000000] yes=29,no=30,missing=30
				29:[f13<22.000000] yes=59,no=60,missing=60
					59:leaf=-0.170200 
					60:leaf=0.024115 
				30:[f24<0.074376] yes=61,no=62,missing=62
					61:leaf=-0.106513 
					62:leaf=0.060266 
booster[45]
0:[f7<-0.216307] yes=1,no=2,missing=2
	1:[f8<-0.111105] yes=3,no=4,missing=4
		3:[f11<48.500000] yes=7,no=8,missing=8
			7:[f1<-0.318585] yes=15,no=16,missing=16
				15:[f31<5226.000000] yes=31,no=32,missing=32
					31:leaf=-0.003528 
					32:leaf=0.007767 
				16:[f17<64592.000000] yes=33,no=34,missing=34
					33:leaf=-0.010032 
					34:leaf=0.003635 
			8:[f8<-0.472318] yes=17,no=18,missing=18
				17:[f10<6.500000] yes=35,no=36,missing=36
					35:leaf=-0.150375 
					36:leaf=0.047793 
				18:[f14<3542.000000] yes=37,no=38,missing=38
					37:leaf=0.085744 
					38:leaf=-0.075107 
		4:[f6<0.034874] yes=9,no=10,missing=10
			9:[f12<0.041960] yes=19,no=20,missing=20
				19:[f18<0.078500] yes=39,no=40,missing=40
					39:leaf=-0.032406 
					40:leaf=-0.014064 
				20:[f15<0.020274] yes=41,no=42,missing=42
					41:leaf=0.157988 
					42:leaf=0.002772 
			10:[f9<-0.448802] yes=21,no=22,missing=22
				21:[f1<1.860781] yes=43,no=44,missing=44
					43:leaf=-0.153625 
					44:leaf=0.072593 
				22:[f8<5.616703] yes=45,no=46,missing=46
					45:leaf=-0.003037 
					46:leaf=-0.068339 
	2:[f4<4.655566] yes=5,no=6,missing=6
		5:[f37<7846.000000] yes=11,no=12,missing=12
			11:[f5<0.072524] yes=23,no=24,missing=24
				23:[f14<839.000000] yes=47,no=48,missing=48
					47:leaf=-0.012892 
					48:leaf=-0.043949 
				24:[f8<-0.549721] yes=49,no=50,missing=50
					49:leaf=0.072537 
					50:leaf=0.000167 
			12:[f15<0.049649] yes=25,no=26,missing=26
				25:[f22<677.500000] yes=51,no=52,missing=52
					51:leaf=-0.036286 
					52:leaf=-0.001734 
				26:[f14<12.500000] yes=53,no=54,missing=54
					53:leaf=-0.010270 
					54:leaf=0.005297 
		6:[f13<18.500000] yes=13,no=14,missing=14
			13:[f3<-1.352024] yes=27,no=28,missing=28
				27:leaf=-0.178351 
				28:[f2<-0.274261] yes=55,no=56,missing=56
					55:leaf=-0.202755 
					56:leaf=0.012704 
			14:[f28<7846.000000] yes=29,no=30,missing=30
				29:[f1<-0.203882] yes=57,no=58,missing=58
					57:leaf=0.012672 
					58:leaf=-0.143657 
				30:[f11<32.500000] yes=59,no=60,missing=60
					59:leaf=0.054497 
					60:leaf=-0.120040 
booster[46]
0:[f8<2.527040] yes=1,no=2,missing=2
	1:[f4<1.496513] yes=3,no=4,missing=4
		3:[f4<-0.492522] yes=7,no=8,missing=8
			7:[f3<-0.941619] yes=15,no=16,missing=16
				15:[f22<7846.000000] yes=29,no=30,missing=30
					29:leaf=-0.044725 
					30:leaf=-0.004766 
				16:[f18<0.075194] yes=31,no=32,missing=32
					31:leaf=0.001125 
					32:leaf=0.010188 
			8:[f9<-0.099651] yes=17,no=18,missing=18
				17:[f34<7846.000000] yes=33,no=34,missing=34
					33:leaf=-0.005942 
					34:leaf=0.005029 
				18:[f2<-0.099419] yes=35,no=36,missing=36
					35:leaf=-0.132348 
					36:leaf=-0.006750 
		4:[f3<-1.768727] yes=9,no=10,missing=10
			9:[f5<-0.133033] yes=19,no=20,missing=20
				19:[f5<-0.315019] yes=37,no=38,missing=38
					37:leaf=-0.141675 
					38:leaf=-0.007060 
				20:leaf=-0.158900 
			10:[f1<-0.280351] yes=21,no=22,missing=22
				21:[f2<1.226218] yes=39,no=40,missing=40
					39:leaf=0.018823 
					40:leaf=-0.088356 
				22:[f33<0.076712] yes=41,no=42,missing=42
					41:leaf=-0.031193 
					42:leaf=0.006787 
	2:[f12<0.085145] yes=5,no=6,missing=6
		5:[f11<10.500000] yes=11,no=12,missing=12
			11:[f14<805.500000] yes=23,no=24,missing=24
				23:[f24<0.074376] yes=43,no=44,missing=44
					43:leaf=0.056374 
					44:leaf=-0.009538 
				24:[f6<-1.834321] yes=45,no=46,missing=46
					45:leaf=-0.138690 
					46:leaf=-0.027684 
			12:[f5<-0.193083] yes=25,no=26,missing=26
				25:[f5<-4.832022] yes=47,no=48,missing=48
					47:leaf=0.090454 
					48:leaf=-0.125188 
				26:[f4<0.443494] yes=49,no=50,missing=50
					49:leaf=-0.045592 
					50:leaf=0.071363 
		6:[f14<13.500000] yes=13,no=14,missing=14
			13:leaf=-0.189427 
			14:[f8<4.410509] yes=27,no=28,missing=28
				27:[f15<0.046736] yes=51,no=52,missing=52
					51:leaf=-0.184235 
					52:leaf=0.007000 
				28:[f11<1.500000] yes=53,no=54,missing=54
					53:leaf=-0.066790 
					54:leaf=0.056222 
booster[47]
0:[f25<222.500000] yes=1,no=2,missing=2
	1:[f15<0.093420] yes=3,no=4,missing=4
		3:[f8<0.717750] yes=7,no=8,missing=8
			7:[f6<-2.963864] yes=15,no=16,missing=16
				15:leaf=0.239581 
				16:[f8<-0.465868] yes=29,no=30,missing=30
					29:leaf=-0.005634 
					30:leaf=0.070388 
			8:[f5<-0.223335] yes=17,no=18,missing=18
				17:[f3<0.635693] yes=31,no=32,missing=32
					31:leaf=-0.143216 
					32:leaf=0.107949 
				18:leaf=-0.194822 
		4:[f3<1.911934] yes=9,no=10,missing=10
			9:[f15<0.168922] yes=19,no=20,missing=20
				19:[f2<-0.380211] yes=33,no=34,missing=34
					33:leaf=-0.179040 
					34:leaf=0.008664 
				20:[f37<7913.500000] yes=35,no=36,missing=36
					35:leaf=-0.067515 
					36:leaf=0.102484 
			10:leaf=-0.253394 
	2:[f3<0.723413] yes=5,no=6,missing=6
