booster[0]
0:[f15<0.092515] yes=1,no=2,missing=2
	1:[f28<7846.000000] yes=3,no=4,missing=4
		3:[f1<0.025525] yes=7,no=8,missing=8
			7:[f1<-0.280351] yes=15,no=16,missing=16
				15:[f2<-0.299386] yes=31,no=32,missing=32
					31:leaf=0.049914 
					32:leaf=0.093131 
				16:[f15<0.046725] yes=33,no=34,missing=34
					33:leaf=-0.060000 
					34:leaf=0.050195 
			8:[f33<0.086903] yes=17,no=18,missing=18
				17:[f11<5.500000] yes=35,no=36,missing=36
					35:leaf=-0.035714 
					36:leaf=-0.142718 
				18:[f3<1.443507] yes=37,no=38,missing=38
					37:leaf=0.013204 
					38:leaf=-0.194203 
		4:[f43<1.677160] yes=9,no=10,missing=10
			9:[f12<0.084524] yes=19,no=20,missing=20
				19:[f1<-0.127413] yes=39,no=40,missing=40
					39:leaf=-0.027886 
					40:leaf=-0.077271 
				20:[f2<-0.377215] yes=41,no=42,missing=42
					41:leaf=-0.024675 
					42:leaf=0.036309 
			10:[f42<0.083810] yes=21,no=22,missing=22
				21:[f12<0.193750] yes=43,no=44,missing=44
					43:leaf=-0.055027 
					44:leaf=0.085977 
				22:[f1<0.101994] yes=45,no=46,missing=46
					45:leaf=0.038085 
					46:leaf=-0.039361 
	2:[f28<7846.000000] yes=5,no=6,missing=6
		5:[f1<-0.127413] yes=11,no=12,missing=12
			11:[f43<-1.273613] yes=23,no=24,missing=24
				23:[f5<-0.014709] yes=47,no=48,missing=48
					47:leaf=0.068037 
					48:leaf=-0.083196 
				24:[f9<-0.337268] yes=49,no=50,missing=50
					49:leaf=0.070604 
					50:leaf=0.114419 
			12:[f43<-1.059896] yes=25,no=26,missing=26
				25:[f36<0.078822] yes=51,no=52,missing=52
					51:leaf=-0.185000 
					52:leaf=-0.045006 
				26:[f9<-0.003747] yes=53,no=54,missing=54
					53:leaf=0.026151 
					54:leaf=0.090304 
		6:[f12<0.152395] yes=13,no=14,missing=14
			13:[f43<-1.117138] yes=27,no=28,missing=28
				27:[f5<-0.103232] yes=55,no=56,missing=56
					55:leaf=-0.014619 
					56:leaf=-0.132057 
				28:[f1<-0.012709] yes=57,no=58,missing=58
					57:leaf=0.027922 
					58:leaf=-0.017155 
			14:[f43<-0.955280] yes=29,no=30,missing=30
				29:[f5<-0.103232] yes=59,no=60,missing=60
					59:leaf=0.050475 
					60:leaf=-0.056200 
				30:[f40<14786.000000] yes=61,no=62,missing=62
					61:leaf=0.063271 
					62:leaf=0.096601 
booster[1]
0:[f15<0.082088] yes=1,no=2,missing=2
	1:[f1<-0.050944] yes=3,no=4,missing=4
		3:[f28<7846.000000] yes=7,no=8,missing=8
			7:[f1<-0.280351] yes=15,no=16,missing=16
				15:[f3<-1.772353] yes=31,no=32,missing=32
					31:leaf=-0.151896 
					32:leaf=0.078105 
				16:[f14<468.500000] yes=33,no=34,missing=34
					33:leaf=-0.049366 
					34:leaf=0.057715 
			8:[f43<1.713767] yes=17,no=18,missing=18
				17:[f12<0.190909] yes=35,no=36,missing=36
					35:leaf=-0.029174 
					36:leaf=0.048256 
				18:[f42<0.083810] yes=37,no=38,missing=38
					37:leaf=-0.053939 
					38:leaf=0.035416 
		4:[f12<0.084524] yes=9,no=10,missing=10
			9:[f43<-0.876325] yes=19,no=20,missing=20
				19:[f5<-0.376931] yes=39,no=40,missing=40
					39:leaf=-0.157100 
					40:leaf=-0.096556 
				20:[f30<0.076755] yes=41,no=42,missing=42
					41:leaf=-0.085222 
					42:leaf=-0.052715 
			10:[f11<33.500000] yes=21,no=22,missing=22
				21:[f36<0.080053] yes=43,no=44,missing=44
					43:leaf=-0.025709 
					44:leaf=0.020447 
				22:[f15<0.051209] yes=45,no=46,missing=46
					45:leaf=0.120326 
					46:leaf=0.005690 
	2:[f28<7846.000000] yes=5,no=6,missing=6
		5:[f1<-0.203882] yes=11,no=12,missing=12
			11:[f43<-1.273613] yes=23,no=24,missing=24
				23:[f5<-0.133033] yes=47,no=48,missing=48
					47:leaf=0.062182 
					48:leaf=-0.080538 
				24:[f9<-0.337268] yes=49,no=50,missing=50
					49:leaf=0.062706 
					50:leaf=0.100379 
			12:[f43<-1.007139] yes=25,no=26,missing=26
				25:[f15<0.152403] yes=51,no=52,missing=52
					51:leaf=-0.077833 
					52:leaf=0.034065 
				26:[f2<-0.308509] yes=53,no=54,missing=54
					53:leaf=-0.017551 
					54:leaf=0.060203 
		6:[f12<0.101724] yes=13,no=14,missing=14
			13:[f1<-0.012709] yes=27,no=28,missing=28
				27:[f13<189.500000] yes=55,no=56,missing=56
					55:leaf=0.005661 
					56:leaf=0.044207 
				28:[f2<-0.426258] yes=57,no=58,missing=58
					57:leaf=-0.109481 
					58:leaf=-0.030304 
			14:[f40<14786.000000] yes=29,no=30,missing=30
				29:[f12<0.255435] yes=59,no=60,missing=60
					59:leaf=0.012895 
					60:leaf=0.058962 
				30:[f43<-1.445162] yes=61,no=62,missing=62
					61:leaf=-0.021200 
					62:leaf=0.082031 
booster[2]
0:[f15<0.092515] yes=1,no=2,missing=2
	1:[f28<7846.000000] yes=3,no=4,missing=4
		3:[f1<0.025525] yes=7,no=8,missing=8
			7:[f2<-0.416278] yes=15,no=16,missing=16
				15:[f1<-0.471523] yes=31,no=32,missing=32
					31:leaf=0.044425 
					32:leaf=-0.060455 
				16:[f1<-0.280351] yes=33,no=34,missing=34
					33:leaf=0.071842 
					34:leaf=0.032675 
			8:[f33<0.086903] yes=17,no=18,missing=18
				17:[f2<0.001544] yes=35,no=36,missing=36
					35:leaf=-0.059817 
					36:leaf=-0.174331 
				18:[f3<1.443507] yes=37,no=38,missing=38
					37:leaf=0.017851 
					38:leaf=-0.176092 
		4:[f12<0.089572] yes=9,no=10,missing=10
			9:[f1<-0.127413] yes=19,no=20,missing=20
				19:[f43<1.714485] yes=39,no=40,missing=40
					39:leaf=-0.022998 
					40:leaf=0.021379 
				20:[f43<-1.061152] yes=41,no=42,missing=42
					41:leaf=-0.091825 
					42:leaf=-0.055237 
			10:[f2<-0.377234] yes=21,no=22,missing=22
				21:[f11<48.500000] yes=43,no=44,missing=44
					43:leaf=-0.029238 
					44:leaf=0.098192 
				22:[f1<-0.050944] yes=45,no=46,missing=46
					45:leaf=0.052235 
					46:leaf=0.017745 
	2:[f43<-1.054333] yes=5,no=6,missing=6
		5:[f5<-0.014709] yes=11,no=12,missing=12
			11:[f5<-0.566602] yes=23,no=24,missing=24
				23:[f3<0.796297] yes=47,no=48,missing=48
					47:leaf=-0.143026 
					48:leaf=-0.051873 
				24:[f2<-0.424988] yes=49,no=50,missing=50
					49:leaf=-0.102944 
					50:leaf=0.011560 
			12:[f2<0.036711] yes=25,no=26,missing=26
				25:[f10<2.500000] yes=51,no=52,missing=52
					51:leaf=-0.126345 
					52:leaf=0.008055 
				26:[f7<0.027704] yes=53,no=54,missing=54
					53:leaf=-0.120018 
					54:leaf=-0.044441 
		6:[f28<7846.000000] yes=13,no=14,missing=14
			13:[f1<0.063760] yes=27,no=28,missing=28
				27:[f9<-0.341817] yes=55,no=56,missing=56
					55:leaf=0.053323 
					56:leaf=0.092898 
				28:[f40<14786.000000] yes=57,no=58,missing=58
					57:leaf=-0.011152 
					58:leaf=0.057031 
			14:[f12<0.152395] yes=29,no=30,missing=30
				29:[f43<1.669624] yes=59,no=60,missing=60
					59:leaf=0.012408 
					60:leaf=0.058828 
				30:[f9<-0.387934] yes=61,no=62,missing=62
					61:leaf=0.016054 
					62:leaf=0.068639 
booster[3]
0:[f15<0.079240] yes=1,no=2,missing=2
	1:[f1<0.025525] yes=3,no=4,missing=4
		3:[f28<7846.000000] yes=7,no=8,missing=8
			7:[f1<-0.395054] yes=15,no=16,missing=16
				15:[f2<0.605063] yes=31,no=32,missing=32
					31:leaf=0.069947 
					32:leaf=-0.152757 
				16:[f15<0.046725] yes=33,no=34,missing=34
					33:leaf=-0.028739 
					34:leaf=0.040570 
			8:[f43<1.634453] yes=17,no=18,missing=18
				17:[f3<0.155938] yes=35,no=36,missing=36
					35:leaf=-0.036707 
					36:leaf=-0.008541 
				18:[f42<0.083810] yes=37,no=38,missing=38
					37:leaf=-0.049066 
					38:leaf=0.027400 
		4:[f12<0.053343] yes=9,no=10,missing=10
			9:[f33<0.086903] yes=19,no=20,missing=20
				19:[f11<0.500000] yes=39,no=40,missing=40
					39:leaf=-0.035912 
					40:leaf=-0.087132 
				20:[f12<0.030415] yes=41,no=42,missing=42
					41:leaf=-0.050406 
					42:leaf=0.050680 
			10:[f7<-0.216307] yes=21,no=22,missing=22
				21:[f15<0.053959] yes=43,no=44,missing=44
					43:leaf=-0.004861 
					44:leaf=-0.066149 
				22:[f10<2.500000] yes=45,no=46,missing=46
					45:leaf=-0.001141 
					46:leaf=0.052339 
	2:[f28<7846.000000] yes=5,no=6,missing=6
		5:[f1<0.369636] yes=11,no=12,missing=12
			11:[f9<-0.321239] yes=23,no=24,missing=24
				23:[f1<-0.203882] yes=47,no=48,missing=48
					47:leaf=0.048427 
					48:leaf=-0.031760 
				24:[f40<14786.000000] yes=49,no=50,missing=50
					49:leaf=0.067789 
					50:leaf=0.089850 
			12:[f16<3965.000000] yes=25,no=26,missing=26
				25:[f43<-1.283842] yes=51,no=52,missing=52
					51:leaf=-0.108014 
					52:leaf=0.061875 
				26:[f8<0.056601] yes=53,no=54,missing=54
					53:leaf=-0.014901 
					54:leaf=-0.127704 
		6:[f12<0.149074] yes=13,no=14,missing=14
			13:[f1<-0.203882] yes=27,no=28,missing=28
				27:[f13<189.500000] yes=55,no=56,missing=56
					55:leaf=0.007005 
					56:leaf=0.040634 
				28:[f43<-1.058640] yes=57,no=58,missing=58
					57:leaf=-0.056820 
					58:leaf=-0.012678 
			14:[f2<-0.382652] yes=29,no=30,missing=30
				29:[f3<-1.278665] yes=59,no=60,missing=60
					59:leaf=-0.070249 
					60:leaf=0.018165 
				30:[f40<14786.000000] yes=61,no=62,missing=62
					61:leaf=0.044300 
					62:leaf=0.070340 
booster[4]
0:[f15<0.065915] yes=1,no=2,missing=2
	1:[f1<-0.203882] yes=3,no=4,missing=4
		3:[f2<0.099956] yes=7,no=8,missing=8
			7:[f3<0.368604] yes=15,no=16,missing=16
				15:[f43<1.707666] yes=31,no=32,missing=32
					31:leaf=-0.022827 
					32:leaf=0.020495 
				16:[f16<4264.000000] yes=33,no=34,missing=34
					33:leaf=0.030849 
					34:leaf=0.000356 
			8:[f18<0.075194] yes=17,no=18,missing=18
				17:[f43<-1.245261] yes=35,no=36,missing=36
					35:leaf=-0.148910 
					36:leaf=-0.051293 
				18:[f9<0.470256] yes=37,no=38,missing=38
					37:leaf=-0.008276 
					38:leaf=-0.061593 
		4:[f12<0.084524] yes=9,no=10,missing=10
			9:[f11<0.500000] yes=19,no=20,missing=20
				19:[f3<-1.082168] yes=39,no=40,missing=40
					39:leaf=-0.090275 
					40:leaf=-0.014122 
				20:[f43<-0.847973] yes=41,no=42,missing=42
					41:leaf=-0.084837 
					42:leaf=-0.053764 
			10:[f10<2.500000] yes=21,no=22,missing=22
				21:[f36<0.080053] yes=43,no=44,missing=44
					43:leaf=-0.025455 
					44:leaf=0.020437 
				22:[f1<4.346024] yes=45,no=46,missing=46
					45:leaf=0.062200 
					46:leaf=-0.118537 
	2:[f28<7846.000000] yes=5,no=6,missing=6
		5:[f1<0.369636] yes=11,no=12,missing=12
			11:[f2<-0.337093] yes=23,no=24,missing=24
				23:[f1<-0.127413] yes=47,no=48,missing=48
					47:leaf=0.039353 
					48:leaf=-0.047236 
				24:[f3<-0.382329] yes=49,no=50,missing=50
					49:leaf=0.044855 
					50:leaf=0.074996 
			12:[f16<3965.000000] yes=25,no=26,missing=26
				25:[f6<0.056931] yes=51,no=52,missing=52
					51:leaf=-0.005369 
					52:leaf=0.076675 
				26:[f8<-0.182058] yes=53,no=54,missing=54
					53:leaf=-0.011454 
					54:leaf=-0.094183 
		6:[f43<-1.061152] yes=13,no=14,missing=14
			13:[f5<-0.103232] yes=27,no=28,missing=28
				27:[f5<-0.534570] yes=55,no=56,missing=56
					55:leaf=-0.116534 
					56:leaf=-0.001555 
				28:[f6<0.605454] yes=57,no=58,missing=58
					57:leaf=-0.117803 
					58:leaf=-0.064902 
			14:[f12<0.262014] yes=29,no=30,missing=30
				29:[f43<1.664958] yes=59,no=60,missing=60
					59:leaf=0.004610 
					60:leaf=0.040567 
				30:[f9<-0.379961] yes=61,no=62,missing=62
					61:leaf=0.005627 
					62:leaf=0.061945 
booster[5]
0:[f15<0.103083] yes=1,no=2,missing=2
	1:[f3<0.055484] yes=3,no=4,missing=4
		3:[f12<0.087596] yes=7,no=8,missing=8
			7:[f1<-0.127413] yes=15,no=16,missing=16
				15:[f18<0.075194] yes=31,no=32,missing=32
					31:leaf=-0.038646 
					32:leaf=-0.012197 
				16:[f43<-0.807059] yes=33,no=34,missing=34
					33:leaf=-0.081424 
					34:leaf=-0.047107 
			8:[f2<-0.375514] yes=17,no=18,missing=18
				17:[f39<0.072279] yes=35,no=36,missing=36
					35:leaf=-0.095369 
					36:leaf=-0.005275 
				18:[f9<0.255127] yes=37,no=38,missing=38
					37:leaf=0.028393 
					38:leaf=-0.017156 
		4:[f18<0.075194] yes=9,no=10,missing=10
			9:[f9<0.493225] yes=19,no=20,missing=20
				19:[f43<-1.068330] yes=39,no=40,missing=40
					39:leaf=-0.056248 
					40:leaf=-0.006936 
				20:[f12<0.025321] yes=41,no=42,missing=42
					41:leaf=-0.070129 
					42:leaf=-0.002014 
			10:[f1<-0.203882] yes=21,no=22,missing=22
				21:[f28<7846.000000] yes=43,no=44,missing=44
					43:leaf=0.065453 
					44:leaf=0.014374 
				22:[f12<0.031754] yes=45,no=46,missing=46
					45:leaf=-0.020747 
					46:leaf=0.014761 
	2:[f43<-1.116062] yes=5,no=6,missing=6
		5:[f5<-0.044072] yes=11,no=12,missing=12
			11:[f5<-0.598806] yes=23,no=24,missing=24
				23:[f12<0.261364] yes=47,no=48,missing=48
					47:leaf=-0.119560 
					48:leaf=0.003833 
				24:[f12<0.311012] yes=49,no=50,missing=50
					49:leaf=0.002066 
					50:leaf=0.074159 
			12:[f2<-0.396953] yes=25,no=26,missing=26
				25:[f6<0.933478] yes=51,no=52,missing=52
					51:leaf=-0.166504 
					52:leaf=-0.102227 
				26:[f18<0.095543] yes=53,no=54,missing=54
					53:leaf=-0.105371 
					54:leaf=-0.051747 
		6:[f28<7846.000000] yes=13,no=14,missing=14
			13:[f1<-0.203882] yes=27,no=28,missing=28
				27:[f12<0.366667] yes=55,no=56,missing=56
					55:leaf=0.066736 
					56:leaf=0.104041 
				28:[f40<14786.000000] yes=57,no=58,missing=58
					57:leaf=0.001957 
					58:leaf=0.049707 
			14:[f9<-0.425943] yes=29,no=30,missing=30
				29:[f37<7846.000000] yes=59,no=60,missing=60
					59:leaf=-0.110292 
					60:leaf=-0.024810 
				30:[f43<1.751091] yes=61,no=62,missing=62
					61:leaf=0.019921 
					62:leaf=0.058187 
booster[6]
0:[f15<0.089075] yes=1,no=2,missing=2
	1:[f3<0.055484] yes=3,no=4,missing=4
		3:[f43<1.729199] yes=7,no=8,missing=8
			7:[f12<0.087596] yes=15,no=16,missing=16
				15:[f1<-0.127413] yes=31,no=32,missing=32
					31:leaf=-0.025995 
					32:leaf=-0.056720 
				16:[f1<-0.012709] yes=33,no=34,missing=34
					33:leaf=0.030655 
					34:leaf=-0.003970 
			8:[f42<0.083810] yes=17,no=18,missing=18
				17:[f15<0.082868] yes=35,no=36,missing=36
					35:leaf=-0.052918 
					36:leaf=0.087960 
				18:[f2<-0.427725] yes=37,no=38,missing=38
					37:leaf=-0.077694 
					38:leaf=0.019342 
		4:[f18<0.075194] yes=9,no=10,missing=10
			9:[f9<0.276893] yes=19,no=20,missing=20
				19:[f43<-1.068330] yes=39,no=40,missing=40
					39:leaf=-0.053153 
					40:leaf=-0.005875 
				20:[f12<0.193750] yes=41,no=42,missing=42
					41:leaf=-0.046437 
					42:leaf=0.029008 
			10:[f1<-0.050944] yes=21,no=22,missing=22
				21:[f43<-1.484280] yes=43,no=44,missing=44
					43:leaf=-0.092409 
					44:leaf=0.015898 
				22:[f12<0.047247] yes=45,no=46,missing=46
					45:leaf=-0.033860 
					46:leaf=0.015969 
	2:[f3<0.433507] yes=5,no=6,missing=6
		5:[f43<-1.043566] yes=11,no=12,missing=12
			11:[f5<-0.044072] yes=23,no=24,missing=24
				23:[f5<-0.795753] yes=47,no=48,missing=48
					47:leaf=-0.108624 
					48:leaf=-0.011171 
				24:[f7<0.514586] yes=49,no=50,missing=50
					49:leaf=-0.111007 
					50:leaf=-0.058213 
			12:[f12<0.152395] yes=25,no=26,missing=26
				25:[f1<0.178463] yes=51,no=52,missing=52
					51:leaf=0.011812 
					52:leaf=-0.029379 
				26:[f40<14786.000000] yes=53,no=54,missing=54
					53:leaf=0.026896 
					54:leaf=0.056898 
		6:[f12<0.277668] yes=13,no=14,missing=14
			13:[f43<-1.275767] yes=27,no=28,missing=28
				27:[f5<-0.133033] yes=55,no=56,missing=56
					55:leaf=0.009068 
					56:leaf=-0.076588 
				28:[f13<35.000000] yes=57,no=58,missing=58
					57:leaf=0.016165 
					58:leaf=0.040571 
			14:[f9<-0.411050] yes=29,no=30,missing=30
				29:[f15<0.167980] yes=59,no=60,missing=60
					59:leaf=-0.078515 
					60:leaf=0.070384 
				30:[f14<99.500000] yes=61,no=62,missing=62
					61:leaf=0.043052 
					62:leaf=0.080278 
booster[7]
0:[f15<0.112022] yes=1,no=2,missing=2
	1:[f28<7846.000000] yes=3,no=4,missing=4
		3:[f1<0.025525] yes=7,no=8,missing=8
			7:[f43<-1.209193] yes=15,no=16,missing=16
				15:[f5<-0.014709] yes=31,no=32,missing=32
					31:leaf=0.013587 
					32:leaf=-0.140167 
				16:[f37<11470.500000] yes=33,no=34,missing=34
					33:leaf=0.038862 
					34:leaf=0.067895 
			8:[f17<22155.500000] yes=17,no=18,missing=18
				17:[f8<-0.575522] yes=35,no=36,missing=36
					35:leaf=-0.188261 
					36:leaf=0.069478 
				18:[f43<-0.558350] yes=37,no=38,missing=38
					37:leaf=-0.076939 
					38:leaf=-0.009341 
		4:[f12<0.084524] yes=9,no=10,missing=10
			9:[f1<-0.280351] yes=19,no=20,missing=20
				19:[f2<0.171775] yes=39,no=40,missing=40
					39:leaf=-0.000851 
					40:leaf=-0.030454 
				20:[f3<0.022817] yes=41,no=42,missing=42
					41:leaf=-0.043102 
					42:leaf=-0.020876 
			10:[f40<14786.000000] yes=21,no=22,missing=22
				21:[f12<0.244048] yes=43,no=44,missing=44
					43:leaf=-0.014930 
					44:leaf=0.023912 
				22:[f10<3.500000] yes=45,no=46,missing=46
					45:leaf=0.038903 
					46:leaf=0.086895 
	2:[f2<-0.398217] yes=5,no=6,missing=6
		5:[f43<-0.855150] yes=11,no=12,missing=12
			11:[f2<-0.424291] yes=23,no=24,missing=24
				23:[f3<1.947097] yes=47,no=48,missing=48
					47:leaf=-0.105474 
					48:leaf=0.131826 
				24:[f37<7846.000000] yes=49,no=50,missing=50
					49:leaf=-0.143656 
					50:leaf=-0.019049 
			12:[f37<7846.000000] yes=25,no=26,missing=26
				25:[f33<0.086903] yes=51,no=52,missing=52
					51:leaf=-0.077964 
					52:leaf=-0.000776 
				26:[f43<0.400777] yes=53,no=54,missing=54
					53:leaf=-0.017079 
					54:leaf=0.030604 
		6:[f13<12.500000] yes=13,no=14,missing=14
			13:[f43<-1.047514] yes=27,no=28,missing=28
				27:[f5<-0.103232] yes=55,no=56,missing=56
					55:leaf=-0.020236 
					56:leaf=-0.076343 
				28:[f18<0.075194] yes=57,no=58,missing=58
					57:leaf=-0.007804 
					58:leaf=0.022032 
			14:[f1<-0.012709] yes=29,no=30,missing=30
				29:[f43<1.646296] yes=59,no=60,missing=60
					59:leaf=0.037314 
					60:leaf=0.075952 
				30:[f12<0.045269] yes=61,no=62,missing=62
					61:leaf=-0.018274 
					62:leaf=0.033058 
booster[8]
0:[f15<0.065915] yes=1,no=2,missing=2
	1:[f43<-1.255310] yes=3,no=4,missing=4
		3:[f5<0.186894] yes=7,no=8,missing=8
			7:[f5<-0.408129] yes=15,no=16,missing=16
				15:[f6<1.834960] yes=31,no=32,missing=32
					31:leaf=-0.133086 
					32:leaf=0.149007 
				16:[f9<0.401849] yes=33,no=34,missing=34
					33:leaf=-0.014156 
					34:leaf=-0.086136 
			8:[f43<-1.717916] yes=17,no=18,missing=18
				17:[f43<-1.727606] yes=35,no=36,missing=36
					35:leaf=-0.131849 
					36:leaf=0.094367 
				18:[f43<-1.387381] yes=37,no=38,missing=38
					37:leaf=-0.112528 
					38:leaf=-0.159914 
		4:[f3<-0.499505] yes=9,no=10,missing=10
			9:[f43<1.902362] yes=19,no=20,missing=20
				19:[f3<-1.654608] yes=39,no=40,missing=40
					39:leaf=-0.061744 
					40:leaf=-0.028097 
				20:[f17<66003.000000] yes=41,no=42,missing=42
					41:leaf=0.016399 
					42:leaf=-0.109656 
			10:[f18<0.075194] yes=21,no=22,missing=22
				21:[f2<0.488929] yes=43,no=44,missing=44
					43:leaf=-0.018128 
					44:leaf=-0.056026 
				22:[f2<-0.417646] yes=45,no=46,missing=46
					45:leaf=-0.042811 
					46:leaf=0.004386 
	2:[f3<0.314606] yes=5,no=6,missing=6
		5:[f9<-0.424377] yes=11,no=12,missing=12
			11:[f37<7846.000000] yes=23,no=24,missing=24
				23:[f15<0.067606] yes=47,no=48,missing=48
					47:leaf=0.095156 
					48:leaf=-0.098788 
				24:[f43<0.075086] yes=49,no=50,missing=50
					49:leaf=-0.055357 
					50:leaf=-0.001786 
			12:[f18<0.075194] yes=25,no=26,missing=26
				25:[f2<0.312103] yes=51,no=52,missing=52
					51:leaf=-0.007168 
					52:leaf=-0.053769 
				26:[f43<-1.479974] yes=53,no=54,missing=54
					53:leaf=-0.065896 
					54:leaf=0.010927 
		6:[f1<0.293167] yes=13,no=14,missing=14
			13:[f13<189.500000] yes=27,no=28,missing=28
				27:[f28<7846.000000] yes=55,no=56,missing=56
					55:leaf=0.056232 
					56:leaf=0.014790 
				28:[f40<7846.000000] yes=57,no=58,missing=58
					57:leaf=-0.005098 
					58:leaf=0.051005 
			14:[f40<14786.000000] yes=29,no=30,missing=30
				29:[f12<0.089572] yes=59,no=60,missing=60
					59:leaf=-0.048677 
					60:leaf=-0.003415 
				30:[f12<0.025321] yes=61,no=62,missing=62
					61:leaf=-0.008742 
					62:leaf=0.045665 
booster[9]
0:[f28<7846.000000] yes=1,no=2,missing=2
	1:[f1<-0.203882] yes=3,no=4,missing=4
		3:[f37<7846.000000] yes=7,no=8,missing=8
			7:[f2<-0.397446] yes=15,no=16,missing=16
				15:[f7<-1.281739] yes=31,no=32,missing=32
					31:leaf=0.069728 
					32:leaf=-0.073153 
				16:[f3<-1.768731] yes=33,no=34,missing=34
					33:leaf=-0.165638 
					34:leaf=0.034346 
			8:[f2<0.699659] yes=17,no=18,missing=18
				17:[f2<-0.331545] yes=35,no=36,missing=36
					35:leaf=0.031824 
					36:leaf=0.062257 
				18:[f14<551.000000] yes=37,no=38,missing=38
					37:leaf=-0.102892 
					38:leaf=0.008768 
		4:[f33<0.086903] yes=9,no=10,missing=10
			9:[f11<7.500000] yes=19,no=20,missing=20
				19:[f43<-0.781937] yes=39,no=40,missing=40
					39:leaf=-0.057269 
					40:leaf=0.019876 
				20:[f15<0.133809] yes=41,no=42,missing=42
					41:leaf=-0.094209 
					42:leaf=0.000226 
			10:[f43<-1.000500] yes=21,no=22,missing=22
				21:[f5<-0.044072] yes=43,no=44,missing=44
					43:leaf=0.021031 
					44:leaf=-0.085877 
				22:[f2<0.044731] yes=45,no=46,missing=46
					45:leaf=0.022751 
					46:leaf=0.068752 
	2:[f12<0.087596] yes=5,no=6,missing=6
		5:[f1<-0.012709] yes=11,no=12,missing=12
			11:[f43<1.632299] yes=23,no=24,missing=24
				23:[f3<0.346704] yes=47,no=48,missing=48
					47:leaf=-0.015130 
					48:leaf=0.005232 
				24:[f42<0.083810] yes=49,no=50,missing=50
					49:leaf=-0.028439 
					50:leaf=0.032728 
			12:[f31<9293.500000] yes=25,no=26,missing=26
				25:[f43<-0.893551] yes=51,no=52,missing=52
					51:leaf=-0.054701 
					52:leaf=-0.017449 
				26:[f11<3.500000] yes=53,no=54,missing=54
					53:leaf=-0.024911 
					54:leaf=-0.066675 
		6:[f40<14786.000000] yes=13,no=14,missing=14
			13:[f12<0.255435] yes=27,no=28,missing=28
				27:[f18<0.078500] yes=55,no=56,missing=56
					55:leaf=-0.037619 
					56:leaf=0.005591 
				28:[f9<-0.307226] yes=57,no=58,missing=58
					57:leaf=-0.004984 
					58:leaf=0.036410 
			14:[f43<-1.584051] yes=29,no=30,missing=30
				29:[f10<2.500000] yes=59,no=60,missing=60
					59:leaf=-0.158793 
					60:leaf=0.018337 
				30:[f10<4.500000] yes=61,no=62,missing=62
					61:leaf=0.041112 
					62:leaf=0.085820 
booster[10]
0:[f15<0.065915] yes=1,no=2,missing=2
	1:[f43<-1.255669] yes=3,no=4,missing=4
		3:[f5<-0.133033] yes=7,no=8,missing=8
			7:[f5<-0.408129] yes=15,no=16,missing=16
				15:[f6<1.834960] yes=31,no=32,missing=32
					31:leaf=-0.123625 
					32:leaf=0.141820 
				16:[f34<5864.500000] yes=33,no=34,missing=34
					33:leaf=-0.024435 
					34:leaf=0.028099 
			8:[f43<-1.343237] yes=17,no=18,missing=18
				17:[f2<2.512145] yes=35,no=36,missing=36
					35:leaf=-0.102958 
					36:leaf=0.124661 
				18:[f3<1.947723] yes=37,no=38,missing=38
					37:leaf=-0.158473 
					38:leaf=0.075144 
		4:[f11<0.500000] yes=9,no=10,missing=10
			9:[f43<1.780520] yes=19,no=20,missing=20
				19:[f28<7846.000000] yes=39,no=40,missing=40
					39:leaf=0.046163 
					40:leaf=-0.012103 
				20:[f42<0.083810] yes=41,no=42,missing=42
					41:leaf=-0.037687 
					42:leaf=0.033053 
			10:[f22<15082.000000] yes=21,no=22,missing=22
				21:[f12<0.258333] yes=43,no=44,missing=44
					43:leaf=-0.048168 
					44:leaf=0.014297 
				22:[f12<0.087121] yes=45,no=46,missing=46
					45:leaf=-0.011729 
					46:leaf=0.036733 
	2:[f2<-0.405472] yes=5,no=6,missing=6
		5:[f37<7846.000000] yes=11,no=12,missing=12
			11:[f9<-0.441013] yes=23,no=24,missing=24
				23:[f28<7846.000000] yes=47,no=48,missing=48
					47:leaf=0.009424 
					48:leaf=-0.130423 
				24:[f12<0.024695] yes=49,no=50,missing=50
					49:leaf=-0.073453 
					50:leaf=0.001928 
			12:[f43<-0.860893] yes=25,no=26,missing=26
				25:[f2<-0.455045] yes=51,no=52,missing=52
					51:leaf=-0.137353 
					52:leaf=-0.040021 
				26:[f7<-1.026605] yes=53,no=54,missing=54
					53:leaf=-0.041810 
					54:leaf=-0.002086 
		6:[f18<0.075194] yes=13,no=14,missing=14
			13:[f13<189.500000] yes=27,no=28,missing=28
				27:[f9<0.478228] yes=55,no=56,missing=56
					55:leaf=-0.005655 
					56:leaf=-0.053331 
				28:[f1<0.025525] yes=57,no=58,missing=58
					57:leaf=0.027109 
					58:leaf=-0.019716 
			14:[f1<0.178463] yes=29,no=30,missing=30
				29:[f43<-1.051821] yes=59,no=60,missing=60
					59:leaf=-0.005581 
					60:leaf=0.026911 
				30:[f12<0.021874] yes=61,no=62,missing=62
					61:leaf=-0.025415 
					62:leaf=0.013495 
booster[11]
0:[f15<0.112022] yes=1,no=2,missing=2
	1:[f43<-1.064382] yes=3,no=4,missing=4
		3:[f5<-0.133033] yes=7,no=8,missing=8
			7:[f5<-0.566602] yes=15,no=16,missing=16
				15:[f7<1.602308] yes=31,no=32,missing=32
					31:leaf=-0.111151 
					32:leaf=0.011513 
				16:[f3<-0.984946] yes=33,no=34,missing=34
					33:leaf=-0.038756 
					34:leaf=-0.003421 
			8:[f15<0.092688] yes=17,no=18,missing=18
				17:[f8<-0.588423] yes=35,no=36,missing=36
					35:leaf=0.141595 
					36:leaf=-0.106389 
				18:[f43<-1.438702] yes=37,no=38,missing=38
					37:leaf=-0.034440 
					38:leaf=-0.098054 
		4:[f3<0.705407] yes=9,no=10,missing=10
			9:[f18<0.075194] yes=19,no=20,missing=20
				19:[f2<0.274341] yes=39,no=40,missing=40
					39:leaf=-0.015358 
					40:leaf=-0.047079 
				20:[f43<1.780879] yes=41,no=42,missing=42
					41:leaf=-0.006215 
					42:leaf=0.021559 
			10:[f16<4264.000000] yes=21,no=22,missing=22
				21:[f9<-0.395597] yes=43,no=44,missing=44
					43:leaf=-0.026621 
					44:leaf=0.029356 
				22:[f12<0.255435] yes=45,no=46,missing=46
					45:leaf=0.000706 
					46:leaf=0.052384 
	2:[f43<1.646296] yes=5,no=6,missing=6
		5:[f13<20.500000] yes=11,no=12,missing=12
			11:[f3<-0.126885] yes=23,no=24,missing=24
				23:[f2<0.302616] yes=47,no=48,missing=48
					47:leaf=-0.011698 
					48:leaf=-0.058972 
				24:[f36<0.080053] yes=49,no=50,missing=50
					49:leaf=-0.003400 
					50:leaf=0.020549 
			12:[f1<0.675512] yes=25,no=26,missing=26
				25:[f12<0.292857] yes=51,no=52,missing=52
					51:leaf=0.022225 
					52:leaf=0.059332 
				26:[f10<1.500000] yes=53,no=54,missing=54
					53:leaf=-0.042268 
					54:leaf=0.034181 
		6:[f1<0.866684] yes=13,no=14,missing=14
			13:[f18<0.078500] yes=27,no=28,missing=28
				27:[f2<0.868250] yes=55,no=56,missing=56
					55:leaf=0.036803 
					56:leaf=-0.087345 
				28:[f2<-0.320424] yes=57,no=58,missing=58
					57:leaf=0.026816 
					58:leaf=0.066949 
			14:[f14<1084.500000] yes=29,no=30,missing=30
				29:[f13<8.500000] yes=59,no=60,missing=60
					59:leaf=-0.172639 
					60:leaf=0.018482 
				30:[f43<1.770112] yes=61,no=62,missing=62
					61:leaf=-0.007639 
					62:leaf=-0.195945 
booster[12]
0:[f28<7846.000000] yes=1,no=2,missing=2
	1:[f1<-0.203882] yes=3,no=4,missing=4
		3:[f6<-0.593126] yes=7,no=8,missing=8
			7:[f43<-1.112114] yes=15,no=16,missing=16
				15:[f31<9293.500000] yes=31,no=32,missing=32
					31:leaf=-0.116292 
					32:leaf=0.018764 
				16:[f43<1.023267] yes=33,no=34,missing=34
					33:leaf=0.033753 
					34:leaf=-0.036877 
			8:[f2<-0.338270] yes=17,no=18,missing=18
				17:[f4<2.081522] yes=35,no=36,missing=36
					35:leaf=0.022429 
					36:leaf=-0.227609 
				18:[f40<7846.000000] yes=37,no=38,missing=38
					37:leaf=0.004265 
					38:leaf=0.053165 
		4:[f14<299.000000] yes=9,no=10,missing=10
			9:[f43<-0.257244] yes=19,no=20,missing=20
				19:[f15<0.244048] yes=39,no=40,missing=40
					39:leaf=-0.090017 
					40:leaf=0.087929 
				20:[f12<0.118056] yes=41,no=42,missing=42
					41:leaf=-0.023255 
					42:leaf=0.087515 
			10:[f2<-0.419434] yes=21,no=22,missing=22
				21:[f34<2874.000000] yes=43,no=44,missing=44
					43:leaf=0.018307 
					44:leaf=-0.112772 
				22:[f11<8.500000] yes=45,no=46,missing=46
					45:leaf=0.031842 
					46:leaf=-0.012572 
	2:[f12<0.087596] yes=5,no=6,missing=6
		5:[f11<3.500000] yes=11,no=12,missing=12
			11:[f43<-1.248132] yes=23,no=24,missing=24
				23:[f5<-0.133033] yes=47,no=48,missing=48
					47:leaf=-0.016039 
					48:leaf=-0.097286 
				24:[f3<-0.668206] yes=49,no=50,missing=50
					49:leaf=-0.015716 
					50:leaf=0.006285 
			12:[f28<13987.000000] yes=25,no=26,missing=26
				25:[f43<1.794517] yes=51,no=52,missing=52
					51:leaf=-0.057657 
					52:leaf=-0.018942 
				26:[f12<0.020204] yes=53,no=54,missing=54
					53:leaf=-0.022897 
					54:leaf=0.026542 
		6:[f40<14786.000000] yes=13,no=14,missing=14
			13:[f12<0.255435] yes=27,no=28,missing=28
				27:[f16<4264.000000] yes=55,no=56,missing=56
					55:leaf=0.014008 
					56:leaf=-0.017361 
				28:[f2<-0.329782] yes=57,no=58,missing=58
					57:leaf=-0.014088 
					58:leaf=0.029026 
			14:[f43<-1.537396] yes=29,no=30,missing=30
				29:[f5<-0.133033] yes=59,no=60,missing=60
					59:leaf=-0.009373 
					60:leaf=-0.128914 
				30:[f10<4.500000] yes=61,no=62,missing=62
					61:leaf=0.034324 
					62:leaf=0.077416 
booster[13]
0:[f15<0.112022] yes=1,no=2,missing=2
	1:[f3<-0.814725] yes=3,no=4,missing=4
		3:[f3<-1.527076] yes=7,no=8,missing=8
			7:[f8<-0.504570] yes=15,no=16,missing=16
				15:[f2<-0.240641] yes=31,no=32,missing=32
					31:leaf=-0.037847 
					32:leaf=0.036020 
				16:[f12<0.019819] yes=33,no=34,missing=34
					33:leaf=-0.045508 
					34:leaf=-0.010853 
			8:[f43<-1.286892] yes=17,no=18,missing=18
				17:[f5<-0.044072] yes=35,no=36,missing=36
					35:leaf=-0.026797 
					36:leaf=-0.118804 
				18:[f18<0.093903] yes=37,no=38,missing=38
					37:leaf=-0.018829 
					38:leaf=0.002852 
		4:[f18<0.075194] yes=9,no=10,missing=10
			9:[f9<0.311735] yes=19,no=20,missing=20
				19:[f43<-1.068330] yes=39,no=40,missing=40
					39:leaf=-0.035225 
					40:leaf=-0.004898 
				20:[f12<0.051957] yes=41,no=42,missing=42
					41:leaf=-0.040061 
					42:leaf=0.009045 
			10:[f2<-0.416642] yes=21,no=22,missing=22
				21:[f37<7846.000000] yes=43,no=44,missing=44
					43:leaf=-0.090675 
					44:leaf=-0.018031 
				22:[f43<1.782673] yes=45,no=46,missing=46
					45:leaf=0.004201 
					46:leaf=0.032365 
	2:[f13<20.500000] yes=5,no=6,missing=6
		5:[f3<-0.365203] yes=11,no=12,missing=12
			11:[f2<0.234440] yes=23,no=24,missing=24
				23:[f43<-1.437445] yes=47,no=48,missing=48
					47:leaf=-0.087375 
					48:leaf=-0.005981 
				24:[f15<0.120951] yes=49,no=50,missing=50
					49:leaf=-0.166920 
					50:leaf=-0.037565 
			12:[f43<1.317017] yes=25,no=26,missing=26
				25:[f9<0.227881] yes=51,no=52,missing=52
					51:leaf=0.010669 
					52:leaf=-0.016538 
				26:[f1<0.828450] yes=53,no=54,missing=54
					53:leaf=0.039886 
					54:leaf=-0.110918 
		6:[f1<-0.165647] yes=13,no=14,missing=14
			13:[f43<-0.133069] yes=27,no=28,missing=28
				27:[f2<-0.270821] yes=55,no=56,missing=56
					55:leaf=-0.008014 
					56:leaf=0.025693 
				28:[f3<0.728797] yes=57,no=58,missing=58
					57:leaf=0.032951 
					58:leaf=0.055698 
			14:[f12<0.097619] yes=29,no=30,missing=30
				29:[f1<6.295983] yes=59,no=60,missing=60
					59:leaf=-0.011539 
					60:leaf=0.150225 
				30:[f8<0.124328] yes=61,no=62,missing=62
					61:leaf=0.035038 
					62:leaf=-0.003450 
booster[14]
0:[f15<0.056652] yes=1,no=2,missing=2
	1:[f43<-1.066176] yes=3,no=4,missing=4
		3:[f5<0.186894] yes=7,no=8,missing=8
			7:[f5<-0.566602] yes=15,no=16,missing=16
				15:[f7<1.641577] yes=31,no=32,missing=32
					31:leaf=-0.108392 
					32:leaf=0.091876 
				16:[f18<0.082346] yes=33,no=34,missing=34
					33:leaf=-0.028609 
					34:leaf=0.000672 
			8:[f8<-0.588423] yes=17,no=18,missing=18
				17:leaf=0.156743 
				18:[f3<1.859505] yes=35,no=36,missing=36
					35:leaf=-0.107652 
					36:leaf=0.002992 
		4:[f14<35.500000] yes=9,no=10,missing=10
			9:[f43<1.086432] yes=19,no=20,missing=20
				19:[f37<7846.000000] yes=37,no=38,missing=38
					37:leaf=-0.026791 
					38:leaf=0.000195 
				20:[f1<0.675512] yes=39,no=40,missing=40
					39:leaf=0.030321 
					40:leaf=-0.097132 
			10:[f15<0.014196] yes=21,no=22,missing=22
				21:[f14<133.000000] yes=41,no=42,missing=42
					41:leaf=-0.050430 
					42:leaf=-0.113290 
				22:[f15<0.045924] yes=43,no=44,missing=44
					43:leaf=-0.022530 
					44:leaf=-0.002458 
	2:[f2<-0.386178] yes=5,no=6,missing=6
		5:[f37<7846.000000] yes=11,no=12,missing=12
			11:[f2<-0.421240] yes=23,no=24,missing=24
				23:[f30<0.076755] yes=45,no=46,missing=46
					45:leaf=-0.103477 
					46:leaf=-0.052065 
				24:[f14<9.500000] yes=47,no=48,missing=48
					47:leaf=-0.201526 
					48:leaf=-0.029773 
			12:[f43<-0.409950] yes=25,no=26,missing=26
				25:[f2<-0.457529] yes=49,no=50,missing=50
					49:leaf=-0.123094 
					50:leaf=-0.023937 
				26:[f1<-0.280351] yes=51,no=52,missing=52
					51:leaf=0.013124 
					52:leaf=-0.011447 
		6:[f18<0.075194] yes=13,no=14,missing=14
			13:[f9<0.481060] yes=27,no=28,missing=28
				27:[f43<1.750732] yes=53,no=54,missing=54
					53:leaf=-0.004609 
					54:leaf=0.026893 
				28:[f3<0.429607] yes=55,no=56,missing=56
					55:leaf=-0.058749 
					56:leaf=-0.020077 
			14:[f40<7846.000000] yes=29,no=30,missing=30
				29:[f27<0.081301] yes=57,no=58,missing=58
					57:leaf=-0.087663 
					58:leaf=-0.009639 
				30:[f3<-0.713683] yes=59,no=60,missing=60
					59:leaf=0.001623 
					60:leaf=0.022014 
booster[15]
0:[f28<7846.000000] yes=1,no=2,missing=2
	1:[f1<-0.203882] yes=3,no=4,missing=4
		3:[f37<7846.000000] yes=7,no=8,missing=8
			7:[f3<-1.621425] yes=15,no=16,missing=16
				15:[f8<0.250108] yes=31,no=32,missing=32
					31:leaf=-0.180081 
					32:leaf=0.025472 
				16:[f12<0.450000] yes=33,no=34,missing=34
					33:leaf=0.012951 
					34:leaf=0.067214 
			8:[f2<0.699659] yes=17,no=18,missing=18
				17:[f7<0.103729] yes=35,no=36,missing=36
					35:leaf=0.031098 
					36:leaf=0.051717 
				18:[f16<93.500000] yes=37,no=38,missing=38
					37:leaf=0.102754 
					38:leaf=-0.038659 
		4:[f33<0.086903] yes=9,no=10,missing=10
			9:[f11<6.500000] yes=19,no=20,missing=20
				19:[f13<99.000000] yes=39,no=40,missing=40
					39:leaf=-0.031271 
					40:leaf=0.023338 
				20:[f12<0.078462] yes=41,no=42,missing=42
					41:leaf=-0.090941 
					42:leaf=-0.025177 
			10:[f25<7805.500000] yes=21,no=22,missing=22
				21:[f8<-0.456193] yes=43,no=44,missing=44
					43:leaf=-0.188772 
					44:leaf=0.083469 
				22:[f15<0.143034] yes=45,no=46,missing=46
					45:leaf=0.007124 
					46:leaf=0.048635 
	2:[f12<0.087596] yes=5,no=6,missing=6
		5:[f11<2.500000] yes=11,no=12,missing=12
			11:[f43<-1.234494] yes=23,no=24,missing=24
				23:[f5<-0.133033] yes=47,no=48,missing=48
					47:leaf=-0.014679 
					48:leaf=-0.082966 
				24:[f9<0.476579] yes=49,no=50,missing=50
					49:leaf=0.003193 
					50:leaf=-0.033120 
			12:[f40<14786.000000] yes=25,no=26,missing=26
				25:[f2<-0.111267] yes=51,no=52,missing=52
					51:leaf=-0.030806 
					52:leaf=-0.053294 
				26:[f12<0.020204] yes=53,no=54,missing=54
					53:leaf=-0.011591 
					54:leaf=0.026981 
		6:[f22<15082.000000] yes=13,no=14,missing=14
			13:[f12<0.255435] yes=27,no=28,missing=28
				27:[f12<0.091966] yes=55,no=56,missing=56
					55:leaf=0.073039 
					56:leaf=-0.015051 
				28:[f43<0.302083] yes=57,no=58,missing=58
					57:leaf=0.009099 
					58:leaf=0.038370 
			14:[f11<46.500000] yes=29,no=30,missing=30
				29:[f2<-0.268349] yes=59,no=60,missing=60
					59:leaf=0.009600 
					60:leaf=0.036648 
				30:[f1<7.098907] yes=61,no=62,missing=62
					61:leaf=0.104742 
					62:leaf=-0.182335 
booster[16]
0:[f15<0.057673] yes=1,no=2,missing=2
	1:[f2<0.099586] yes=3,no=4,missing=4
		3:[f37<7846.000000] yes=7,no=8,missing=8
			7:[f2<-0.422806] yes=15,no=16,missing=16
				15:[f43<-0.038502] yes=31,no=32,missing=32
					31:leaf=-0.121852 
					32:leaf=-0.048251 
				16:[f12<0.019638] yes=33,no=34,missing=34
					33:leaf=-0.022641 
					34:leaf=0.023415 
			8:[f11<0.500000] yes=17,no=18,missing=18
				17:[f43<1.054849] yes=35,no=36,missing=36
					35:leaf=0.002917 
					36:leaf=0.037112 
				18:[f12<0.074537] yes=37,no=38,missing=38
					37:leaf=-0.019283 
					38:leaf=0.019674 
		4:[f13<164.500000] yes=9,no=10,missing=10
			9:[f2<1.552329] yes=19,no=20,missing=20
				19:[f7<1.021454] yes=39,no=40,missing=40
					39:leaf=-0.032984 
					40:leaf=-0.008864 
				20:[f2<3.506986] yes=41,no=42,missing=42
					41:leaf=-0.101603 
					42:leaf=-0.019276 
			10:[f43<0.944491] yes=21,no=22,missing=22
				21:[f1<-0.280351] yes=43,no=44,missing=44
					43:leaf=0.056738 
					44:leaf=-0.004491 
				22:[f43<1.955119] yes=45,no=46,missing=46
					45:leaf=-0.095143 
					46:leaf=0.029217 
	2:[f3<0.701795] yes=5,no=6,missing=6
		5:[f43<1.758628] yes=11,no=12,missing=12
			11:[f28<7846.000000] yes=23,no=24,missing=24
				23:[f43<-0.970712] yes=47,no=48,missing=48
					47:leaf=-0.006446 
					48:leaf=0.027742 
				24:[f2<0.234785] yes=49,no=50,missing=50
					49:leaf=-0.002224 
					50:leaf=-0.024091 
			12:[f1<1.325498] yes=25,no=26,missing=26
				25:[f39<0.086170] yes=51,no=52,missing=52
					51:leaf=0.013168 
					52:leaf=0.040463 
				26:[f2<-0.283113] yes=53,no=54,missing=54
					53:leaf=-0.123400 
					54:leaf=-0.034854 
		6:[f7<0.637022] yes=13,no=14,missing=14
			13:[f12<0.365152] yes=27,no=28,missing=28
				27:[f16<4264.000000] yes=55,no=56,missing=56
					55:leaf=0.020800 
					56:leaf=0.000971 
				28:[f2<-0.423743] yes=57,no=58,missing=58
					57:leaf=-0.094554 
					58:leaf=0.047241 
			14:[f31<2254.500000] yes=29,no=30,missing=30
				29:[f2<-0.376543] yes=59,no=60,missing=60
					59:leaf=-0.167613 
					60:leaf=-0.004131 
				30:[f2<0.743788] yes=61,no=62,missing=62
					61:leaf=0.031404 
					62:leaf=-0.013599 
booster[17]
0:[f15<0.115214] yes=1,no=2,missing=2
	1:[f3<0.667295] yes=3,no=4,missing=4
		3:[f18<0.075194] yes=7,no=8,missing=8
			7:[f2<0.093126] yes=15,no=16,missing=16
				15:[f43<0.090518] yes=31,no=32,missing=32
					31:leaf=-0.022745 
					32:leaf=0.000143 
				16:[f39<0.086170] yes=33,no=34,missing=34
					33:leaf=-0.024113 
					34:leaf=-0.049158 
			8:[f9<-0.435559] yes=17,no=18,missing=18
				17:[f37<7846.000000] yes=35,no=36,missing=36
					35:leaf=-0.094164 
					36:leaf=-0.025155 
				18:[f43<1.655627] yes=37,no=38,missing=38
					37:leaf=-0.006089 
					38:leaf=0.017110 
		4:[f16<4264.000000] yes=9,no=10,missing=10
			9:[f40<7846.000000] yes=19,no=20,missing=20
				19:[f16<3965.000000] yes=39,no=40,missing=40
					39:leaf=-0.003216 
					40:leaf=-0.158549 
				20:[f2<-0.415057] yes=41,no=42,missing=42
					41:leaf=-0.023883 
					42:leaf=0.024100 
			10:[f9<-0.089527] yes=21,no=22,missing=22
				21:[f37<7846.000000] yes=43,no=44,missing=44
					43:leaf=-0.002959 
					44:leaf=0.019347 
				22:[f2<1.233337] yes=45,no=46,missing=46
					45:leaf=-0.005503 
					46:leaf=-0.048510 
	2:[f2<-0.388533] yes=5,no=6,missing=6
		5:[f43<-0.538073] yes=11,no=12,missing=12
			11:[f2<-0.455926] yes=23,no=24,missing=24
				23:[f4<0.794501] yes=47,no=48,missing=48
					47:leaf=-0.149815 
					48:leaf=-0.072657 
				24:[f12<0.097619] yes=49,no=50,missing=50
					49:leaf=-0.049821 
					50:leaf=0.008518 
			12:[f3<-1.294484] yes=25,no=26,missing=26
				25:[f14<41.000000] yes=51,no=52,missing=52
					51:leaf=-0.158933 
					52:leaf=-0.028204 
				26:[f6<-1.283210] yes=53,no=54,missing=54
					53:leaf=-0.062164 
					54:leaf=0.004016 
		6:[f13<118.500000] yes=13,no=14,missing=14
			13:[f43<1.608074] yes=27,no=28,missing=28
				27:[f3<-0.713683] yes=55,no=56,missing=56
					55:leaf=-0.010526 
					56:leaf=0.009141 
				28:[f2<0.862357] yes=57,no=58,missing=58
					57:leaf=0.034590 
					58:leaf=-0.075442 
			14:[f1<0.713746] yes=29,no=30,missing=30
				29:[f37<7846.000000] yes=59,no=60,missing=60
					59:leaf=0.009043 
					60:leaf=0.036397 
				30:[f11<79.500000] yes=61,no=62,missing=62
					61:leaf=-0.034751 
					62:leaf=0.138617 
booster[18]
0:[f12<0.146446] yes=1,no=2,missing=2
	1:[f1<-0.280351] yes=3,no=4,missing=4
		3:[f7<0.970229] yes=7,no=8,missing=8
			7:[f43<1.691516] yes=15,no=16,missing=16
				15:[f28<7846.000000] yes=31,no=32,missing=32
					31:leaf=0.026517 
					32:leaf=-0.006890 
				16:[f33<0.086903] yes=33,no=34,missing=34
					33:leaf=0.024769 
					34:leaf=-0.031728 
			8:[f18<0.093903] yes=17,no=18,missing=18
				17:[f3<-0.547994] yes=35,no=36,missing=36
					35:leaf=-0.008449 
					36:leaf=0.017636 
				18:[f3<-0.149780] yes=37,no=38,missing=38
					37:leaf=0.014953 
					38:leaf=0.043433 
		4:[f37<11470.500000] yes=9,no=10,missing=10
			9:[f11<0.500000] yes=19,no=20,missing=20
				19:[f37<7846.000000] yes=39,no=40,missing=40
					39:leaf=-0.024720 
					40:leaf=0.008828 
				20:[f2<-0.425863] yes=41,no=42,missing=42
					41:leaf=-0.068547 
					42:leaf=-0.024200 
			10:[f43<-1.119292] yes=21,no=22,missing=22
				21:[f5<-0.103232] yes=43,no=44,missing=44
					43:leaf=-0.015829 
					44:leaf=-0.081418 
				22:[f3<-1.513559] yes=45,no=46,missing=46
					45:leaf=-0.041875 
					46:leaf=0.006650 
	2:[f1<-0.050944] yes=5,no=6,missing=6
		5:[f31<3821.500000] yes=11,no=12,missing=12
			11:[f43<-1.458081] yes=23,no=24,missing=24
				23:[f7<1.479673] yes=47,no=48,missing=48
					47:leaf=-0.168415 
					48:leaf=0.058970 
				24:[f40<14786.000000] yes=49,no=50,missing=50
					49:leaf=0.002690 
					50:leaf=0.042576 
			12:[f2<-0.262222] yes=25,no=26,missing=26
				25:[f2<-0.448085] yes=51,no=52,missing=52
					51:leaf=-0.099153 
					52:leaf=0.019393 
				26:[f43<-1.531115] yes=53,no=54,missing=54
					53:leaf=-0.062743 
					54:leaf=0.047341 
		6:[f31<9293.500000] yes=13,no=14,missing=14
			13:[f10<1.500000] yes=27,no=28,missing=28
				27:[f14<1709.500000] yes=55,no=56,missing=56
					55:leaf=-0.021774 
					56:leaf=0.026145 
				28:[f1<1.382850] yes=57,no=58,missing=58
					57:leaf=0.018418 
					58:leaf=0.046429 
			14:[f13<212.000000] yes=29,no=30,missing=30
				29:[f3<-0.631187] yes=59,no=60,missing=60
					59:leaf=-0.078621 
					60:leaf=-0.011740 
				30:[f1<4.957776] yes=61,no=62,missing=62
					61:leaf=0.023673 
					62:leaf=-0.108377 
booster[19]
0:[f15<0.065915] yes=1,no=2,missing=2
	1:[f9<-0.087224] yes=3,no=4,missing=4
		3:[f37<7846.000000] yes=7,no=8,missing=8
			7:[f2<-0.368894] yes=15,no=16,missing=16
				15:[f2<-0.436725] yes=31,no=32,missing=32
					31:leaf=-0.090933 
					32:leaf=-0.043092 
				16:[f3<-0.982041] yes=33,no=34,missing=34
					33:leaf=-0.037556 
					34:leaf=-0.003131 
			8:[f43<0.943953] yes=17,no=18,missing=18
				17:[f43<-1.292275] yes=35,no=36,missing=36
					35:leaf=-0.029618 
					36:leaf=0.004800 
				18:[f42<0.083810] yes=37,no=38,missing=38
					37:leaf=-0.000475 
					38:leaf=0.035564 
		4:[f43<2.192882] yes=9,no=10,missing=10
			9:[f7<0.450896] yes=19,no=20,missing=20
				19:[f2<1.353280] yes=39,no=40,missing=40
					39:leaf=-0.023845 
					40:leaf=-0.070287 
				20:[f3<-1.145452] yes=41,no=42,missing=42
					41:leaf=-0.046090 
					42:leaf=-0.005953 
			10:[f1<0.101994] yes=21,no=22,missing=22
				21:[f2<0.270932] yes=43,no=44,missing=44
					43:leaf=0.056649 
					44:leaf=0.001679 
				22:[f5<-0.284301] yes=45,no=46,missing=46
					45:leaf=0.055579 
					46:leaf=-0.143347 
	2:[f43<-1.306272] yes=5,no=6,missing=6
		5:[f5<-0.014709] yes=11,no=12,missing=12
			11:[f5<-0.566602] yes=23,no=24,missing=24
				23:[f10<2.500000] yes=47,no=48,missing=48
					47:leaf=-0.104637 
					48:leaf=0.047118 
				24:[f7<1.168765] yes=49,no=50,missing=50
					49:leaf=-0.003720 
					50:leaf=0.039619 
			12:[f43<-1.372307] yes=25,no=26,missing=26
				25:[f43<-1.372666] yes=51,no=52,missing=52
					51:leaf=-0.065034 
					52:leaf=0.223271 
				26:[f7<1.215891] yes=53,no=54,missing=54
					53:leaf=-0.128122 
					54:leaf=-0.046122 
		6:[f3<-0.345732] yes=13,no=14,missing=14
			13:[f12<0.089572] yes=27,no=28,missing=28
				27:[f1<1.057857] yes=55,no=56,missing=56
					55:leaf=-0.003825 
					56:leaf=-0.036890 
				28:[f13<159.000000] yes=57,no=58,missing=58
					57:leaf=0.008261 
					58:leaf=0.030699 
			14:[f37<11470.500000] yes=29,no=30,missing=30
				29:[f43<0.241610] yes=59,no=60,missing=60
					59:leaf=-0.002222 
					60:leaf=0.019389 
				30:[f12<0.020677] yes=61,no=62,missing=62
					61:leaf=0.017033 
					62:leaf=0.040959 
booster[20]
0:[f7<0.450896] yes=1,no=2,missing=2
	1:[f43<-1.101706] yes=3,no=4,missing=4
		3:[f5<-0.133033] yes=7,no=8,missing=8
			7:[f5<-0.566602] yes=15,no=16,missing=16
				15:[f12<0.450000] yes=31,no=32,missing=32
					31:leaf=-0.100799 
					32:leaf=0.011321 
				16:[f16<922.000000] yes=33,no=34,missing=34
					33:leaf=-0.137130 
					34:leaf=-0.005651 
			8:[f43<-1.385586] yes=17,no=18,missing=18
				17:[f40<7028.500000] yes=35,no=36,missing=36
					35:leaf=-0.007225 
					36:leaf=-0.071629 
				18:[f18<0.095543] yes=37,no=38,missing=38
					37:leaf=-0.112640 
					38:leaf=-0.056774 
		4:[f15<0.089164] yes=9,no=10,missing=10
			9:[f15<0.088963] yes=19,no=20,missing=20
				19:[f2<-0.094180] yes=39,no=40,missing=40
					39:leaf=-0.000889 
					40:leaf=-0.015283 
				20:[f2<-0.153134] yes=41,no=42,missing=42
					41:leaf=-0.013650 
					42:leaf=-0.102716 
			10:[f12<0.386752] yes=21,no=22,missing=22
				21:[f9<-0.429026] yes=43,no=44,missing=44
					43:leaf=-0.034032 
					44:leaf=0.004039 
				22:[f31<2254.500000] yes=45,no=46,missing=46
					45:leaf=-0.010981 
					46:leaf=0.036260 
	2:[f1<-0.165647] yes=5,no=6,missing=6
		5:[f18<0.093903] yes=11,no=12,missing=12
			11:[f28<7846.000000] yes=23,no=24,missing=24
				23:[f12<0.267857] yes=47,no=48,missing=48
					47:leaf=0.031361 
					48:leaf=0.065910 
				24:[f43<-1.426858] yes=49,no=50,missing=50
					49:leaf=-0.039091 
					50:leaf=0.006155 
			12:[f9<-0.322710] yes=25,no=26,missing=26
				25:[f37<11470.500000] yes=51,no=52,missing=52
					51:leaf=-0.008719 
					52:leaf=0.030748 
				26:[f34<4554.500000] yes=53,no=54,missing=54
					53:leaf=0.040533 
					54:leaf=0.018798 
		6:[f12<0.031754] yes=13,no=14,missing=14
			13:[f1<0.981388] yes=27,no=28,missing=28
				27:[f40<14786.000000] yes=55,no=56,missing=56
					55:leaf=-0.019348 
					56:leaf=0.009332 
				28:[f22<15082.000000] yes=57,no=58,missing=58
					57:leaf=-0.077224 
					58:leaf=-0.031402 
			14:[f28<13987.000000] yes=29,no=30,missing=30
				29:[f43<0.304595] yes=59,no=60,missing=60
					59:leaf=-0.010146 
					60:leaf=0.020937 
				30:[f11<26.500000] yes=61,no=62,missing=62
					61:leaf=0.014855 
					62:leaf=0.063614 
booster[21]
0:[f3<0.427655] yes=1,no=2,missing=2
	1:[f18<0.075194] yes=3,no=4,missing=4
		3:[f2<0.233022] yes=7,no=8,missing=8
			7:[f43<0.091236] yes=15,no=16,missing=16
				15:[f10<1.500000] yes=31,no=32,missing=32
					31:leaf=-0.021055 
					32:leaf=0.025773 
				16:[f3<-0.947366] yes=33,no=34,missing=34
					33:leaf=-0.017202 
					34:leaf=0.008129 
			8:[f6<-0.348086] yes=17,no=18,missing=18
				17:[f7<-0.303605] yes=35,no=36,missing=36
					35:leaf=-0.080271 
					36:leaf=-0.040740 
				18:[f4<0.209491] yes=37,no=38,missing=38
					37:leaf=-0.016260 
					38:leaf=-0.099045 
		4:[f40<7846.000000] yes=9,no=10,missing=10
			9:[f21<0.081288] yes=19,no=20,missing=20
				19:[f12<0.833333] yes=39,no=40,missing=40
					39:leaf=-0.091721 
					40:leaf=0.075447 
				20:[f10<2.500000] yes=41,no=42,missing=42
					41:leaf=-0.021338 
					42:leaf=0.059904 
			10:[f37<7846.000000] yes=21,no=22,missing=22
				21:[f9<-0.309173] yes=43,no=44,missing=44
					43:leaf=-0.034085 
					44:leaf=-0.002360 
				22:[f43<-1.483204] yes=45,no=46,missing=46
					45:leaf=-0.046486 
					46:leaf=0.007914 
	2:[f15<0.117764] yes=5,no=6,missing=6
		5:[f9<0.482573] yes=11,no=12,missing=12
			11:[f4<3.368545] yes=23,no=24,missing=24
				23:[f9<-0.441086] yes=47,no=48,missing=48
					47:leaf=-0.052660 
					48:leaf=0.005189 
				24:[f1<-0.356820] yes=49,no=50,missing=50
					49:leaf=0.062188 
					50:leaf=0.014954 
			12:[f16<93.500000] yes=25,no=26,missing=26
				25:[f8<0.217857] yes=51,no=52,missing=52
					51:leaf=0.090659 
					52:leaf=-0.184474 
				26:[f12<0.075499] yes=53,no=54,missing=54
					53:leaf=-0.033746 
					54:leaf=0.012165 
		6:[f14<868.000000] yes=13,no=14,missing=14
			13:[f43<1.620995] yes=27,no=28,missing=28
				27:[f36<0.080053] yes=55,no=56,missing=56
					55:leaf=-0.004548 
					56:leaf=0.016569 
				28:[f2<0.832054] yes=57,no=58,missing=58
					57:leaf=0.039432 
					58:leaf=-0.083690 
			14:[f1<0.637277] yes=29,no=30,missing=30
				29:[f43<-1.305554] yes=59,no=60,missing=60
					59:leaf=-0.013451 
					60:leaf=0.035692 
				30:[f4<1.145507] yes=61,no=62,missing=62
					61:leaf=-0.017339 
					62:leaf=-0.123501 
booster[22]
0:[f15<0.047257] yes=1,no=2,missing=2
	1:[f14<35.500000] yes=3,no=4,missing=4
		3:[f43<1.030086] yes=7,no=8,missing=8
			7:[f9<-0.412500] yes=15,no=16,missing=16
				15:[f37<7846.000000] yes=31,no=32,missing=32
					31:leaf=-0.088198 
					32:leaf=-0.028949 
				16:[f9<-0.076844] yes=33,no=34,missing=34
					33:leaf=0.003903 
					34:leaf=-0.013946 
			8:[f2<0.176614] yes=17,no=18,missing=18
				17:[f1<1.210795] yes=35,no=36,missing=36
					35:leaf=0.027518 
					36:leaf=-0.147332 
				18:[f8<-0.517470] yes=37,no=38,missing=38
					37:leaf=-0.158354 
					38:leaf=-0.002940 
		4:[f15<0.014196] yes=9,no=10,missing=10
			9:[f14<104.500000] yes=19,no=20,missing=20
				19:[f36<0.080053] yes=39,no=40,missing=40
					39:leaf=-0.009178 
					40:leaf=-0.066735 
				20:[f1<-0.433289] yes=41,no=42,missing=42
					41:leaf=-0.032158 
					42:leaf=-0.110871 
			10:[f12<0.034785] yes=21,no=22,missing=22
				21:[f8<1.172491] yes=43,no=44,missing=44
					43:leaf=-0.017041 
					44:leaf=-0.060540 
				22:[f11<24.500000] yes=45,no=46,missing=46
					45:leaf=0.002510 
					46:leaf=0.061623 
	2:[f2<-0.399369] yes=5,no=6,missing=6
		5:[f37<7846.000000] yes=11,no=12,missing=12
			11:[f2<-0.416185] yes=23,no=24,missing=24
				23:[f40<14786.000000] yes=47,no=48,missing=48
					47:leaf=-0.085456 
					48:leaf=-0.040388 
				24:[f43<-0.522462] yes=49,no=50,missing=50
					49:leaf=-0.077810 
					50:leaf=-0.006046 
			12:[f43<-0.637306] yes=25,no=26,missing=26
				25:[f2<-0.448301] yes=51,no=52,missing=52
					51:leaf=-0.078565 
					52:leaf=-0.021647 
				26:[f6<-1.931305] yes=53,no=54,missing=54
					53:leaf=-0.062312 
					54:leaf=0.001235 
		6:[f18<0.075194] yes=13,no=14,missing=14
			13:[f2<1.267678] yes=27,no=28,missing=28
				27:[f14<8205.000000] yes=55,no=56,missing=56
					55:leaf=-0.001905 
					56:leaf=-0.054613 
				28:[f13<207.500000] yes=57,no=58,missing=58
					57:leaf=-0.067732 
					58:leaf=-0.008668 
			14:[f40<7846.000000] yes=29,no=30,missing=30
				29:[f27<0.081301] yes=59,no=60,missing=60
					59:leaf=-0.079553 
					60:leaf=-0.008271 
				30:[f1<0.369636] yes=61,no=62,missing=62
					61:leaf=0.014148 
					62:leaf=-0.005435 
booster[23]
0:[f3<-0.984946] yes=1,no=2,missing=2
	1:[f12<0.018387] yes=3,no=4,missing=4
		3:[f11<19.500000] yes=7,no=8,missing=8
			7:[f43<-1.087351] yes=15,no=16,missing=16
				15:[f5<0.014510] yes=31,no=32,missing=32
					31:leaf=-0.031548 
					32:leaf=-0.086628 
				16:[f3<-2.024141] yes=33,no=34,missing=34
					33:leaf=-0.046556 
					34:leaf=-0.010601 
			8:[f3<-1.816156] yes=17,no=18,missing=18
				17:[f37<11470.500000] yes=35,no=36,missing=36
					35:leaf=-0.116022 
					36:leaf=0.072459 
				18:[f9<-0.363991] yes=37,no=38,missing=38
					37:leaf=-0.080784 
					38:leaf=-0.137459 
		4:[f36<0.080053] yes=9,no=10,missing=10
			9:[f43<0.882045] yes=19,no=20,missing=20
				19:[f15<0.066055] yes=39,no=40,missing=40
					39:leaf=-0.059400 
					40:leaf=-0.008325 
				20:[f12<0.048810] yes=41,no=42,missing=42
					41:leaf=-0.119700 
					42:leaf=0.040428 
			10:[f12<0.050641] yes=21,no=22,missing=22
				21:[f5<-0.162982] yes=43,no=44,missing=44
					43:leaf=0.022139 
					44:leaf=0.121242 
				22:[f1<0.560808] yes=45,no=46,missing=46
					45:leaf=0.026001 
					46:leaf=-0.019565 
	2:[f28<7846.000000] yes=5,no=6,missing=6
		5:[f11<7.500000] yes=11,no=12,missing=12
			11:[f6<-0.621931] yes=23,no=24,missing=24
				23:[f43<-1.111037] yes=47,no=48,missing=48
					47:leaf=-0.054570 
					48:leaf=0.008409 
				24:[f2<-0.338270] yes=49,no=50,missing=50
					49:leaf=0.005697 
					50:leaf=0.031959 
			12:[f33<0.086903] yes=25,no=26,missing=26
				25:[f7<1.395496] yes=51,no=52,missing=52
					51:leaf=-0.079722 
					52:leaf=0.054198 
				26:[f43<-1.440317] yes=53,no=54,missing=54
					53:leaf=-0.152037 
					54:leaf=0.022666 
		6:[f43<1.772266] yes=13,no=14,missing=14
			13:[f2<0.324518] yes=27,no=28,missing=28
				27:[f37<7846.000000] yes=55,no=56,missing=56
					55:leaf=-0.008097 
					56:leaf=0.005209 
				28:[f13<159.000000] yes=57,no=58,missing=58
					57:leaf=-0.024112 
					58:leaf=0.006404 
			14:[f42<0.083810] yes=29,no=30,missing=30
				29:[f14<117.000000] yes=59,no=60,missing=60
					59:leaf=0.008665 
					60:leaf=-0.036629 
				30:[f2<1.236389] yes=61,no=62,missing=62
					61:leaf=0.025702 
					62:leaf=-0.047563 
booster[24]
0:[f12<0.084524] yes=1,no=2,missing=2
	1:[f1<0.293167] yes=3,no=4,missing=4
		3:[f7<0.514586] yes=7,no=8,missing=8
			7:[f43<-1.059357] yes=15,no=16,missing=16
				15:[f5<-0.014709] yes=31,no=32,missing=32
					31:leaf=-0.013605 
					32:leaf=-0.075124 
				16:[f2<0.483080] yes=33,no=34,missing=34
					33:leaf=-0.000190 
					34:leaf=-0.031838 
			8:[f18<0.093903] yes=17,no=18,missing=18
				17:[f6<-0.197370] yes=35,no=36,missing=36
					35:leaf=-0.006216 
					36:leaf=0.008859 
				18:[f2<-0.321750] yes=37,no=38,missing=38
					37:leaf=-0.000196 
					38:leaf=0.024652 
		4:[f31<9293.500000] yes=9,no=10,missing=10
			9:[f12<0.020204] yes=19,no=20,missing=20
				19:[f14<967.000000] yes=39,no=40,missing=40
					39:leaf=-0.011503 
					40:leaf=-0.043849 
				20:[f12<0.067816] yes=41,no=42,missing=42
					41:leaf=0.028324 
					42:leaf=-0.023115 
			10:[f11<14.500000] yes=21,no=22,missing=22
				21:[f15<0.071686] yes=43,no=44,missing=44
					43:leaf=-0.059328 
					44:leaf=-0.016260 
				22:[f12<0.032796] yes=45,no=46,missing=46
					45:leaf=-0.082225 
					46:leaf=-0.028594 
	2:[f22<15082.000000] yes=5,no=6,missing=6
		5:[f43<-0.020737] yes=11,no=12,missing=12
			11:[f1<-0.089178] yes=23,no=24,missing=24
				23:[f2<-0.411390] yes=47,no=48,missing=48
					47:leaf=-0.078981 
					48:leaf=0.015595 
				24:[f5<-0.376931] yes=49,no=50,missing=50
					49:leaf=-0.081979 
					50:leaf=-0.014770 
			12:[f1<6.544508] yes=25,no=26,missing=26
				25:[f2<4.435759] yes=51,no=52,missing=52
					51:leaf=0.020451 
					52:leaf=-0.220776 
				26:leaf=-0.198301 
		6:[f1<-0.356820] yes=13,no=14,missing=14
			13:[f6<-1.135892] yes=27,no=28,missing=28
				27:[f43<-0.306591] yes=53,no=54,missing=54
					53:leaf=-0.086064 
					54:leaf=0.026971 
				28:[f7<-1.150717] yes=55,no=56,missing=56
					55:leaf=0.003891 
					56:leaf=0.064166 
			14:[f10<2.500000] yes=29,no=30,missing=30
				29:[f43<-1.591229] yes=57,no=58,missing=58
					57:leaf=-0.141055 
					58:leaf=0.015247 
				30:[f8<-0.420717] yes=59,no=60,missing=60
					59:leaf=0.021615 
					60:leaf=0.069179 
booster[25]
0:[f3<-0.933017] yes=1,no=2,missing=2
	1:[f12<0.018387] yes=3,no=4,missing=4
		3:[f11<19.500000] yes=7,no=8,missing=8
			7:[f3<-1.506820] yes=15,no=16,missing=16
				15:[f8<-0.478769] yes=31,no=32,missing=32
					31:leaf=0.006121 
					32:leaf=-0.029317 
				16:[f18<0.093903] yes=33,no=34,missing=34
					33:leaf=-0.012474 
					34:leaf=0.005201 
			8:[f13<89.000000] yes=17,no=18,missing=18
				17:[f33<0.086903] yes=35,no=36,missing=36
					35:leaf=-0.112761 
					36:leaf=-0.017338 
				18:[f7<-2.272165] yes=37,no=38,missing=38
					37:leaf=0.078764 
					38:leaf=-0.144423 
		4:[f9<-0.439883] yes=9,no=10,missing=10
			9:[f12<0.072078] yes=19,no=20,missing=20
				19:[f33<0.073352] yes=39,no=40,missing=40
					39:leaf=0.174484 
					40:leaf=-0.044182 
				20:[f6<-1.981277] yes=41,no=42,missing=42
					41:leaf=0.009109 
					42:leaf=-0.136323 
			10:[f22<677.500000] yes=21,no=22,missing=22
				21:[f43<0.043145] yes=43,no=44,missing=44
					43:leaf=-0.205132 
					44:leaf=-0.010896 
				22:[f1<0.560808] yes=45,no=46,missing=46
					45:leaf=0.019271 
					46:leaf=-0.002797 
	2:[f1<-0.280351] yes=5,no=6,missing=6
		5:[f9<0.160972] yes=11,no=12,missing=12
			11:[f37<7846.000000] yes=23,no=24,missing=24
				23:[f2<-0.372666] yes=47,no=48,missing=48
					47:leaf=-0.038899 
					48:leaf=0.002490 
				24:[f43<0.959385] yes=49,no=50,missing=50
					49:leaf=0.011289 
					50:leaf=0.032260 
			12:[f13<159.000000] yes=25,no=26,missing=26
				25:[f2<1.396565] yes=51,no=52,missing=52
					51:leaf=-0.010668 
					52:leaf=-0.070126 
				26:[f18<0.075194] yes=53,no=54,missing=54
					53:leaf=0.005547 
					54:leaf=0.030392 
		6:[f12<0.031754] yes=13,no=14,missing=14
			13:[f11<12.500000] yes=27,no=28,missing=28
				27:[f9<-0.368147] yes=55,no=56,missing=56
					55:leaf=-0.032478 
					56:leaf=-0.004028 
				28:[f36<0.076712] yes=57,no=58,missing=58
					57:leaf=-0.095616 
					58:leaf=-0.033465 
			14:[f40<14786.000000] yes=29,no=30,missing=30
				29:[f9<-0.022241] yes=59,no=60,missing=60
					59:leaf=-0.008350 
					60:leaf=0.011643 
				30:[f11<46.500000] yes=61,no=62,missing=62
					61:leaf=0.017334 
					62:leaf=0.074693 
booster[26]
0:[f7<0.917866] yes=1,no=2,missing=2
	1:[f43<1.713767] yes=3,no=4,missing=4
		3:[f28<7846.000000] yes=7,no=8,missing=8
			7:[f40<14786.000000] yes=15,no=16,missing=16
				15:[f1<0.981388] yes=31,no=32,missing=32
					31:leaf=0.008848 
					32:leaf=-0.057629 
				16:[f2<-0.310574] yes=33,no=34,missing=34
					33:leaf=0.000985 
					34:leaf=0.031291 
			8:[f12<0.019819] yes=17,no=18,missing=18
				17:[f11<9.500000] yes=35,no=36,missing=36
					35:leaf=-0.007064 
					36:leaf=-0.042783 
				18:[f22<15082.000000] yes=37,no=38,missing=38
					37:leaf=-0.002216 
					38:leaf=0.018074 
		4:[f42<0.083810] yes=9,no=10,missing=10
			9:[f15<0.050699] yes=19,no=20,missing=20
				19:[f14<52.000000] yes=39,no=40,missing=40
					39:leaf=0.016429 
					40:leaf=-0.062128 
				20:[f8<0.911257] yes=41,no=42,missing=42
					41:leaf=0.006031 
					42:leaf=-0.111244 
			10:[f1<1.784312] yes=21,no=22,missing=22
				21:[f2<0.444393] yes=43,no=44,missing=44
					43:leaf=0.021826 
					44:leaf=-0.018649 
				22:[f2<-0.315536] yes=45,no=46,missing=46
					45:leaf=-0.160229 
					46:leaf=-0.044997 
	2:[f3<-0.535169] yes=5,no=6,missing=6
		5:[f3<-1.947093] yes=11,no=12,missing=12
			11:[f6<-1.882333] yes=23,no=24,missing=24
				23:[f15<0.103753] yes=47,no=48,missing=48
					47:leaf=-0.089890 
					48:leaf=0.126574 
				24:[f43<-0.550275] yes=49,no=50,missing=50
					49:leaf=-0.029326 
					50:leaf=-0.141405 
			12:[f1<0.943153] yes=25,no=26,missing=26
				25:[f9<0.504040] yes=51,no=52,missing=52
					51:leaf=0.002803 
					52:leaf=-0.064210 
				26:[f22<15082.000000] yes=53,no=54,missing=54
					53:leaf=-0.079788 
					54:leaf=-0.012634 
		6:[f6<-0.348086] yes=13,no=14,missing=14
			13:[f43<-1.222292] yes=27,no=28,missing=28
				27:[f6<-0.963398] yes=55,no=56,missing=56
					55:leaf=-0.082768 
					56:leaf=-0.013192 
				28:[f9<1.067199] yes=57,no=58,missing=58
					57:leaf=0.006342 
					58:leaf=-0.103210 
			14:[f21<0.081288] yes=29,no=30,missing=30
				29:[f1<-0.280351] yes=59,no=60,missing=60
					59:leaf=0.015202 
					60:leaf=-0.012807 
				30:[f15<0.080269] yes=61,no=62,missing=62
					61:leaf=0.013880 
					62:leaf=0.031318 
booster[27]
0:[f18<0.075194] yes=1,no=2,missing=2
	1:[f6<-0.246585] yes=3,no=4,missing=4
		3:[f12<0.141196] yes=7,no=8,missing=8
			7:[f43<-1.120368] yes=15,no=16,missing=16
				15:[f6<-0.271568] yes=31,no=32,missing=32
					31:leaf=-0.051670 
					32:leaf=0.071153 
				16:[f3<-0.941619] yes=33,no=34,missing=34
					33:leaf=-0.035302 
					34:leaf=-0.010571 
			8:[f34<5864.500000] yes=17,no=18,missing=18
				17:[f8<-0.401366] yes=35,no=36,missing=36
					35:leaf=-0.020103 
					36:leaf=0.014352 
				18:[f43<-1.430627] yes=37,no=38,missing=38
					37:leaf=-0.157560 
					38:leaf=0.051935 
		4:[f2<0.176176] yes=9,no=10,missing=10
			9:[f8<0.366212] yes=19,no=20,missing=20
				19:[f14<8205.000000] yes=39,no=40,missing=40
					39:leaf=0.006977 
					40:leaf=-0.061854 
				20:[f9<-0.408422] yes=41,no=42,missing=42
					41:leaf=-0.138120 
					42:leaf=-0.013713 
			10:[f4<-0.258518] yes=21,no=22,missing=22
				21:[f43<1.913847] yes=43,no=44,missing=44
					43:leaf=-0.011404 
					44:leaf=0.022138 
				22:[f6<0.326936] yes=45,no=46,missing=46
					45:leaf=-0.079375 
					46:leaf=-0.023520 
	2:[f9<-0.437663] yes=5,no=6,missing=6
		5:[f37<7846.000000] yes=11,no=12,missing=12
			11:[f7<-1.150717] yes=23,no=24,missing=24
				23:[f17<64592.000000] yes=47,no=48,missing=48
					47:leaf=0.033567 
					48:leaf=-0.151797 
				24:[f28<7846.000000] yes=49,no=50,missing=50
					49:leaf=-0.001074 
					50:leaf=-0.103462 
			12:[f2<-0.462257] yes=25,no=26,missing=26
				25:[f43<0.599242] yes=51,no=52,missing=52
					51:leaf=-0.139890 
					52:leaf=-0.021587 
				26:[f43<-0.000639] yes=53,no=54,missing=54
					53:leaf=-0.029855 
					54:leaf=0.004448 
		6:[f40<7846.000000] yes=13,no=14,missing=14
			13:[f30<0.076755] yes=27,no=28,missing=28
				27:[f1<4.479845] yes=55,no=56,missing=56
					55:leaf=-0.068856 
					56:leaf=0.053113 
				28:[f43<1.030804] yes=57,no=58,missing=58
					57:leaf=-0.007633 
					58:leaf=-0.086994 
			14:[f37<7846.000000] yes=29,no=30,missing=30
				29:[f2<-0.271092] yes=59,no=60,missing=60
					59:leaf=-0.020483 
					60:leaf=0.002858 
				30:[f13<150.500000] yes=61,no=62,missing=62
					61:leaf=0.006233 
					62:leaf=0.023116 
booster[28]
0:[f3<0.676407] yes=1,no=2,missing=2
	1:[f2<1.744714] yes=3,no=4,missing=4
		3:[f43<-1.503660] yes=7,no=8,missing=8
			7:[f6<-0.197370] yes=15,no=16,missing=16
				15:[f43<-1.615992] yes=31,no=32,missing=32
					31:leaf=-0.108791 
					32:leaf=-0.052395 
				16:[f5<-1.503352] yes=33,no=34,missing=34
					33:leaf=-0.105060 
					34:leaf=-0.013640 
			8:[f15<0.138616] yes=17,no=18,missing=18
				17:[f3<-1.668674] yes=35,no=36,missing=36
					35:leaf=-0.026373 
					36:leaf=-0.003006 
				18:[f13<3.500000] yes=37,no=38,missing=38
					37:leaf=-0.007900 
					38:leaf=0.015859 
		4:[f7<1.602308] yes=9,no=10,missing=10
			9:[f2<6.473953] yes=19,no=20,missing=20
				19:[f15<0.156126] yes=39,no=40,missing=40
					39:leaf=-0.072412 
					40:leaf=0.018628 
				20:[f24<0.074376] yes=41,no=42,missing=42
					41:leaf=0.121434 
					42:leaf=-0.161204 
			10:[f3<0.055456] yes=21,no=22,missing=22
				21:[f8<-0.481994] yes=43,no=44,missing=44
					43:leaf=0.095587 
					44:leaf=-0.172918 
				22:[f37<11470.500000] yes=45,no=46,missing=46
					45:leaf=0.135283 
					46:leaf=-0.025188 
	2:[f40<7846.000000] yes=5,no=6,missing=6
		5:[f30<0.076755] yes=11,no=12,missing=12
			11:[f6<1.038636] yes=23,no=24,missing=24
				23:[f14<120.500000] yes=47,no=48,missing=48
					47:leaf=-0.044518 
					48:leaf=-0.121616 
				24:[f8<0.072726] yes=49,no=50,missing=50
					49:leaf=-0.009860 
					50:leaf=-0.169797 
			12:[f43<-0.476524] yes=25,no=26,missing=26
				25:[f43<-1.571669] yes=51,no=52,missing=52
					51:leaf=0.059391 
					52:leaf=-0.040096 
				26:[f43<0.969075] yes=53,no=54,missing=54
					53:leaf=0.009217 
					54:leaf=-0.083630 
		6:[f18<0.093903] yes=13,no=14,missing=14
			13:[f43<-1.516580] yes=27,no=28,missing=28
				27:[f4<0.443494] yes=55,no=56,missing=56
					55:leaf=-0.040835 
					56:leaf=-0.151403 
				28:[f12<0.278559] yes=57,no=58,missing=58
					57:leaf=0.004787 
					58:leaf=0.028399 
			14:[f34<2874.000000] yes=29,no=30,missing=30
				29:[f18<0.134331] yes=59,no=60,missing=60
					59:leaf=0.036758 
					60:leaf=-0.050415 
				30:[f3<1.713751] yes=61,no=62,missing=62
					61:leaf=0.009963 
					62:leaf=0.037699 
booster[29]
0:[f15<0.045924] yes=1,no=2,missing=2
	1:[f14<35.500000] yes=3,no=4,missing=4
		3:[f43<1.110118] yes=7,no=8,missing=8
			7:[f43<-1.442649] yes=15,no=16,missing=16
				15:[f8<-0.549721] yes=31,no=32,missing=32
					31:leaf=0.103468 
					32:leaf=-0.051024 
				16:[f1<0.713746] yes=33,no=34,missing=34
					33:leaf=-0.000723 
					34:leaf=-0.047640 
			8:[f16<4264.000000] yes=17,no=18,missing=18
				17:[f2<0.466159] yes=35,no=36,missing=36
					35:leaf=0.039119 
					36:leaf=-0.109167 
				18:[f3<1.924761] yes=37,no=38,missing=38
					37:leaf=0.011062 
					38:leaf=-0.172130 
		4:[f15<0.014196] yes=9,no=10,missing=10
			9:[f14<133.000000] yes=19,no=20,missing=20
				19:[f36<0.080053] yes=39,no=40,missing=40
					39:leaf=-0.016024 
					40:leaf=-0.062893 
				20:[f43<2.594118] yes=41,no=42,missing=42
					41:leaf=-0.095405 
					42:leaf=0.185509 
			10:[f8<1.817515] yes=21,no=22,missing=22
				21:[f10<1.500000] yes=43,no=44,missing=44
					43:leaf=-0.014371 
					44:leaf=0.036454 
				22:[f2<-0.206498] yes=45,no=46,missing=46
					45:leaf=-0.012554 
					46:leaf=-0.083940 
	2:[f2<-0.391307] yes=5,no=6,missing=6
		5:[f37<7846.000000] yes=11,no=12,missing=12
			11:[f2<-0.441952] yes=23,no=24,missing=24
				23:[f28<7846.000000] yes=47,no=48,missing=48
					47:leaf=0.031574 
					48:leaf=-0.088709 
				24:[f19<1468.500000] yes=49,no=50,missing=50
					49:leaf=0.037908 
					50:leaf=-0.030966 
			12:[f43<-0.327227] yes=25,no=26,missing=26
				25:[f5<-0.345895] yes=51,no=52,missing=52
					51:leaf=-0.058166 
					52:leaf=-0.013596 
				26:[f13<196.500000] yes=53,no=54,missing=54
					53:leaf=0.008345 
					54:leaf=-0.017125 
		6:[f18<0.075194] yes=13,no=14,missing=14
			13:[f2<1.267678] yes=27,no=28,missing=28
				27:[f14<8205.000000] yes=55,no=56,missing=56
					55:leaf=-0.001025 
					56:leaf=-0.048134 
				28:[f43<-0.447095] yes=57,no=58,missing=58
					57:leaf=-0.008639 
					58:leaf=-0.062765 
			14:[f1<0.293167] yes=29,no=30,missing=30
				29:[f13<150.500000] yes=59,no=60,missing=60
					59:leaf=0.006198 
					60:leaf=0.018635 
				30:[f10<2.500000] yes=61,no=62,missing=62
					61:leaf=-0.010852 
					62:leaf=0.017822 
booster[30]
0:[f7<-0.586774] yes=1,no=2,missing=2
	1:[f8<2.610894] yes=3,no=4,missing=4
		3:[f43<-0.257244] yes=7,no=8,missing=8
			7:[f9<-0.444971] yes=15,no=16,missing=16
				15:[f3<-2.071186] yes=31,no=32,missing=32
					31:leaf=0.110898 
					32:leaf=-0.095528 
				16:[f12<0.563492] yes=33,no=34,missing=34
					33:leaf=-0.013438 
					34:leaf=0.033031 
			8:[f2<-0.132743] yes=17,no=18,missing=18
				17:[f37<7846.000000] yes=35,no=36,missing=36
					35:leaf=-0.006871 
					36:leaf=0.012183 
				18:[f13<178.000000] yes=37,no=38,missing=38
					37:leaf=-0.015266 
					38:leaf=0.017389 
		4:[f31<1310.500000] yes=9,no=10,missing=10
			9:[f2<0.471756] yes=19,no=20,missing=20
				19:leaf=-0.182740 
				20:leaf=0.002051 
			10:[f2<1.884197] yes=21,no=22,missing=22
				21:[f2<0.356966] yes=39,no=40,missing=40
					39:leaf=-0.040550 
					40:leaf=0.003275 
				22:leaf=-0.170019 
	2:[f18<0.093903] yes=5,no=6,missing=6
		5:[f12<0.046967] yes=11,no=12,missing=12
			11:[f1<1.401967] yes=23,no=24,missing=24
				23:[f43<1.680390] yes=41,no=42,missing=42
					41:leaf=-0.002755 
					42:leaf=0.013897 
				24:[f40<14786.000000] yes=43,no=44,missing=44
					43:leaf=-0.067952 
					44:leaf=-0.013764 
			12:[f37<11470.500000] yes=25,no=26,missing=26
				25:[f12<0.047339] yes=45,no=46,missing=46
					45:leaf=0.141838 
					46:leaf=0.005985 
				26:[f3<1.725959] yes=47,no=48,missing=48
					47:leaf=0.022534 
					48:leaf=0.074280 
		6:[f1<-0.280351] yes=13,no=14,missing=14
			13:[f4<3.368545] yes=27,no=28,missing=28
				27:[f37<7846.000000] yes=49,no=50,missing=50
					49:leaf=0.001438 
					50:leaf=0.019840 
				28:[f3<-1.716563] yes=51,no=52,missing=52
					51:leaf=-0.167677 
					52:leaf=0.046618 
			14:[f2<-0.448276] yes=29,no=30,missing=30
				29:[f15<0.154326] yes=53,no=54,missing=54
					53:leaf=-0.106401 
					54:leaf=0.023383 
				30:[f34<2874.000000] yes=55,no=56,missing=56
					55:leaf=0.016545 
					56:leaf=-0.003609 
booster[31]
0:[f7<-0.689272] yes=1,no=2,missing=2
	1:[f8<2.614119] yes=3,no=4,missing=4
		3:[f12<0.563492] yes=7,no=8,missing=8
			7:[f43<2.135460] yes=15,no=16,missing=16
				15:[f15<0.138616] yes=31,no=32,missing=32
					31:leaf=-0.010601 
					32:leaf=0.005315 
				16:[f2<-0.443875] yes=33,no=34,missing=34
					33:leaf=-0.183538 
					34:leaf=0.023247 
			8:[f2<-0.057398] yes=17,no=18,missing=18
				17:[f33<0.073352] yes=35,no=36,missing=36
					35:leaf=-0.053226 
					36:leaf=0.019380 
				18:[f3<0.531533] yes=37,no=38,missing=38
					37:leaf=0.066950 
					38:leaf=0.014877 
		4:[f2<-0.366557] yes=9,no=10,missing=10
			9:[f6<-1.931305] yes=19,no=20,missing=20
				19:[f15<0.039231] yes=39,no=40,missing=40
					39:leaf=0.184419 
					40:leaf=-0.054317 
				20:[f4<-0.492522] yes=41,no=42,missing=42
					41:leaf=-0.174829 
					42:leaf=-0.082473 
			10:[f2<-0.171208] yes=21,no=22,missing=22
				21:[f43<-0.916161] yes=43,no=44,missing=44
					43:leaf=-0.130126 
					44:leaf=0.012666 
				22:[f15<0.096872] yes=45,no=46,missing=46
					45:leaf=-0.064365 
					46:leaf=-0.008605 
	2:[f2<-0.412425] yes=5,no=6,missing=6
		5:[f37<7846.000000] yes=11,no=12,missing=12
			11:[f9<-0.436668] yes=23,no=24,missing=24
				23:[f18<0.079842] yes=47,no=48,missing=48
					47:leaf=-0.024220 
					48:leaf=-0.090736 
				24:[f9<-0.433569] yes=49,no=50,missing=50
					49:leaf=0.020244 
					50:leaf=-0.045911 
			12:[f43<0.968896] yes=25,no=26,missing=26
				25:[f2<-0.456579] yes=51,no=52,missing=52
					51:leaf=-0.072437 
					52:leaf=-0.009941 
				26:[f6<-1.834321] yes=53,no=54,missing=54
					53:leaf=-0.174366 
					54:leaf=0.025047 
		6:[f9<0.470371] yes=13,no=14,missing=14
			13:[f37<7846.000000] yes=27,no=28,missing=28
				27:[f33<0.079608] yes=55,no=56,missing=56
					55:leaf=0.006126 
					56:leaf=-0.007443 
				28:[f40<7846.000000] yes=57,no=58,missing=58
					57:leaf=-0.012698 
					58:leaf=0.009900 
			14:[f16<93.500000] yes=29,no=30,missing=30
				29:[f33<0.086903] yes=59,no=60,missing=60
					59:leaf=0.004881 
					60:leaf=0.092826 
				30:[f12<0.122500] yes=61,no=62,missing=62
					61:leaf=-0.021583 
					62:leaf=0.014071 
booster[32]
0:[f28<1772.500000] yes=1,no=2,missing=2
	1:[f5<0.215148] yes=3,no=4,missing=4
		3:[f43<0.499291] yes=7,no=8,missing=8
			7:[f5<-0.284301] yes=15,no=16,missing=16
				15:[f9<-0.388410] yes=31,no=32,missing=32
					31:leaf=-0.076754 
					32:leaf=0.025039 
				16:[f1<0.331401] yes=33,no=34,missing=34
					33:leaf=0.048646 
					34:leaf=-0.001595 
			8:[f11<2.500000] yes=17,no=18,missing=18
				17:[f7<-0.132130] yes=35,no=36,missing=36
					35:leaf=-0.018858 
					36:leaf=0.032192 
				18:[f1<-0.089178] yes=37,no=38,missing=38
					37:leaf=0.000802 
					38:leaf=-0.111734 
		4:[f43<-1.101347] yes=9,no=10,missing=10
			9:[f43<-1.361541] yes=19,no=20,missing=20
				19:[f5<1.682797] yes=39,no=40,missing=40
					39:leaf=-0.095936 
					40:leaf=0.050997 
				20:[f15<0.157675] yes=41,no=42,missing=42
					41:leaf=-0.150424 
					42:leaf=0.001049 
			10:[f43<0.870381] yes=21,no=22,missing=22
				21:[f37<7913.500000] yes=43,no=44,missing=44
					43:leaf=-0.008077 
					44:leaf=0.025323 
				22:[f5<1.435059] yes=45,no=46,missing=46
					45:leaf=-0.247712 
					46:leaf=-0.029503 
	2:[f43<1.792004] yes=5,no=6,missing=6
		5:[f8<2.127126] yes=11,no=12,missing=12
			11:[f9<0.233262] yes=23,no=24,missing=24
				23:[f1<-0.318585] yes=47,no=48,missing=48
					47:leaf=0.004150 
					48:leaf=-0.005458 
				24:[f13<159.000000] yes=49,no=50,missing=50
					49:leaf=-0.017573 
					50:leaf=0.006090 
			12:[f12<0.044466] yes=25,no=26,missing=26
				25:[f1<1.057857] yes=51,no=52,missing=52
					51:leaf=-0.023678 
					52:leaf=-0.100124 
				26:[f14<13.500000] yes=53,no=54,missing=54
					53:leaf=-0.235932 
					54:leaf=0.012493 
		6:[f27<0.081301] yes=13,no=14,missing=14
			13:[f1<1.784312] yes=27,no=28,missing=28
				27:[f2<1.175523] yes=55,no=56,missing=56
					55:leaf=0.020060 
					56:leaf=-0.040860 
				28:[f2<-0.163188] yes=57,no=58,missing=58
					57:leaf=-0.117796 
					58:leaf=-0.041787 
			14:[f31<3821.500000] yes=29,no=30,missing=30
				29:[f13<280.000000] yes=59,no=60,missing=60
					59:leaf=0.003862 
					60:leaf=0.099277 
				30:[f11<1.500000] yes=61,no=62,missing=62
					61:leaf=-0.044115 
					62:leaf=-0.004465 
booster[33]
0:[f7<0.970229] yes=1,no=2,missing=2
	1:[f40<7846.000000] yes=3,no=4,missing=4
		3:[f25<15537.000000] yes=7,no=8,missing=8
			7:[f43<-0.901985] yes=15,no=16,missing=16
				15:[f33<0.083896] yes=31,no=32,missing=32
					31:leaf=0.024343 
					32:leaf=-0.059041 
				16:[f16<4910.500000] yes=33,no=34,missing=34
					33:leaf=-0.100830 
					34:leaf=-0.046147 
			8:[f43<-0.887809] yes=17,no=18,missing=18
				17:[f11<4.500000] yes=35,no=36,missing=36
					35:leaf=-0.067049 
					36:leaf=0.009927 
				18:[f31<3110.000000] yes=37,no=38,missing=38
					37:leaf=0.036359 
					38:leaf=-0.011542 
		4:[f15<0.045924] yes=9,no=10,missing=10
			9:[f14<56.500000] yes=19,no=20,missing=20
				19:[f43<1.030086] yes=39,no=40,missing=40
					39:leaf=-0.005546 
					40:leaf=0.013128 
				20:[f13<5.500000] yes=41,no=42,missing=42
					41:leaf=-0.034995 
					42:leaf=-0.008201 
			10:[f9<1.100261] yes=21,no=22,missing=22
				21:[f43<-1.484998] yes=43,no=44,missing=44
					43:leaf=-0.031888 
					44:leaf=0.002650 
				22:[f16<93.500000] yes=45,no=46,missing=46
					45:leaf=0.062065 
					46:leaf=-0.038579 
	2:[f6<-0.348086] yes=5,no=6,missing=6
		5:[f43<-1.237725] yes=11,no=12,missing=12
			11:[f5<0.129982] yes=23,no=24,missing=24
				23:[f5<-0.345895] yes=47,no=48,missing=48
					47:leaf=-0.103818 
					48:leaf=0.003121 
				24:[f43<-1.518195] yes=49,no=50,missing=50
					49:leaf=-0.031030 
					50:leaf=-0.128922 
			12:[f1<0.904919] yes=25,no=26,missing=26
				25:[f9<-0.314298] yes=51,no=52,missing=52
					51:leaf=-0.020879 
					52:leaf=0.006818 
				26:[f12<0.022774] yes=53,no=54,missing=54
					53:leaf=-0.064343 
					54:leaf=0.001037 
		6:[f37<11470.500000] yes=13,no=14,missing=14
			13:[f1<-0.280351] yes=27,no=28,missing=28
				27:[f15<0.128357] yes=55,no=56,missing=56
					55:leaf=0.008170 
					56:leaf=0.026836 
				28:[f43<-1.380203] yes=57,no=58,missing=58
					57:leaf=0.043377 
					58:leaf=-0.007032 
			14:[f9<-0.029015] yes=29,no=30,missing=30
				29:[f9<-0.421472] yes=59,no=60,missing=60
					59:leaf=-0.011441 
					60:leaf=0.031596 
				30:[f3<1.395535] yes=61,no=62,missing=62
					61:leaf=0.001663 
					62:leaf=0.036868 
booster[34]
0:[f3<0.718021] yes=1,no=2,missing=2
	1:[f18<0.075194] yes=3,no=4,missing=4
		3:[f6<-0.197370] yes=7,no=8,missing=8
			7:[f2<0.232868] yes=15,no=16,missing=16
				15:[f3<-1.326336] yes=31,no=32,missing=32
					31:leaf=-0.033600 
					32:leaf=-0.009194 
				16:[f7<-1.567925] yes=33,no=34,missing=34
					33:leaf=-0.102118 
					34:leaf=-0.030585 
			8:[f2<1.706896] yes=17,no=18,missing=18
				17:[f14<8205.000000] yes=35,no=36,missing=36
					35:leaf=-0.002311 
					36:leaf=-0.057672 
				18:[f15<0.257653] yes=37,no=38,missing=38
					37:leaf=-0.073386 
					38:leaf=0.136642 
		4:[f9<-0.451001] yes=9,no=10,missing=10
			9:[f6<-0.536514] yes=19,no=20,missing=20
				19:[f3<-1.118192] yes=39,no=40,missing=40
					39:leaf=0.055297 
					40:leaf=-0.070118 
				20:[f3<-0.018999] yes=41,no=42,missing=42
					41:leaf=-0.099504 
					42:leaf=-0.019532 
			10:[f37<7846.000000] yes=21,no=22,missing=22
				21:[f9<-0.306242] yes=43,no=44,missing=44
					43:leaf=-0.023421 
					44:leaf=-0.001069 
				22:[f9<-0.107671] yes=45,no=46,missing=46
					45:leaf=0.008331 
					46:leaf=-0.002867 
	2:[f40<14786.000000] yes=5,no=6,missing=6
		5:[f11<0.500000] yes=11,no=12,missing=12
			11:[f43<0.843644] yes=23,no=24,missing=24
				23:[f33<0.086903] yes=47,no=48,missing=48
					47:leaf=0.004405 
					48:leaf=-0.026760 
				24:[f2<0.480152] yes=49,no=50,missing=50
					49:leaf=0.027434 
					50:leaf=-0.023411 
			12:[f12<0.277668] yes=25,no=26,missing=26
				25:[f43<-1.472796] yes=51,no=52,missing=52
					51:leaf=0.058543 
					52:leaf=-0.018104 
				26:[f6<-0.865449] yes=53,no=54,missing=54
					53:leaf=-0.032663 
					54:leaf=0.024151 
		6:[f43<-1.104936] yes=13,no=14,missing=14
			13:[f5<0.072524] yes=27,no=28,missing=28
				27:[f5<-0.862867] yes=55,no=56,missing=56
					55:leaf=-0.103695 
					56:leaf=0.017122 
				28:[f1<-0.203882] yes=57,no=58,missing=58
					57:leaf=-0.059808 
					58:leaf=-0.108720 
			14:[f43<0.482065] yes=29,no=30,missing=30
				29:[f43<-0.291697] yes=59,no=60,missing=60
					59:leaf=0.013110 
					60:leaf=0.027960 
				30:[f13<349.000000] yes=61,no=62,missing=62
					61:leaf=-0.011727 
					62:leaf=0.029914 
booster[35]
0:[f3<0.723413] yes=1,no=2,missing=2
	1:[f8<2.527040] yes=3,no=4,missing=4
		3:[f9<-0.435779] yes=7,no=8,missing=8
			7:[f7<-1.725222] yes=15,no=16,missing=16
				15:[f6<-0.680577] yes=31,no=32,missing=32
					31:leaf=-0.154294 
					32:leaf=-0.051957 
				16:[f2<-0.461418] yes=33,no=34,missing=34
					33:leaf=-0.087413 
					34:leaf=-0.019140 
			8:[f9<0.317938] yes=17,no=18,missing=18
				17:[f37<7846.000000] yes=35,no=36,missing=36
					35:leaf=-0.006367 
					36:leaf=0.003519 
				18:[f13<159.000000] yes=37,no=38,missing=38
					37:leaf=-0.018667 
					38:leaf=0.006128 
		4:[f8<5.707006] yes=9,no=10,missing=10
			9:[f7<-0.132130] yes=19,no=20,missing=20
				19:[f31<1310.500000] yes=39,no=40,missing=40
					39:leaf=-0.164035 
					40:leaf=-0.031995 
				20:[f14<224.500000] yes=41,no=42,missing=42
					41:leaf=0.008462 
					42:leaf=-0.028438 
			10:[f1<0.713746] yes=21,no=22,missing=22
				21:[f3<0.090001] yes=43,no=44,missing=44
					43:leaf=-0.033627 
					44:leaf=-0.098469 
				22:[f6<-2.032290] yes=45,no=46,missing=46
					45:leaf=-0.007818 
					46:leaf=-0.140675 
	2:[f18<0.093903] yes=5,no=6,missing=6
		5:[f43<-1.420039] yes=11,no=12,missing=12
			11:[f12<0.032796] yes=23,no=24,missing=24
				23:[f3<1.226607] yes=47,no=48,missing=48
					47:leaf=-0.060426 
					48:leaf=-0.018360 
				24:[f4<0.326492] yes=49,no=50,missing=50
					49:leaf=0.043582 
					50:leaf=-0.109845 
			12:[f40<14786.000000] yes=25,no=26,missing=26
				25:[f11<0.500000] yes=51,no=52,missing=52
					51:leaf=0.006669 
					52:leaf=-0.013290 
				26:[f43<0.489601] yes=53,no=54,missing=54
					53:leaf=0.014418 
					54:leaf=-0.008655 
		6:[f9<-0.396126] yes=13,no=14,missing=14
			13:[f5<-0.534570] yes=27,no=28,missing=28
				27:leaf=-0.195545 
				28:[f14<17.500000] yes=55,no=56,missing=56
					55:leaf=-0.100249 
					56:leaf=-0.005532 
			14:[f34<2874.000000] yes=29,no=30,missing=30
				29:[f1<0.981388] yes=57,no=58,missing=58
					57:leaf=0.029902 
					58:leaf=-0.013004 
				30:[f3<1.713751] yes=59,no=60,missing=60
					59:leaf=0.007597 
					60:leaf=0.029430 
booster[36]
0:[f12<0.386752] yes=1,no=2,missing=2
	1:[f16<4264.000000] yes=3,no=4,missing=4
		3:[f4<3.368545] yes=7,no=8,missing=8
			7:[f4<-0.492522] yes=15,no=16,missing=16
				15:[f2<-0.396842] yes=31,no=32,missing=32
					31:leaf=-0.016338 
					32:leaf=0.014335 
				16:[f40<7846.000000] yes=33,no=34,missing=34
					33:leaf=-0.015974 
					34:leaf=0.000599 
			8:[f43<-1.509402] yes=17,no=18,missing=18
				17:[f7<-1.420485] yes=35,no=36,missing=36
					35:leaf=0.018646 
					36:leaf=-0.140870 
				18:[f3<-1.754260] yes=37,no=38,missing=38
					37:leaf=-0.107325 
					38:leaf=0.030784 
		4:[f2<1.287521] yes=9,no=10,missing=10
			9:[f43<-1.231265] yes=19,no=20,missing=20
				19:[f5<0.043587] yes=39,no=40,missing=40
					39:leaf=-0.007027 
					40:leaf=-0.058028 
				20:[f16<4471.000000] yes=41,no=42,missing=42
					41:leaf=-0.009803 
					42:leaf=0.000716 
			10:[f43<-0.447275] yes=21,no=22,missing=22
				21:[f3<-1.345585] yes=43,no=44,missing=44
					43:leaf=0.127695 
					44:leaf=-0.011830 
				22:[f4<0.911503] yes=45,no=46,missing=46
					45:leaf=-0.048498 
					46:leaf=-0.138717 
	2:[f9<-0.308456] yes=5,no=6,missing=6
		5:[f6<1.082357] yes=11,no=12,missing=12
			11:[f31<1310.500000] yes=23,no=24,missing=24
				23:[f18<0.082346] yes=47,no=48,missing=48
					47:leaf=-0.055470 
					48:leaf=0.147051 
				24:[f3<-1.275509] yes=49,no=50,missing=50
					49:leaf=-0.051027 
					50:leaf=0.007826 
			12:[f43<1.821074] yes=25,no=26,missing=26
				25:[f9<-0.322396] yes=51,no=52,missing=52
					51:leaf=-0.141381 
					52:leaf=0.050526 
				26:[f8<-0.417491] yes=53,no=54,missing=54
					53:leaf=-0.017630 
					54:leaf=0.127986 
		6:[f12<0.612500] yes=13,no=14,missing=14
			13:[f13<28.500000] yes=27,no=28,missing=28
				27:[f2<-0.296927] yes=55,no=56,missing=56
					55:leaf=-0.259139 
					56:leaf=0.001498 
				28:[f9<-0.289936] yes=57,no=58,missing=58
					57:leaf=0.086478 
					58:leaf=0.021505 
			14:[f8<4.829774] yes=29,no=30,missing=30
				29:[f6<-0.833651] yes=59,no=60,missing=60
					59:leaf=0.000472 
					60:leaf=0.037787 
				30:leaf=-0.230063 
booster[37]
0:[f7<0.450896] yes=1,no=2,missing=2
	1:[f43<-0.167881] yes=3,no=4,missing=4
		3:[f39<0.072279] yes=7,no=8,missing=8
			7:[f1<-0.280351] yes=15,no=16,missing=16
				15:[f2<-0.158207] yes=31,no=32,missing=32
					31:leaf=-0.036465 
					32:leaf=-0.002858 
				16:[f43<-1.194299] yes=33,no=34,missing=34
					33:leaf=0.005786 
					34:leaf=-0.050351 
			8:[f2<-0.448474] yes=17,no=18,missing=18
				17:[f43<-0.578448] yes=35,no=36,missing=36
					35:leaf=-0.092981 
					36:leaf=-0.017863 
				18:[f7<-1.725222] yes=37,no=38,missing=38
					37:leaf=-0.025045 
					38:leaf=-0.003719 
		4:[f15<0.089164] yes=9,no=10,missing=10
			9:[f15<0.088963] yes=19,no=20,missing=20
				19:[f9<-0.096510] yes=39,no=40,missing=40
					39:leaf=0.004389 
					40:leaf=-0.008807 
				20:[f2<-0.153134] yes=41,no=42,missing=42
					41:leaf=-0.022441 
					42:leaf=-0.104261 
			10:[f13<99.000000] yes=21,no=22,missing=22
				21:[f3<1.141426] yes=43,no=44,missing=44
					43:leaf=-0.003708 
					44:leaf=0.017046 
				22:[f1<-0.318585] yes=45,no=46,missing=46
					45:leaf=0.027366 
					46:leaf=0.004691 
	2:[f3<-1.860507] yes=5,no=6,missing=6
		5:[f21<0.081288] yes=11,no=12,missing=12
			11:[f6<0.741981] yes=23,no=24,missing=24
				23:[f6<-1.695689] yes=47,no=48,missing=48
					47:leaf=-0.011928 
					48:leaf=-0.114985 
				24:[f16<4264.000000] yes=49,no=50,missing=50
					49:leaf=0.087731 
					50:leaf=-0.085551 
			12:[f6<0.100458] yes=25,no=26,missing=26
				25:[f8<0.540368] yes=51,no=52,missing=52
					51:leaf=-0.016486 
					52:leaf=0.078469 
				26:[f31<3821.500000] yes=53,no=54,missing=54
					53:leaf=-0.000590 
					54:leaf=-0.136872 
		6:[f1<-0.203882] yes=13,no=14,missing=14
			13:[f43<2.183910] yes=27,no=28,missing=28
				27:[f28<7846.000000] yes=55,no=56,missing=56
					55:leaf=0.022448 
					56:leaf=0.005464 
				28:[f2<1.444375] yes=57,no=58,missing=58
					57:leaf=0.037650 
					58:leaf=-0.128361 
			14:[f12<0.031754] yes=29,no=30,missing=30
				29:[f1<1.401967] yes=59,no=60,missing=60
					59:leaf=-0.002525 
					60:leaf=-0.036786 
				30:[f1<1.478436] yes=61,no=62,missing=62
					61:leaf=0.003084 
					62:leaf=0.023157 
booster[38]
0:[f12<0.386752] yes=1,no=2,missing=2
	1:[f3<-0.984946] yes=3,no=4,missing=4
		3:[f43<2.010208] yes=7,no=8,missing=8
			7:[f33<0.083896] yes=15,no=16,missing=16
				15:[f8<-0.517470] yes=31,no=32,missing=32
					31:leaf=0.035126 
					32:leaf=-0.005297 
				16:[f15<0.120055] yes=33,no=34,missing=34
					33:leaf=-0.021664 
					34:leaf=-0.001930 
			8:[f3<-2.216180] yes=17,no=18,missing=18
				17:leaf=-0.174877 
				18:[f2<-0.460901] yes=35,no=36,missing=36
					35:leaf=0.219562 
					36:leaf=0.019354 
		4:[f7<0.917866] yes=9,no=10,missing=10
			9:[f14<8205.000000] yes=19,no=20,missing=20
				19:[f2<0.771484] yes=37,no=38,missing=38
					37:leaf=-0.000166 
					38:leaf=-0.026902 
				20:[f10<2.500000] yes=39,no=40,missing=40
					39:leaf=-0.043621 
					40:leaf=0.092491 
			10:[f39<0.072279] yes=21,no=22,missing=22
				21:[f2<-0.312929] yes=41,no=42,missing=42
					41:leaf=-0.049569 
					42:leaf=-0.001331 
				22:[f6<-0.348086] yes=43,no=44,missing=44
					43:leaf=0.000045 
					44:leaf=0.012284 
	2:[f10<1.500000] yes=5,no=6,missing=6
		5:[f1<-0.356820] yes=11,no=12,missing=12
			11:[f6<-0.833651] yes=23,no=24,missing=24
				23:[f19<7846.000000] yes=45,no=46,missing=46
					45:leaf=-0.171960 
					46:leaf=-0.005940 
				24:[f3<1.138231] yes=47,no=48,missing=48
					47:leaf=0.025726 
					48:leaf=0.056099 
			12:[f3<-1.808818] yes=25,no=26,missing=26
				25:[f7<-1.281739] yes=49,no=50,missing=50
					49:leaf=-0.105298 
					50:leaf=-0.227494 
				26:[f43<-0.981479] yes=51,no=52,missing=52
					51:leaf=-0.038361 
					52:leaf=0.004434 
		6:[f15<0.036369] yes=13,no=14,missing=14
			13:[f2<-0.329991] yes=27,no=28,missing=28
				27:leaf=-0.087513 
				28:[f4<-0.083015] yes=53,no=54,missing=54
					53:leaf=0.146144 
					54:leaf=-0.007475 
			14:[f1<0.216698] yes=29,no=30,missing=30
				29:[f2<2.101233] yes=55,no=56,missing=56
					55:leaf=0.037217 
					56:leaf=-0.116546 
				30:[f43<-1.095605] yes=57,no=58,missing=58
					57:leaf=0.053104 
					58:leaf=-0.009836 
booster[39]
0:[f43<1.684338] yes=1,no=2,missing=2
	1:[f40<14786.000000] yes=3,no=4,missing=4
		3:[f11<0.500000] yes=7,no=8,missing=8
			7:[f9<0.081745] yes=15,no=16,missing=16
				15:[f39<0.086170] yes=31,no=32,missing=32
					31:leaf=-0.006981 
					32:leaf=0.009318 
				16:[f43<-0.467911] yes=33,no=34,missing=34
					33:leaf=0.000225 
					34:leaf=-0.025138 
			8:[f12<0.053343] yes=17,no=18,missing=18
				17:[f5<0.779638] yes=35,no=36,missing=36
					35:leaf=-0.022785 
					36:leaf=0.010121 
				18:[f43<-1.119651] yes=37,no=38,missing=38
					37:leaf=0.016356 
					38:leaf=-0.001984 
		4:[f43<-1.104936] yes=9,no=10,missing=10
			9:[f5<-0.014709] yes=19,no=20,missing=20
				19:[f5<-0.471016] yes=39,no=40,missing=40
					39:leaf=-0.080971 
					40:leaf=0.010717 
				20:[f6<-0.348086] yes=41,no=42,missing=42
					41:leaf=-0.086789 
					42:leaf=-0.043403 
			10:[f43<0.480988] yes=21,no=22,missing=22
				21:[f7<-1.725222] yes=43,no=44,missing=44
					43:leaf=-0.019170 
					44:leaf=0.011645 
				22:[f43<0.961180] yes=45,no=46,missing=46
					45:leaf=-0.005399 
					46:leaf=-0.027099 
	2:[f27<0.081301] yes=5,no=6,missing=6
		5:[f1<1.784312] yes=11,no=12,missing=12
			11:[f16<4264.000000] yes=23,no=24,missing=24
				23:[f2<-0.334300] yes=47,no=48,missing=48
					47:leaf=0.007975 
					48:leaf=0.031278 
				24:[f2<1.175523] yes=49,no=50,missing=50
					49:leaf=0.011891 
					50:leaf=-0.047950 
			12:[f43<1.796311] yes=25,no=26,missing=26
				25:[f7<0.637022] yes=51,no=52,missing=52
					51:leaf=-0.058200 
					52:leaf=0.124710 
				26:[f6<-0.348086] yes=53,no=54,missing=54
					53:leaf=-0.026341 
					54:leaf=-0.113488 
		6:[f31<3007.500000] yes=13,no=14,missing=14
			13:[f15<0.048427] yes=27,no=28,missing=28
				27:[f16<2925.500000] yes=55,no=56,missing=56
					55:leaf=0.131956 
					56:leaf=-0.108926 
				28:[f8<-0.382015] yes=57,no=58,missing=58
					57:leaf=0.066802 
					58:leaf=-0.027429 
			14:[f14<117.000000] yes=29,no=30,missing=30
				29:[f40<14786.000000] yes=59,no=60,missing=60
					59:leaf=-0.150708 
					60:leaf=0.009841 
				30:[f11<0.500000] yes=61,no=62,missing=62
					61:leaf=-0.063372 
					62:leaf=-0.016548 
booster[40]
0:[f28<7846.000000] yes=1,no=2,missing=2
	1:[f1<-0.356820] yes=3,no=4,missing=4
		3:[f37<7846.000000] yes=7,no=8,missing=8
			7:[f43<-0.423229] yes=15,no=16,missing=16
				15:[f4<-0.492522] yes=31,no=32,missing=32
					31:leaf=0.014610 
					32:leaf=-0.059011 
				16:[f4<4.772569] yes=33,no=34,missing=34
					33:leaf=0.013928 
					34:leaf=-0.202618 
			8:[f2<2.992244] yes=17,no=18,missing=18
				17:[f40<7846.000000] yes=35,no=36,missing=36
					35:leaf=-0.007972 
					36:leaf=0.026764 
				18:[f8<-0.530371] yes=37,no=38,missing=38
					37:leaf=0.022064 
					38:leaf=-0.241532 
		4:[f21<0.081288] yes=9,no=10,missing=10
			9:[f14<2285.000000] yes=19,no=20,missing=20
				19:[f43<0.993838] yes=39,no=40,missing=40
					39:leaf=-0.039696 
					40:leaf=0.011074 
				20:[f3<1.211768] yes=41,no=42,missing=42
					41:leaf=0.049739 
					42:leaf=-0.052594 
			10:[f12<0.633333] yes=21,no=22,missing=22
				21:[f17<22155.500000] yes=43,no=44,missing=44
					43:leaf=0.039035 
					44:leaf=0.005588 
				22:[f33<0.075736] yes=45,no=46,missing=46
					45:leaf=-0.067411 
					46:leaf=0.075859 
	2:[f18<0.093903] yes=5,no=6,missing=6
		5:[f8<-0.394916] yes=11,no=12,missing=12
			11:[f31<3007.500000] yes=23,no=24,missing=24
				23:[f34<5226.000000] yes=47,no=48,missing=48
					47:leaf=-0.002717 
					48:leaf=0.023299 
				24:[f14<6550.000000] yes=49,no=50,missing=50
					49:leaf=-0.001007 
					50:leaf=-0.035374 
			12:[f3<0.667295] yes=25,no=26,missing=26
				25:[f12<0.051957] yes=51,no=52,missing=52
					51:leaf=-0.012643 
					52:leaf=0.004241 
				26:[f31<2254.500000] yes=53,no=54,missing=54
					53:leaf=-0.023528 
					54:leaf=0.002838 
		6:[f4<4.655566] yes=13,no=14,missing=14
			13:[f36<0.083242] yes=27,no=28,missing=28
				27:[f40<7846.000000] yes=55,no=56,missing=56
					55:leaf=-0.020242 
					56:leaf=0.002139 
				28:[f8<0.688724] yes=57,no=58,missing=58
					57:leaf=0.016440 
					58:leaf=-0.019555 
			14:[f3<-1.714777] yes=29,no=30,missing=30
				29:leaf=-0.159578 
				30:[f43<-1.472796] yes=59,no=60,missing=60
					59:leaf=-0.125209 
					60:leaf=0.038802 
booster[41]
0:[f13<150.500000] yes=1,no=2,missing=2
	1:[f13<136.000000] yes=3,no=4,missing=4
		3:[f9<-0.107189] yes=7,no=8,missing=8
			7:[f37<7846.000000] yes=15,no=16,missing=16
				15:[f2<-0.366027] yes=31,no=32,missing=32
					31:leaf=-0.022044 
					32:leaf=-0.002447 
				16:[f43<0.943953] yes=33,no=34,missing=34
					33:leaf=0.003165 
					34:leaf=0.023767 
			8:[f15<0.045924] yes=17,no=18,missing=18
				17:[f14<35.500000] yes=35,no=36,missing=36
					35:leaf=-0.004599 
					36:leaf=-0.023336 
				18:[f14<10.500000] yes=37,no=38,missing=38
					37:leaf=-0.024608 
					38:leaf=-0.000642 
		4:[f2<-0.153134] yes=9,no=10,missing=10
			9:[f2<-0.159385] yes=19,no=20,missing=20
				19:[f6<0.622942] yes=39,no=40,missing=40
					39:leaf=-0.008223 
					40:leaf=-0.087727 
				20:[f1<-0.433289] yes=41,no=42,missing=42
					41:leaf=0.059054 
					42:leaf=0.151231 
			10:[f43<-0.423768] yes=21,no=22,missing=22
				21:[f3<0.976401] yes=43,no=44,missing=44
					43:leaf=-0.068348 
					44:leaf=0.068918 
				22:[f37<7846.000000] yes=45,no=46,missing=46
					45:leaf=-0.045541 
					46:leaf=-0.117587 
	2:[f1<0.101994] yes=5,no=6,missing=6
		5:[f37<7846.000000] yes=11,no=12,missing=12
			11:[f2<-0.282484] yes=23,no=24,missing=24
				23:[f8<-0.278811] yes=47,no=48,missing=48
					47:leaf=-0.012206 
					48:leaf=-0.061477 
				24:[f2<0.276905] yes=49,no=50,missing=50
					49:leaf=0.000293 
					50:leaf=0.029216 
			12:[f40<7846.000000] yes=25,no=26,missing=26
				25:[f43<-0.162497] yes=51,no=52,missing=52
					51:leaf=-0.042889 
					52:leaf=0.008652 
				26:[f14<8205.000000] yes=53,no=54,missing=54
					53:leaf=0.020721 
					54:leaf=-0.009841 
		6:[f12<0.030777] yes=13,no=14,missing=14
			13:[f11<16.500000] yes=27,no=28,missing=28
				27:[f9<-0.428785] yes=55,no=56,missing=56
					55:leaf=-0.105310 
					56:leaf=-0.010701 
				28:[f8<-0.536821] yes=57,no=58,missing=58
					57:leaf=0.121189 
					58:leaf=-0.066247 
			14:[f15<0.086799] yes=29,no=30,missing=30
				29:[f3<-1.654608] yes=59,no=60,missing=60
					59:leaf=-0.123127 
					60:leaf=0.034835 
				30:[f11<79.500000] yes=61,no=62,missing=62
					61:leaf=-0.004174 
					62:leaf=0.092494 
booster[42]
0:[f43<1.662805] yes=1,no=2,missing=2
	1:[f40<14786.000000] yes=3,no=4,missing=4
		3:[f11<0.500000] yes=7,no=8,missing=8
			7:[f2<0.311474] yes=15,no=16,missing=16
				15:[f43<0.788196] yes=31,no=32,missing=32
					31:leaf=-0.000684 
					32:leaf=0.016318 
				16:[f39<0.072279] yes=33,no=34,missing=34
					33:leaf=0.013340 
					34:leaf=-0.024391 
			8:[f12<0.053343] yes=17,no=18,missing=18
				17:[f5<0.702181] yes=35,no=36,missing=36
					35:leaf=-0.020660 
					36:leaf=0.010475 
				18:[f43<1.296201] yes=37,no=38,missing=38
					37:leaf=0.002211 
					38:leaf=-0.039656 
		4:[f43<-1.086633] yes=9,no=10,missing=10
			9:[f5<-0.014709] yes=19,no=20,missing=20
				19:[f5<-0.471016] yes=39,no=40,missing=40
					39:leaf=-0.068579 
					40:leaf=0.009172 
				20:[f6<0.605454] yes=41,no=42,missing=42
					41:leaf=-0.074232 
					42:leaf=-0.017691 
			10:[f43<0.480629] yes=21,no=22,missing=22
				21:[f10<3.500000] yes=43,no=44,missing=44
					43:leaf=0.008394 
					44:leaf=0.056457 
				22:[f3<-1.644096] yes=45,no=46,missing=46
					45:leaf=-0.056590 
					46:leaf=-0.008451 
	2:[f42<0.083810] yes=5,no=6,missing=6
		5:[f31<3007.500000] yes=11,no=12,missing=12
			11:[f15<0.048427] yes=23,no=24,missing=24
				23:[f2<-0.409436] yes=47,no=48,missing=48
					47:leaf=0.115733 
					48:leaf=-0.117358 
				24:[f11<8.500000] yes=49,no=50,missing=50
					49:leaf=0.052124 
					50:leaf=-0.198679 
			12:[f11<1.500000] yes=25,no=26,missing=26
				25:[f15<0.124647] yes=51,no=52,missing=52
					51:leaf=-0.045170 
					52:leaf=0.032984 
				26:[f15<0.045308] yes=53,no=54,missing=54
					53:leaf=-0.063426 
					54:leaf=0.009645 
		6:[f1<1.784312] yes=13,no=14,missing=14
			13:[f2<-0.441397] yes=27,no=28,missing=28
				27:[f15<0.128357] yes=55,no=56,missing=56
					55:leaf=-0.074718 
					56:leaf=0.029165 
				28:[f2<1.236389] yes=57,no=58,missing=58
					57:leaf=0.015888 
					58:leaf=-0.029357 
			14:[f43<1.796311] yes=29,no=30,missing=30
				29:[f7<0.637022] yes=59,no=60,missing=60
					59:leaf=-0.054938 
					60:leaf=0.131160 
				30:[f1<7.041556] yes=61,no=62,missing=62
					61:leaf=-0.097538 
					62:leaf=0.072640 
booster[43]
0:[f15<0.045352] yes=1,no=2,missing=2
	1:[f14<67.500000] yes=3,no=4,missing=4
		3:[f2<-0.453177] yes=7,no=8,missing=8
			7:[f3<-2.230607] yes=15,no=16,missing=16
				15:leaf=0.167904 
				16:[f4<-0.141516] yes=31,no=32,missing=32
					31:leaf=-0.151312 
					32:leaf=-0.045161 
			8:[f3<-2.207968] yes=17,no=18,missing=18
				17:[f9<0.213988] yes=33,no=34,missing=34
					33:leaf=-0.151271 
					34:leaf=0.011683 
				18:[f2<-0.205949] yes=35,no=36,missing=36
					35:leaf=0.006950 
					36:leaf=-0.005394 
		4:[f13<6.500000] yes=9,no=10,missing=10
			9:[f14<147.500000] yes=19,no=20,missing=20
				19:[f43<1.895005] yes=37,no=38,missing=38
					37:leaf=-0.024002 
					38:leaf=0.015770 
				20:[f43<1.989752] yes=39,no=40,missing=40
					39:leaf=-0.059488 
					40:leaf=0.028463 
			10:[f1<-0.242116] yes=21,no=22,missing=22
				21:[f14<544.500000] yes=41,no=42,missing=42
					41:leaf=-0.004756 
					42:leaf=-0.062066 
				22:[f15<0.030768] yes=43,no=44,missing=44
					43:leaf=0.052607 
					44:leaf=0.000095 
	2:[f6<-0.593126] yes=5,no=6,missing=6
		5:[f8<-0.543271] yes=11,no=12,missing=12
			11:[f5<-1.891186] yes=23,no=24,missing=24
				23:leaf=-0.183925 
				24:[f15<0.264912] yes=45,no=46,missing=46
					45:leaf=0.035614 
					46:leaf=-0.223678 
			12:[f43<-1.292275] yes=25,no=26,missing=26
				25:[f40<14786.000000] yes=47,no=48,missing=48
					47:leaf=0.000577 
					48:leaf=-0.045652 
				26:[f8<2.481889] yes=49,no=50,missing=50
					49:leaf=-0.003041 
					50:leaf=-0.028300 
		6:[f3<1.337094] yes=13,no=14,missing=14
			13:[f43<-0.047653] yes=27,no=28,missing=28
				27:[f40<14786.000000] yes=51,no=52,missing=52
					51:leaf=-0.006636 
					52:leaf=0.004522 
				28:[f31<9293.500000] yes=53,no=54,missing=54
					53:leaf=0.002535 
					54:leaf=0.013537 
			14:[f40<14786.000000] yes=29,no=30,missing=30
				29:[f18<0.078500] yes=55,no=56,missing=56
					55:leaf=-0.006546 
					56:leaf=0.012099 
				30:[f12<0.031754] yes=57,no=58,missing=58
					57:leaf=0.016511 
					58:leaf=0.044643 
booster[44]
0:[f7<-0.689272] yes=1,no=2,missing=2
	1:[f6<-0.536514] yes=3,no=4,missing=4
		3:[f43<-1.334624] yes=7,no=8,missing=8
			7:[f7<-1.567925] yes=15,no=16,missing=16
				15:[f31<2254.500000] yes=31,no=32,missing=32
					31:leaf=0.033860 
					32:leaf=-0.129661 
				16:[f6<-3.283179] yes=33,no=34,missing=34
					33:leaf=0.190219 
					34:leaf=-0.035720 
			8:[f18<0.075194] yes=17,no=18,missing=18
				17:[f13<79.500000] yes=35,no=36,missing=36
					35:leaf=-0.033329 
					36:leaf=-0.002220 
				18:[f15<0.207532] yes=37,no=38,missing=38
					37:leaf=-0.004192 
					38:leaf=-0.073090 
		4:[f28<7846.000000] yes=9,no=10,missing=10
			9:[f43<-1.012522] yes=19,no=20,missing=20
				19:[f6<0.246983] yes=39,no=40,missing=40
					39:leaf=-0.120650 
					40:leaf=0.015307 
				20:[f31<3821.500000] yes=41,no=42,missing=42
					41:leaf=-0.028544 
					42:leaf=0.029403 
			10:[f34<5226.000000] yes=21,no=22,missing=22
				21:[f7<-1.026605] yes=43,no=44,missing=44
					43:leaf=-0.012360 
					44:leaf=0.000021 
				22:[f31<3821.500000] yes=45,no=46,missing=46
					45:leaf=0.017866 
					46:leaf=-0.006909 
	2:[f18<0.093903] yes=5,no=6,missing=6
		5:[f8<5.710231] yes=11,no=12,missing=12
			11:[f9<-0.427403] yes=23,no=24,missing=24
				23:[f37<7846.000000] yes=47,no=48,missing=48
					47:leaf=-0.057509 
					48:leaf=-0.010226 
				24:[f15<0.047257] yes=49,no=50,missing=50
					49:leaf=-0.005786 
					50:leaf=0.002667 
			12:[f4<-0.492522] yes=25,no=26,missing=26
				25:[f5<1.660694] yes=51,no=52,missing=52
					51:leaf=-0.105783 
					52:leaf=0.024907 
				26:[f5<-0.408129] yes=53,no=54,missing=54
					53:leaf=0.095981 
					54:leaf=-0.036881 
		6:[f1<-0.280351] yes=13,no=14,missing=14
			13:[f4<3.368545] yes=27,no=28,missing=28
				27:[f9<0.370159] yes=55,no=56,missing=56
					55:leaf=0.011626 
					56:leaf=-0.013469 
				28:[f9<0.414920] yes=57,no=58,missing=58
					57:leaf=0.038468 
					58:leaf=-0.038998 
			14:[f15<0.141701] yes=29,no=30,missing=30
				29:[f2<-0.448276] yes=59,no=60,missing=60
					59:leaf=-0.080267 
					60:leaf=-0.002385 
				30:[f34<3654.000000] yes=61,no=62,missing=62
					61:leaf=0.042959 
					62:leaf=0.004327 
booster[45]
0:[f13<150.500000] yes=1,no=2,missing=2
	1:[f14<1204.000000] yes=3,no=4,missing=4
		3:[f9<-0.107189] yes=7,no=8,missing=8
			7:[f37<7846.000000] yes=15,no=16,missing=16
				15:[f2<-0.368148] yes=31,no=32,missing=32
					31:leaf=-0.020099 
					32:leaf=-0.001293 
				16:[f43<0.943953] yes=33,no=34,missing=34
					33:leaf=0.003657 
					34:leaf=0.020411 
			8:[f13<47.500000] yes=17,no=18,missing=18
				17:[f14<411.500000] yes=35,no=36,missing=36
					35:leaf=-0.005142 
					36:leaf=-0.034864 
				18:[f33<0.086903] yes=37,no=38,missing=38
					37:leaf=0.019558 
					38:leaf=-0.002575 
		4:[f13<111.500000] yes=9,no=10,missing=10
			9:[f14<1286.500000] yes=19,no=20,missing=20
				19:[f16<2928.500000] yes=39,no=40,missing=40
					39:leaf=0.019084 
					40:leaf=-0.051086 
				20:[f43<-1.271281] yes=41,no=42,missing=42
					41:leaf=-0.071143 
					42:leaf=-0.000139 
			10:[f2<-0.057725] yes=21,no=22,missing=22
				21:[f5<1.682797] yes=43,no=44,missing=44
					43:leaf=-0.030335 
					44:leaf=0.056004 
				22:[f4<-0.492522] yes=45,no=46,missing=46
					45:leaf=-0.024704 
					46:leaf=-0.092263 
	2:[f40<7846.000000] yes=5,no=6,missing=6
		5:[f5<-0.193083] yes=11,no=12,missing=12
			11:[f6<-1.931305] yes=23,no=24,missing=24
				23:leaf=-0.180366 
				24:[f43<-0.157293] yes=49,no=50,missing=50
					49:leaf=-0.065176 
					50:leaf=-0.010979 
			12:[f43<-1.591229] yes=25,no=26,missing=26
				25:[f9<0.328878] yes=51,no=52,missing=52
					51:leaf=0.047118 
					52:leaf=0.212342 
				26:[f4<0.326492] yes=53,no=54,missing=54
					53:leaf=-0.021829 
					54:leaf=0.012945 
		6:[f37<7846.000000] yes=13,no=14,missing=14
			13:[f31<3007.500000] yes=27,no=28,missing=28
				27:[f4<1.028504] yes=55,no=56,missing=56
					55:leaf=0.041605 
					56:leaf=-0.117745 
				28:[f9<0.021678] yes=57,no=58,missing=58
					57:leaf=-0.012318 
					58:leaf=0.010525 
			14:[f11<2.500000] yes=29,no=30,missing=30
				29:[f25<7846.000000] yes=59,no=60,missing=60
					59:leaf=0.062399 
					60:leaf=0.017051 
				30:[f12<0.085145] yes=61,no=62,missing=62
					61:leaf=-0.008210 
					62:leaf=0.013074 
booster[46]
0:[f15<0.166712] yes=1,no=2,missing=2
	1:[f28<1772.500000] yes=3,no=4,missing=4
		3:[f5<-0.133033] yes=7,no=8,missing=8
			7:[f43<0.517236] yes=15,no=16,missing=16
				15:[f5<-0.223335] yes=31,no=32,missing=32
					31:leaf=0.017748 
					32:leaf=0.043749 
				16:[f1<-0.127413] yes=33,no=34,missing=34
					33:leaf=0.009324 
					34:leaf=-0.090037 
			8:[f1<2.262244] yes=17,no=18,missing=18
				17:[f11<8.500000] yes=35,no=36,missing=36
					35:leaf=0.003340 
					36:leaf=-0.091309 
				18:[f11<2.000000] yes=37,no=38,missing=38
					37:leaf=-0.101575 
					38:leaf=0.079657 
		4:[f10<1.500000] yes=9,no=10,missing=10
			9:[f8<2.527040] yes=19,no=20,missing=20
				19:[f1<0.981388] yes=39,no=40,missing=40
					39:leaf=-0.000784 
					40:leaf=-0.015278 
				20:[f43<-1.008754] yes=41,no=42,missing=42
					41:leaf=-0.048971 
					42:leaf=-0.015969 
			10:[f22<15082.000000] yes=21,no=22,missing=22
				21:[f1<-0.012709] yes=43,no=44,missing=44
					43:leaf=0.037150 
					44:leaf=-0.008129 
				22:[f11<46.500000] yes=45,no=46,missing=46
					45:leaf=0.015833 
					46:leaf=0.064218 
	2:[f14<12.500000] yes=5,no=6,missing=6
		5:[f36<0.080053] yes=11,no=12,missing=12
			11:[f31<1310.500000] yes=23,no=24,missing=24
				23:[f43<1.959425] yes=47,no=48,missing=48
					47:leaf=-0.159996 
					48:leaf=0.016542 
				24:[f19<7846.000000] yes=49,no=50,missing=50
					49:leaf=-0.141578 
					50:leaf=-0.012487 
			12:[f6<-1.981277] yes=25,no=26,missing=26
				25:[f3<1.151708] yes=51,no=52,missing=52
					51:leaf=-0.192125 
					52:leaf=0.047395 
				26:[f3<1.349160] yes=53,no=54,missing=54
					53:leaf=0.004697 
					54:leaf=0.046407 
		6:[f9<-0.298563] yes=13,no=14,missing=14
