booster[0]
0:[f15<0.092515] yes=1,no=2,missing=2
	1:[f28<7846.000000] yes=3,no=4,missing=4
		3:[f1<0.025525] yes=7,no=8,missing=8
			7:[f1<-0.280351] yes=15,no=16,missing=16
				15:[f2<-0.299386] yes=31,no=32,missing=32
					31:leaf=0.049914 
					32:leaf=0.093131 
				16:[f15<0.046725] yes=33,no=34,missing=34
					33:leaf=-0.060000 
					34:leaf=0.050195 
			8:[f21<0.081288] yes=17,no=18,missing=18
				17:[f13<103.000000] yes=35,no=36,missing=36
					35:leaf=-0.164116 
					36:leaf=-0.079070 
				18:[f14<46.000000] yes=37,no=38,missing=38
					37:leaf=-0.151852 
					38:leaf=-0.002811 
		4:[f40<1.677160] yes=9,no=10,missing=10
			9:[f12<0.084524] yes=19,no=20,missing=20
				19:[f1<-0.127413] yes=39,no=40,missing=40
					39:leaf=-0.027886 
					40:leaf=-0.077271 
				20:[f2<-0.377215] yes=41,no=42,missing=42
					41:leaf=-0.024675 
					42:leaf=0.036309 
			10:[f39<0.083810] yes=21,no=22,missing=22
				21:[f12<0.193750] yes=43,no=44,missing=44
					43:leaf=-0.055027 
					44:leaf=0.085977 
				22:[f1<0.101994] yes=45,no=46,missing=46
					45:leaf=0.038085 
					46:leaf=-0.039361 
	2:[f28<7846.000000] yes=5,no=6,missing=6
		5:[f1<-0.127413] yes=11,no=12,missing=12
			11:[f40<-1.273613] yes=23,no=24,missing=24
				23:[f5<-0.014709] yes=47,no=48,missing=48
					47:leaf=0.068037 
					48:leaf=-0.083196 
				24:[f9<-0.337268] yes=49,no=50,missing=50
					49:leaf=0.070604 
					50:leaf=0.114419 
			12:[f40<-1.059896] yes=25,no=26,missing=26
				25:[f33<0.078822] yes=51,no=52,missing=52
					51:leaf=-0.185000 
					52:leaf=-0.045006 
				26:[f9<-0.003747] yes=53,no=54,missing=54
					53:leaf=0.026151 
					54:leaf=0.090304 
		6:[f12<0.152395] yes=13,no=14,missing=14
			13:[f40<-1.117138] yes=27,no=28,missing=28
				27:[f5<-0.103232] yes=55,no=56,missing=56
					55:leaf=-0.014619 
					56:leaf=-0.132057 
				28:[f1<-0.012709] yes=57,no=58,missing=58
					57:leaf=0.027922 
					58:leaf=-0.017155 
			14:[f40<-0.955280] yes=29,no=30,missing=30
				29:[f5<-0.103232] yes=59,no=60,missing=60
					59:leaf=0.050475 
					60:leaf=-0.056200 
				30:[f37<14786.000000] yes=61,no=62,missing=62
					61:leaf=0.063271 
					62:leaf=0.096601 
booster[1]
0:[f15<0.079240] yes=1,no=2,missing=2
	1:[f1<-0.050944] yes=3,no=4,missing=4
		3:[f28<7846.000000] yes=7,no=8,missing=8
			7:[f1<-0.280351] yes=15,no=16,missing=16
				15:[f2<0.604027] yes=31,no=32,missing=32
					31:leaf=0.076075 
					32:leaf=-0.097315 
				16:[f14<468.500000] yes=33,no=34,missing=34
					33:leaf=-0.047002 
					34:leaf=0.056261 
			8:[f40<1.713767] yes=17,no=18,missing=18
				17:[f12<0.190909] yes=35,no=36,missing=36
					35:leaf=-0.030251 
					36:leaf=0.043741 
				18:[f39<0.083810] yes=37,no=38,missing=38
					37:leaf=-0.053888 
					38:leaf=0.034772 
		4:[f12<0.084524] yes=9,no=10,missing=10
			9:[f40<-0.884579] yes=19,no=20,missing=20
				19:[f5<-0.376931] yes=39,no=40,missing=40
					39:leaf=-0.163980 
					40:leaf=-0.093674 
				20:[f2<-0.111587] yes=41,no=42,missing=42
					41:leaf=-0.049185 
					42:leaf=-0.082067 
			10:[f33<0.080053] yes=21,no=22,missing=22
				21:[f15<0.012270] yes=43,no=44,missing=44
					43:leaf=0.089252 
					44:leaf=-0.030593 
				22:[f1<3.026934] yes=45,no=46,missing=46
					45:leaf=0.022578 
					46:leaf=0.126633 
	2:[f28<7846.000000] yes=5,no=6,missing=6
		5:[f1<-0.203882] yes=11,no=12,missing=12
			11:[f40<-1.284021] yes=23,no=24,missing=24
				23:[f5<-0.133033] yes=47,no=48,missing=48
					47:leaf=0.060031 
					48:leaf=-0.065218 
				24:[f9<-0.337268] yes=49,no=50,missing=50
					49:leaf=0.062764 
					50:leaf=0.100465 
			12:[f40<-1.007139] yes=25,no=26,missing=26
				25:[f11<8.500000] yes=51,no=52,missing=52
					51:leaf=-0.018112 
					52:leaf=-0.124643 
				26:[f2<-0.308509] yes=53,no=54,missing=54
					53:leaf=-0.018203 
					54:leaf=0.057521 
		6:[f12<0.101724] yes=13,no=14,missing=14
			13:[f1<-0.012709] yes=27,no=28,missing=28
				27:[f13<189.500000] yes=55,no=56,missing=56
					55:leaf=0.005231 
					56:leaf=0.044789 
				28:[f40<-1.058640] yes=57,no=58,missing=58
					57:leaf=-0.076367 
					58:leaf=-0.026783 
			14:[f37<14786.000000] yes=29,no=30,missing=30
				29:[f12<0.267742] yes=59,no=60,missing=60
					59:leaf=0.013737 
					60:leaf=0.057228 
				30:[f40<-1.388278] yes=61,no=62,missing=62
					61:leaf=-0.016750 
					62:leaf=0.081266 
booster[2]
0:[f15<0.089075] yes=1,no=2,missing=2
	1:[f1<-0.050944] yes=3,no=4,missing=4
		3:[f28<7846.000000] yes=7,no=8,missing=8
			7:[f1<-0.242116] yes=15,no=16,missing=16
				15:[f18<0.075194] yes=31,no=32,missing=32
					31:leaf=0.034077 
					32:leaf=0.074716 
				16:[f13<42.000000] yes=33,no=34,missing=34
					33:leaf=-0.065499 
					34:leaf=0.048157 
			8:[f40<1.713767] yes=17,no=18,missing=18
				17:[f3<0.166459] yes=35,no=36,missing=36
					35:leaf=-0.035411 
					36:leaf=-0.006872 
				18:[f39<0.083810] yes=37,no=38,missing=38
					37:leaf=-0.043139 
					38:leaf=0.032575 
		4:[f12<0.084524] yes=9,no=10,missing=10
			9:[f41<0.116053] yes=19,no=20,missing=20
				19:[f1<0.446105] yes=39,no=40,missing=40
					39:leaf=-0.068897 
					40:leaf=-0.100880 
				20:[f1<0.407870] yes=41,no=42,missing=42
					41:leaf=-0.020995 
					42:leaf=-0.063531 
			10:[f11<33.500000] yes=21,no=22,missing=22
				21:[f13<161.000000] yes=43,no=44,missing=44
					43:leaf=-0.012357 
					44:leaf=0.038117 
				22:[f1<4.365141] yes=45,no=46,missing=46
					45:leaf=0.088222 
					46:leaf=-0.100162 
	2:[f28<7846.000000] yes=5,no=6,missing=6
		5:[f1<-0.050944] yes=11,no=12,missing=12
			11:[f40<-1.036389] yes=23,no=24,missing=24
				23:[f5<-0.133033] yes=47,no=48,missing=48
					47:leaf=0.055546 
					48:leaf=-0.053309 
				24:[f9<-0.319569] yes=49,no=50,missing=50
					49:leaf=0.058006 
					50:leaf=0.094315 
			12:[f40<-0.519590] yes=25,no=26,missing=26
				25:[f17<22155.500000] yes=51,no=52,missing=52
					51:leaf=0.084099 
					52:leaf=-0.041055 
				26:[f8<1.620783] yes=53,no=54,missing=54
					53:leaf=0.042934 
					54:leaf=-0.147271 
		6:[f12<0.152395] yes=13,no=14,missing=14
			13:[f40<-1.117138] yes=27,no=28,missing=28
				27:[f5<-0.133033] yes=55,no=56,missing=56
					55:leaf=-0.014596 
					56:leaf=-0.118202 
				28:[f1<-0.203882] yes=57,no=58,missing=58
					57:leaf=0.024785 
					58:leaf=-0.010180 
			14:[f9<-0.386243] yes=29,no=30,missing=30
				29:[f6<-0.771268] yes=59,no=60,missing=60
					59:leaf=-0.044887 
					60:leaf=0.026172 
				30:[f37<14786.000000] yes=61,no=62,missing=62
					61:leaf=0.049000 
					62:leaf=0.078530 
booster[3]
0:[f15<0.082088] yes=1,no=2,missing=2
	1:[f1<-0.127413] yes=3,no=4,missing=4
		3:[f28<7846.000000] yes=7,no=8,missing=8
			7:[f3<-1.772353] yes=15,no=16,missing=16
				15:[f6<0.525124] yes=31,no=32,missing=32
					31:leaf=-0.208530 
					32:leaf=-0.008753 
				16:[f2<-0.414940] yes=33,no=34,missing=34
					33:leaf=-0.025618 
					34:leaf=0.061084 
			8:[f40<1.713767] yes=17,no=18,missing=18
				17:[f18<0.075194] yes=35,no=36,missing=36
					35:leaf=-0.038672 
					36:leaf=-0.012341 
				18:[f25<15537.000000] yes=37,no=38,missing=38
					37:leaf=0.029528 
					38:leaf=-0.046452 
		4:[f12<0.084524] yes=9,no=10,missing=10
			9:[f40<-1.078020] yes=19,no=20,missing=20
				19:[f5<-0.133033] yes=39,no=40,missing=40
					39:leaf=-0.077696 
					40:leaf=-0.127584 
				20:[f11<0.500000] yes=41,no=42,missing=42
					41:leaf=-0.019414 
					42:leaf=-0.059681 
			10:[f33<0.080053] yes=21,no=22,missing=22
				21:[f15<0.011306] yes=43,no=44,missing=44
					43:leaf=0.086194 
					44:leaf=-0.020152 
				22:[f1<3.026934] yes=45,no=46,missing=46
					45:leaf=0.022901 
					46:leaf=0.105456 
	2:[f28<7846.000000] yes=5,no=6,missing=6
		5:[f1<-0.203882] yes=11,no=12,missing=12
			11:[f34<7846.000000] yes=23,no=24,missing=24
				23:[f12<0.291667] yes=47,no=48,missing=48
					47:leaf=0.043148 
					48:leaf=0.114530 
				24:[f3<-0.524943] yes=49,no=50,missing=50
					49:leaf=0.055649 
					50:leaf=0.087130 
			12:[f40<-1.007139] yes=25,no=26,missing=26
				25:[f15<0.152403] yes=51,no=52,missing=52
					51:leaf=-0.072853 
					52:leaf=0.021564 
				26:[f37<14786.000000] yes=53,no=54,missing=54
					53:leaf=0.009401 
					54:leaf=0.062950 
		6:[f12<0.101724] yes=13,no=14,missing=14
			13:[f1<-0.012709] yes=27,no=28,missing=28
				27:[f13<189.500000] yes=55,no=56,missing=56
					55:leaf=0.003998 
					56:leaf=0.039139 
				28:[f2<-0.426258] yes=57,no=58,missing=58
					57:leaf=-0.097253 
					58:leaf=-0.023925 
			14:[f37<14786.000000] yes=29,no=30,missing=30
				29:[f12<0.262014] yes=59,no=60,missing=60
					59:leaf=0.008223 
					60:leaf=0.049667 
				30:[f40<-1.522143] yes=61,no=62,missing=62
					61:leaf=-0.068058 
					62:leaf=0.068084 
booster[4]
0:[f15<0.092515] yes=1,no=2,missing=2
	1:[f3<0.055484] yes=3,no=4,missing=4
		3:[f12<0.169540] yes=7,no=8,missing=8
			7:[f1<-0.280351] yes=15,no=16,missing=16
				15:[f40<1.887469] yes=31,no=32,missing=32
					31:leaf=-0.026032 
					32:leaf=0.023330 
				16:[f12<0.079474] yes=33,no=34,missing=34
					33:leaf=-0.054234 
					34:leaf=-0.007002 
			8:[f9<-0.420352] yes=17,no=18,missing=18
				17:[f4<-0.258518] yes=35,no=36,missing=36
					35:leaf=-0.009858 
					36:leaf=-0.152183 
				18:[f40<0.376193] yes=37,no=38,missing=38
					37:leaf=0.021235 
					38:leaf=0.060365 
		4:[f28<7846.000000] yes=9,no=10,missing=10
			9:[f1<0.025525] yes=19,no=20,missing=20
				19:[f2<-0.420377] yes=39,no=40,missing=40
					39:leaf=-0.065266 
					40:leaf=0.060835 
				20:[f21<0.081288] yes=41,no=42,missing=42
					41:leaf=-0.097855 
					42:leaf=0.006908 
			10:[f9<0.317226] yes=21,no=22,missing=22
				21:[f40<-1.066176] yes=43,no=44,missing=44
					43:leaf=-0.033916 
					44:leaf=0.005311 
				22:[f12<0.078462] yes=45,no=46,missing=46
					45:leaf=-0.041938 
					46:leaf=0.026670 
	2:[f40<-1.054333] yes=5,no=6,missing=6
		5:[f5<-0.014709] yes=11,no=12,missing=12
			11:[f5<-0.598806] yes=23,no=24,missing=24
				23:[f40<-1.122522] yes=47,no=48,missing=48
					47:leaf=-0.130191 
					48:leaf=0.014881 
				24:[f2<-0.424988] yes=49,no=50,missing=50
					49:leaf=-0.097701 
					50:leaf=0.011264 
			12:[f7<0.027704] yes=25,no=26,missing=26
				25:[f10<2.500000] yes=51,no=52,missing=52
					51:leaf=-0.129174 
					52:leaf=0.016135 
				26:[f2<0.036353] yes=53,no=54,missing=54
					53:leaf=-0.094657 
					54:leaf=-0.040056 
		6:[f28<7846.000000] yes=13,no=14,missing=14
			13:[f1<0.369636] yes=27,no=28,missing=28
				27:[f9<-0.338001] yes=55,no=56,missing=56
					55:leaf=0.038915 
					56:leaf=0.076543 
				28:[f16<3965.000000] yes=57,no=58,missing=58
					57:leaf=0.057371 
					58:leaf=-0.035229 
			14:[f40<1.711972] yes=29,no=30,missing=30
				29:[f12<0.094494] yes=59,no=60,missing=60
					59:leaf=0.009341 
					60:leaf=0.048308 
				30:[f1<0.790215] yes=61,no=62,missing=62
					61:leaf=0.060250 
					62:leaf=-0.030396 
booster[5]
0:[f15<0.065915] yes=1,no=2,missing=2
	1:[f1<-0.203882] yes=3,no=4,missing=4
		3:[f28<7846.000000] yes=7,no=8,missing=8
			7:[f9<0.462016] yes=15,no=16,missing=16
				15:[f6<-1.695689] yes=31,no=32,missing=32
					31:leaf=-0.049276 
					32:leaf=0.055766 
				16:[f14<5.500000] yes=33,no=34,missing=34
					33:leaf=0.118308 
					34:leaf=-0.082567 
			8:[f2<0.100079] yes=17,no=18,missing=18
				17:[f40<1.789133] yes=35,no=36,missing=36
					35:leaf=-0.012861 
					36:leaf=0.027820 
				18:[f3<0.330691] yes=37,no=38,missing=38
					37:leaf=-0.053484 
					38:leaf=-0.021226 
		4:[f12<0.078462] yes=9,no=10,missing=10
			9:[f11<0.500000] yes=19,no=20,missing=20
				19:[f3<-1.082168] yes=39,no=40,missing=40
					39:leaf=-0.081290 
					40:leaf=-0.012745 
				20:[f21<0.081288] yes=41,no=42,missing=42
					41:leaf=-0.075990 
					42:leaf=-0.044804 
			10:[f11<24.500000] yes=21,no=22,missing=22
				21:[f6<0.963987] yes=43,no=44,missing=44
					43:leaf=-0.009884 
					44:leaf=0.039765 
				22:[f1<4.346024] yes=45,no=46,missing=46
					45:leaf=0.075323 
					46:leaf=-0.051714 
	2:[f28<7846.000000] yes=5,no=6,missing=6
		5:[f1<0.369636] yes=11,no=12,missing=12
			11:[f9<-0.321239] yes=23,no=24,missing=24
				23:[f1<-0.203882] yes=47,no=48,missing=48
					47:leaf=0.037796 
					48:leaf=-0.034945 
				24:[f3<-0.374979] yes=49,no=50,missing=50
					49:leaf=0.041669 
					50:leaf=0.070145 
			12:[f16<3965.000000] yes=25,no=26,missing=26
				25:[f41<0.925792] yes=51,no=52,missing=52
					51:leaf=-0.036969 
					52:leaf=0.061571 
				26:[f8<0.056601] yes=53,no=54,missing=54
					53:leaf=-0.020035 
					54:leaf=-0.122668 
		6:[f40<-1.061152] yes=13,no=14,missing=14
			13:[f5<-0.103232] yes=27,no=28,missing=28
				27:[f5<-0.534570] yes=55,no=56,missing=56
					55:leaf=-0.113946 
					56:leaf=-0.000535 
				28:[f41<4.772055] yes=57,no=58,missing=58
					57:leaf=-0.103279 
					58:leaf=0.140710 
			14:[f12<0.262014] yes=29,no=30,missing=30
				29:[f40<1.689721] yes=59,no=60,missing=60
					59:leaf=0.004040 
					60:leaf=0.040167 
				30:[f9<-0.379961] yes=61,no=62,missing=62
					61:leaf=-0.005243 
					62:leaf=0.059308 
booster[6]
0:[f15<0.112022] yes=1,no=2,missing=2
	1:[f3<0.055484] yes=3,no=4,missing=4
		3:[f12<0.087596] yes=7,no=8,missing=8
			7:[f1<0.025525] yes=15,no=16,missing=16
				15:[f40<-1.315603] yes=31,no=32,missing=32
					31:leaf=-0.071244 
					32:leaf=-0.016671 
				16:[f40<-0.825722] yes=33,no=34,missing=34
					33:leaf=-0.077450 
					34:leaf=-0.045352 
			8:[f12<0.392308] yes=17,no=18,missing=18
				17:[f25<15537.000000] yes=35,no=36,missing=36
					35:leaf=-0.012661 
					36:leaf=0.029392 
				18:[f10<1.500000] yes=37,no=38,missing=38
					37:leaf=0.032885 
					38:leaf=0.070643 
		4:[f18<0.075194] yes=9,no=10,missing=10
			9:[f9<0.483499] yes=19,no=20,missing=20
				19:[f40<-1.108166] yes=39,no=40,missing=40
					39:leaf=-0.051317 
					40:leaf=-0.005259 
				20:[f12<0.025321] yes=41,no=42,missing=42
					41:leaf=-0.067639 
					42:leaf=0.002574 
			10:[f1<-0.165647] yes=21,no=22,missing=22
				21:[f28<7846.000000] yes=43,no=44,missing=44
					43:leaf=0.058494 
					44:leaf=0.014994 
				22:[f12<0.030777] yes=45,no=46,missing=46
					45:leaf=-0.021889 
					46:leaf=0.020866 
	2:[f9<-0.385599] yes=5,no=6,missing=6
		5:[f40<-0.412642] yes=11,no=12,missing=12
			11:[f2<-0.436564] yes=23,no=24,missing=24
				23:[f40<-1.033517] yes=47,no=48,missing=48
					47:leaf=-0.134128 
					48:leaf=-0.062135 
				24:[f6<0.164331] yes=49,no=50,missing=50
					49:leaf=-0.057799 
					50:leaf=-0.003999 
			12:[f34<7846.000000] yes=25,no=26,missing=26
				25:[f6<0.622942] yes=51,no=52,missing=52
					51:leaf=-0.071773 
					52:leaf=0.001489 
				26:[f3<-1.410513] yes=53,no=54,missing=54
					53:leaf=-0.053690 
					54:leaf=0.015689 
		6:[f13<20.500000] yes=13,no=14,missing=14
			13:[f40<-1.048591] yes=27,no=28,missing=28
				27:[f5<-0.103232] yes=55,no=56,missing=56
					55:leaf=-0.014472 
					56:leaf=-0.092161 
				28:[f18<0.078500] yes=57,no=58,missing=58
					57:leaf=-0.004818 
					58:leaf=0.027447 
			14:[f1<0.101994] yes=29,no=30,missing=30
				29:[f40<1.646296] yes=59,no=60,missing=60
					59:leaf=0.040657 
					60:leaf=0.080306 
				30:[f12<0.097619] yes=61,no=62,missing=62
					61:leaf=-0.014746 
					62:leaf=0.043357 
booster[7]
0:[f15<0.065915] yes=1,no=2,missing=2
	1:[f40<-1.066176] yes=3,no=4,missing=4
		3:[f5<-0.133033] yes=7,no=8,missing=8
			7:[f5<-0.408129] yes=15,no=16,missing=16
				15:[f40<-1.235212] yes=31,no=32,missing=32
					31:leaf=-0.132147 
					32:leaf=-0.069305 
				16:[f18<0.082346] yes=33,no=34,missing=34
					33:leaf=-0.033213 
					34:leaf=0.000131 
			8:[f8<-0.588423] yes=17,no=18,missing=18
				17:leaf=0.152923 
				18:[f3<1.859505] yes=37,no=38,missing=38
					37:leaf=-0.126262 
					38:leaf=0.004595 
		4:[f3<-0.494439] yes=9,no=10,missing=10
			9:[f40<1.617585] yes=19,no=20,missing=20
				19:[f12<0.113889] yes=39,no=40,missing=40
					39:leaf=-0.037684 
					40:leaf=0.009934 
				20:[f14<36.500000] yes=41,no=42,missing=42
					41:leaf=0.029542 
					42:leaf=-0.020262 
			10:[f2<0.483080] yes=21,no=22,missing=22
				21:[f1<-0.242116] yes=43,no=44,missing=44
					43:leaf=0.003519 
					44:leaf=-0.020828 
				22:[f12<0.129047] yes=45,no=46,missing=46
					45:leaf=-0.059580 
					46:leaf=0.014753 
	2:[f3<0.314606] yes=5,no=6,missing=6
		5:[f2<-0.405435] yes=11,no=12,missing=12
			11:[f34<7846.000000] yes=23,no=24,missing=24
				23:[f9<-0.439694] yes=47,no=48,missing=48
					47:leaf=-0.128428 
					48:leaf=-0.067352 
				24:[f40<-0.399004] yes=49,no=50,missing=50
					49:leaf=-0.054430 
					50:leaf=-0.009241 
			12:[f18<0.075194] yes=25,no=26,missing=26
				25:[f9<0.311761] yes=51,no=52,missing=52
					51:leaf=-0.007274 
					52:leaf=-0.057026 
				26:[f40<-1.479974] yes=53,no=54,missing=54
					53:leaf=-0.069596 
					54:leaf=0.012923 
		6:[f12<0.277668] yes=13,no=14,missing=14
			13:[f40<-1.306990] yes=27,no=28,missing=28
				27:[f5<-0.014709] yes=55,no=56,missing=56
					55:leaf=-0.002462 
					56:leaf=-0.087221 
				28:[f28<7846.000000] yes=57,no=58,missing=58
					57:leaf=0.051168 
					58:leaf=0.019559 
			14:[f9<-0.411050] yes=29,no=30,missing=30
				29:[f8<0.069501] yes=59,no=60,missing=60
					59:leaf=-0.009640 
					60:leaf=-0.194119 
				30:[f14<95.500000] yes=61,no=62,missing=62
					61:leaf=0.042497 
					62:leaf=0.071921 
booster[8]
0:[f15<0.112022] yes=1,no=2,missing=2
	1:[f3<0.368604] yes=3,no=4,missing=4
		3:[f12<0.084524] yes=7,no=8,missing=8
			7:[f11<2.500000] yes=15,no=16,missing=16
				15:[f40<1.713767] yes=31,no=32,missing=32
					31:leaf=-0.018679 
					32:leaf=0.014582 
				16:[f37<14786.000000] yes=33,no=34,missing=34
					33:leaf=-0.057718 
					34:leaf=-0.027731 
			8:[f37<14786.000000] yes=17,no=18,missing=18
				17:[f40<0.285215] yes=35,no=36,missing=36
					35:leaf=-0.008186 
					36:leaf=0.032886 
				18:[f40<-1.584230] yes=37,no=38,missing=38
					37:leaf=-0.132564 
					38:leaf=0.039026 
		4:[f18<0.075194] yes=9,no=10,missing=10
			9:[f9<0.270475] yes=19,no=20,missing=20
				19:[f40<-1.126469] yes=39,no=40,missing=40
					39:leaf=-0.040104 
					40:leaf=0.000217 
				20:[f12<0.155048] yes=41,no=42,missing=42
					41:leaf=-0.035335 
					42:leaf=0.032395 
			10:[f2<-0.395560] yes=21,no=22,missing=22
				21:[f34<7846.000000] yes=43,no=44,missing=44
					43:leaf=-0.072082 
					44:leaf=-0.012603 
				22:[f40<-1.255310] yes=45,no=46,missing=46
					45:leaf=-0.021776 
					46:leaf=0.020598 
	2:[f40<1.646296] yes=5,no=6,missing=6
		5:[f28<7846.000000] yes=11,no=12,missing=12
			11:[f1<1.363733] yes=23,no=24,missing=24
				23:[f2<-0.329985] yes=47,no=48,missing=48
					47:leaf=0.015449 
					48:leaf=0.057763 
				24:[f4<0.560497] yes=49,no=50,missing=50
					49:leaf=-0.100299 
					50:leaf=0.072439 
			12:[f9<-0.392797] yes=25,no=26,missing=26
				25:[f40<-0.855150] yes=51,no=52,missing=52
					51:leaf=-0.067491 
					52:leaf=-0.013694 
				26:[f13<12.500000] yes=53,no=54,missing=54
					53:leaf=-0.000744 
					54:leaf=0.022216 
		6:[f1<0.446105] yes=13,no=14,missing=14
			13:[f2<0.796270] yes=27,no=28,missing=28
				27:[f36<0.086170] yes=55,no=56,missing=56
					55:leaf=0.043794 
					56:leaf=0.068955 
				28:[f16<1889.000000] yes=57,no=58,missing=58
					57:leaf=0.088883 
					58:leaf=-0.054682 
			14:[f14<1723.500000] yes=29,no=30,missing=30
				29:[f13<7.500000] yes=59,no=60,missing=60
					59:leaf=-0.148327 
					60:leaf=0.026245 
				30:[f40<1.833277] yes=61,no=62,missing=62
					61:leaf=-0.017378 
					62:leaf=-0.163734 
booster[9]
0:[f15<0.065915] yes=1,no=2,missing=2
	1:[f1<-0.127413] yes=3,no=4,missing=4
		3:[f18<0.075194] yes=7,no=8,missing=8
			7:[f6<-0.221854] yes=15,no=16,missing=16
				15:[f2<0.152795] yes=31,no=32,missing=32
					31:leaf=-0.032585 
					32:leaf=-0.064717 
				16:[f2<0.171541] yes=33,no=34,missing=34
					33:leaf=-0.003997 
					34:leaf=-0.032968 
			8:[f28<7846.000000] yes=17,no=18,missing=18
				17:[f1<-0.280351] yes=35,no=36,missing=36
					35:leaf=0.055484 
					36:leaf=-0.012444 
				18:[f40<1.783750] yes=37,no=38,missing=38
					37:leaf=-0.008677 
					38:leaf=0.026612 
		4:[f12<0.051957] yes=9,no=10,missing=10
			9:[f41<-0.086382] yes=19,no=20,missing=20
				19:[f2<-0.100375] yes=39,no=40,missing=40
					39:leaf=-0.040936 
					40:leaf=-0.078599 
				20:[f1<0.943153] yes=41,no=42,missing=42
					41:leaf=-0.015653 
					42:leaf=-0.056124 
			10:[f10<2.500000] yes=21,no=22,missing=22
				21:[f6<0.963987] yes=43,no=44,missing=44
					43:leaf=-0.015158 
					44:leaf=0.029381 
				22:[f1<4.346024] yes=45,no=46,missing=46
					45:leaf=0.055025 
					46:leaf=-0.031232 
	2:[f28<7846.000000] yes=5,no=6,missing=6
		5:[f1<0.369636] yes=11,no=12,missing=12
			11:[f2<-0.338270] yes=23,no=24,missing=24
				23:[f1<-0.203882] yes=47,no=48,missing=48
					47:leaf=0.029695 
					48:leaf=-0.047365 
				24:[f37<7846.000000] yes=49,no=50,missing=50
					49:leaf=0.004790 
					50:leaf=0.053595 
			12:[f22<15082.000000] yes=25,no=26,missing=26
				25:[f3<-1.061321] yes=51,no=52,missing=52
					51:leaf=0.035490 
					52:leaf=-0.075841 
				26:[f41<0.925792] yes=53,no=54,missing=54
					53:leaf=-0.051230 
					54:leaf=0.038507 
		6:[f2<-0.405472] yes=13,no=14,missing=14
			13:[f34<7846.000000] yes=27,no=28,missing=28
				27:[f2<-0.441372] yes=55,no=56,missing=56
					55:leaf=-0.132089 
					56:leaf=-0.059091 
				28:[f2<-0.461332] yes=57,no=58,missing=58
					57:leaf=-0.151481 
					58:leaf=-0.017861 
			14:[f12<0.152395] yes=29,no=30,missing=30
				29:[f40<1.711972] yes=59,no=60,missing=60
					59:leaf=0.000159 
					60:leaf=0.035666 
				30:[f1<-0.012709] yes=61,no=62,missing=62
					61:leaf=0.046800 
					62:leaf=0.021059 
booster[10]
0:[f15<0.103243] yes=1,no=2,missing=2
	1:[f1<0.025525] yes=3,no=4,missing=4
		3:[f28<7846.000000] yes=7,no=8,missing=8
			7:[f34<11470.500000] yes=15,no=16,missing=16
				15:[f2<-0.316936] yes=31,no=32,missing=32
					31:leaf=-0.005578 
					32:leaf=0.034940 
				16:[f40<-1.131853] yes=33,no=34,missing=34
					33:leaf=-0.028682 
					34:leaf=0.059033 
			8:[f18<0.075194] yes=17,no=18,missing=18
				17:[f9<0.092010] yes=35,no=36,missing=36
					35:leaf=-0.009939 
					36:leaf=-0.035768 
				18:[f3<-0.697566] yes=37,no=38,missing=38
					37:leaf=-0.015609 
					38:leaf=0.006953 
		4:[f12<0.020204] yes=9,no=10,missing=10
			9:[f11<13.500000] yes=19,no=20,missing=20
				19:[f41<0.116053] yes=39,no=40,missing=40
					39:leaf=-0.052711 
					40:leaf=-0.016458 
				20:[f21<0.081288] yes=41,no=42,missing=42
					41:leaf=-0.092612 
					42:leaf=-0.050263 
			10:[f25<15537.000000] yes=21,no=22,missing=22
				21:[f12<0.053343] yes=43,no=44,missing=44
					43:leaf=-0.071062 
					44:leaf=-0.015181 
				22:[f11<26.500000] yes=45,no=46,missing=46
					45:leaf=0.001497 
					46:leaf=0.060091 
	2:[f40<-1.307349] yes=5,no=6,missing=6
		5:[f5<-0.044072] yes=11,no=12,missing=12
			11:[f5<-0.502708] yes=23,no=24,missing=24
				23:[f10<2.500000] yes=47,no=48,missing=48
					47:leaf=-0.119590 
					48:leaf=0.059887 
				24:[f2<-0.283612] yes=49,no=50,missing=50
					49:leaf=-0.033226 
					50:leaf=0.018379 
			12:[f40<-1.372307] yes=25,no=26,missing=26
				25:[f2<0.170665] yes=51,no=52,missing=52
					51:leaf=-0.094090 
					52:leaf=-0.031689 
				26:[f7<1.395496] yes=53,no=54,missing=54
					53:leaf=-0.153234 
					54:leaf=-0.028947 
		6:[f3<-0.509658] yes=13,no=14,missing=14
			13:[f2<-0.424704] yes=27,no=28,missing=28
				27:[f40<0.351071] yes=55,no=56,missing=56
					55:leaf=-0.068164 
					56:leaf=-0.007790 
				28:[f12<0.089572] yes=57,no=58,missing=58
					57:leaf=-0.001957 
					58:leaf=0.030141 
			14:[f13<107.500000] yes=29,no=30,missing=30
				29:[f18<0.078500] yes=59,no=60,missing=60
					59:leaf=0.001091 
					60:leaf=0.023151 
				30:[f1<0.713746] yes=61,no=62,missing=62
					61:leaf=0.042100 
					62:leaf=-0.022143 
booster[11]
0:[f15<0.079240] yes=1,no=2,missing=2
	1:[f40<-1.236289] yes=3,no=4,missing=4
		3:[f5<-0.133033] yes=7,no=8,missing=8
			7:[f5<-0.408129] yes=15,no=16,missing=16
				15:[f15<0.079104] yes=31,no=32,missing=32
					31:leaf=-0.121289 
					32:leaf=0.091045 
				16:[f6<0.622942] yes=33,no=34,missing=34
					33:leaf=-0.025095 
					34:leaf=0.012510 
			8:[f9<2.529996] yes=17,no=18,missing=18
				17:[f40<-1.408196] yes=35,no=36,missing=36
					35:leaf=-0.099491 
					36:leaf=-0.142043 
				18:[f31<3774.500000] yes=37,no=38,missing=38
					37:leaf=-0.145405 
					38:leaf=0.186468 
		4:[f3<-1.506820] yes=9,no=10,missing=10
			9:[f8<2.107775] yes=19,no=20,missing=20
				19:[f40<2.181397] yes=39,no=40,missing=40
					39:leaf=-0.041418 
					40:leaf=0.043991 
				20:[f40<0.543255] yes=41,no=42,missing=42
					41:leaf=-0.151783 
					42:leaf=-0.082504 
			10:[f2<-0.087017] yes=21,no=22,missing=22
				21:[f34<7846.000000] yes=43,no=44,missing=44
					43:leaf=-0.015503 
					44:leaf=0.011329 
				22:[f1<0.063760] yes=45,no=46,missing=46
					45:leaf=-0.011582 
					46:leaf=-0.039403 
	2:[f3<0.690937] yes=5,no=6,missing=6
		5:[f40<-1.013061] yes=11,no=12,missing=12
			11:[f5<-0.044072] yes=23,no=24,missing=24
				23:[f5<-0.471016] yes=47,no=48,missing=48
					47:leaf=-0.092586 
					48:leaf=-0.006120 
				24:[f40<-1.049667] yes=49,no=50,missing=50
					49:leaf=-0.091350 
					50:leaf=0.028265 
			12:[f1<0.178463] yes=25,no=26,missing=26
				25:[f13<189.500000] yes=51,no=52,missing=52
					51:leaf=0.004547 
					52:leaf=0.026638 
				26:[f12<0.032796] yes=53,no=54,missing=54
					53:leaf=-0.034159 
					54:leaf=0.008656 
		6:[f12<0.318609] yes=13,no=14,missing=14
			13:[f2<1.128459] yes=27,no=28,missing=28
				27:[f37<7846.000000] yes=55,no=56,missing=56
					55:leaf=-0.012904 
					56:leaf=0.026046 
				28:[f17<22155.500000] yes=57,no=58,missing=58
					57:leaf=0.036120 
					58:leaf=-0.058918 
			14:[f6<-2.815301] yes=29,no=30,missing=30
				29:leaf=-0.235996 
				30:[f2<-0.383860] yes=59,no=60,missing=60
					59:leaf=-0.002020 
					60:leaf=0.059478 
booster[12]
0:[f15<0.115214] yes=1,no=2,missing=2
	1:[f18<0.075194] yes=3,no=4,missing=4
		3:[f9<0.311735] yes=7,no=8,missing=8
			7:[f3<-0.982041] yes=15,no=16,missing=16
				15:[f6<1.096759] yes=31,no=32,missing=32
					31:leaf=-0.037914 
					32:leaf=0.033279 
				16:[f40<0.281805] yes=33,no=34,missing=34
					33:leaf=-0.016633 
					34:leaf=0.002757 
			8:[f3<-0.126885] yes=17,no=18,missing=18
				17:[f9<1.706109] yes=35,no=36,missing=36
					35:leaf=-0.058382 
					36:leaf=-0.130163 
				18:[f2<0.778992] yes=37,no=38,missing=38
					37:leaf=-0.018240 
					38:leaf=-0.053672 
		4:[f2<-0.416580] yes=9,no=10,missing=10
			9:[f34<7846.000000] yes=19,no=20,missing=20
				19:[f17<64592.000000] yes=39,no=40,missing=40
					39:leaf=-0.073271 
					40:leaf=-0.127067 
				20:[f40<-1.010728] yes=41,no=42,missing=42
					41:leaf=-0.064677 
					42:leaf=-0.010670 
			10:[f3<-0.834168] yes=21,no=22,missing=22
				21:[f12<0.169540] yes=43,no=44,missing=44
					43:leaf=-0.017189 
					44:leaf=0.026377 
				22:[f40<1.751809] yes=45,no=46,missing=46
					45:leaf=0.004774 
					46:leaf=0.033642 
	2:[f40<-0.161062] yes=5,no=6,missing=6
		5:[f2<-0.388262] yes=11,no=12,missing=12
			11:[f5<-0.284301] yes=23,no=24,missing=24
				23:[f14<55.500000] yes=47,no=48,missing=48
					47:leaf=-0.142451 
					48:leaf=-0.056557 
				24:[f34<11470.500000] yes=49,no=50,missing=50
					49:leaf=-0.039527 
					50:leaf=0.007479 
			12:[f12<0.386752] yes=25,no=26,missing=26
				25:[f36<0.072279] yes=51,no=52,missing=52
					51:leaf=-0.027876 
					52:leaf=0.007541 
				26:[f8<1.272470] yes=53,no=54,missing=54
					53:leaf=0.044754 
					54:leaf=-0.065849 
		6:[f3<0.690937] yes=13,no=14,missing=14
			13:[f40<1.793799] yes=27,no=28,missing=28
				27:[f12<0.114379] yes=55,no=56,missing=56
					55:leaf=0.008900 
					56:leaf=0.035303 
				28:[f1<1.363733] yes=57,no=58,missing=58
					57:leaf=0.046152 
					58:leaf=-0.098507 
			14:[f13<12.500000] yes=29,no=30,missing=30
				29:[f14<74.500000] yes=59,no=60,missing=60
					59:leaf=0.027095 
					60:leaf=-0.079432 
				30:[f11<3.500000] yes=61,no=62,missing=62
					61:leaf=0.055488 
					62:leaf=0.010049 
booster[13]
0:[f28<7846.000000] yes=1,no=2,missing=2
	1:[f11<8.500000] yes=3,no=4,missing=4
		3:[f6<-0.564656] yes=7,no=8,missing=8
			7:[f40<-1.120548] yes=15,no=16,missing=16
				15:[f40<-1.419322] yes=31,no=32,missing=32
					31:leaf=0.008547 
					32:leaf=-0.107181 
				16:[f7<-0.132130] yes=33,no=34,missing=34
					33:leaf=-0.002264 
					34:leaf=0.031486 
			8:[f2<-0.338270] yes=17,no=18,missing=18
				17:[f9<-0.362069] yes=35,no=36,missing=36
					35:leaf=0.023000 
					36:leaf=-0.033194 
				18:[f37<7846.000000] yes=37,no=38,missing=38
					37:leaf=-0.007541 
					38:leaf=0.046417 
		4:[f13<88.500000] yes=9,no=10,missing=10
			9:[f11<16.500000] yes=19,no=20,missing=20
				19:[f15<0.209615] yes=39,no=40,missing=40
					39:leaf=-0.164950 
					40:leaf=0.063772 
				20:[f3<-0.935905] yes=41,no=42,missing=42
					41:leaf=0.079742 
					42:leaf=-0.075435 
			10:[f40<-1.139030] yes=21,no=22,missing=22
				21:[f10<3.500000] yes=43,no=44,missing=44
					43:leaf=-0.161213 
					44:leaf=0.030808 
				22:[f14<4057.500000] yes=45,no=46,missing=46
					45:leaf=0.025906 
					46:leaf=-0.071690 
	2:[f12<0.084524] yes=5,no=6,missing=6
		5:[f1<-0.280351] yes=11,no=12,missing=12
			11:[f40<1.631941] yes=23,no=24,missing=24
				23:[f9<0.225813] yes=47,no=48,missing=48
					47:leaf=0.001407 
					48:leaf=-0.024379 
				24:[f25<15537.000000] yes=49,no=50,missing=50
					49:leaf=0.031228 
					50:leaf=-0.027613 
			12:[f40<-1.058999] yes=25,no=26,missing=26
				25:[f5<-0.133033] yes=51,no=52,missing=52
					51:leaf=-0.031743 
					52:leaf=-0.095777 
				26:[f34<11470.500000] yes=53,no=54,missing=54
					53:leaf=-0.027166 
					54:leaf=0.000114 
		6:[f37<14786.000000] yes=13,no=14,missing=14
			13:[f12<0.233032] yes=27,no=28,missing=28
				27:[f21<0.081288] yes=55,no=56,missing=56
					55:leaf=-0.018898 
					56:leaf=0.019036 
				28:[f9<-0.322742] yes=57,no=58,missing=58
					57:leaf=-0.015305 
					58:leaf=0.028906 
			14:[f40<-1.522681] yes=29,no=30,missing=30
				29:[f5<-0.133033] yes=59,no=60,missing=60
					59:leaf=0.004159 
					60:leaf=-0.136702 
				30:[f11<36.500000] yes=61,no=62,missing=62
					61:leaf=0.035821 
					62:leaf=0.085703 
booster[14]
0:[f3<0.429607] yes=1,no=2,missing=2
	1:[f40<-1.064382] yes=3,no=4,missing=4
		3:[f5<-0.133033] yes=7,no=8,missing=8
			7:[f5<-0.471016] yes=15,no=16,missing=16
				15:[f12<0.089572] yes=31,no=32,missing=32
					31:leaf=-0.102703 
					32:leaf=-0.029328 
				16:[f12<0.018387] yes=33,no=34,missing=34
					33:leaf=-0.016143 
					34:leaf=0.015294 
			8:[f6<0.404360] yes=17,no=18,missing=18
				17:[f41<3.355011] yes=35,no=36,missing=36
					35:leaf=-0.100685 
					36:leaf=0.021683 
				18:[f6<1.038636] yes=37,no=38,missing=38
					37:leaf=-0.034698 
					38:leaf=-0.110445 
		4:[f18<0.075194] yes=9,no=10,missing=10
			9:[f9<0.311803] yes=19,no=20,missing=20
				19:[f40<0.230126] yes=39,no=40,missing=40
					39:leaf=-0.020823 
					40:leaf=-0.001194 
				20:[f2<1.706896] yes=41,no=42,missing=42
					41:leaf=-0.037831 
					42:leaf=-0.103887 
			10:[f9<-0.428806] yes=21,no=22,missing=22
				21:[f34<7846.000000] yes=43,no=44,missing=44
					43:leaf=-0.083081 
					44:leaf=-0.019958 
				22:[f1<0.293167] yes=45,no=46,missing=46
					45:leaf=0.007671 
					46:leaf=-0.016610 
	2:[f15<0.045924] yes=5,no=6,missing=6
		5:[f14<47.500000] yes=11,no=12,missing=12
			11:[f40<-1.420039] yes=23,no=24,missing=24
				23:[f7<0.864312] yes=47,no=48,missing=48
					47:leaf=-0.125479 
					48:leaf=-0.020759 
				24:[f1<0.140229] yes=49,no=50,missing=50
					49:leaf=0.012248 
					50:leaf=-0.043468 
			12:[f12<0.047247] yes=25,no=26,missing=26
				25:[f15<0.009934] yes=51,no=52,missing=52
					51:leaf=-0.084249 
					52:leaf=-0.025104 
				26:[f19<14291.000000] yes=53,no=54,missing=54
					53:leaf=-0.035735 
					54:leaf=0.077462 
		6:[f1<0.369636] yes=13,no=14,missing=14
			13:[f16<4264.000000] yes=27,no=28,missing=28
				27:[f2<-0.438130] yes=55,no=56,missing=56
					55:leaf=-0.049858 
					56:leaf=0.032060 
				28:[f12<0.095455] yes=57,no=58,missing=58
					57:leaf=0.009451 
					58:leaf=0.041671 
			14:[f37<14786.000000] yes=29,no=30,missing=30
				29:[f41<0.520922] yes=59,no=60,missing=60
					59:leaf=-0.068166 
					60:leaf=-0.021115 
				30:[f40<-1.397609] yes=61,no=62,missing=62
					61:leaf=-0.062650 
					62:leaf=0.022325 
booster[15]
0:[f28<7846.000000] yes=1,no=2,missing=2
	1:[f1<-0.280351] yes=3,no=4,missing=4
		3:[f34<7846.000000] yes=7,no=8,missing=8
			7:[f3<1.371675] yes=15,no=16,missing=16
				15:[f5<0.129982] yes=31,no=32,missing=32
					31:leaf=0.017194 
					32:leaf=-0.021722 
				16:[f6<-0.771268] yes=33,no=34,missing=34
					33:leaf=-0.089415 
					34:leaf=0.054565 
			8:[f2<0.699659] yes=17,no=18,missing=18
				17:[f37<14786.000000] yes=35,no=36,missing=36
					35:leaf=0.036433 
					36:leaf=0.055533 
				18:[f14<294.000000] yes=37,no=38,missing=38
					37:leaf=-0.179338 
					38:leaf=-0.003572 
		4:[f37<14786.000000] yes=9,no=10,missing=10
			9:[f13<103.500000] yes=19,no=20,missing=20
				19:[f1<-0.203882] yes=39,no=40,missing=40
					39:leaf=0.008659 
					40:leaf=-0.059275 
				20:[f11<7.500000] yes=41,no=42,missing=42
					41:leaf=0.025938 
					42:leaf=-0.029144 
			10:[f2<-0.376106] yes=21,no=22,missing=22
				21:[f15<0.025865] yes=43,no=44,missing=44
					43:leaf=0.136595 
					44:leaf=-0.048167 
				22:[f16<2925.500000] yes=45,no=46,missing=46
					45:leaf=0.068697 
					46:leaf=0.022269 
	2:[f12<0.087596] yes=5,no=6,missing=6
		5:[f1<-0.280351] yes=11,no=12,missing=12
			11:[f7<0.970229] yes=23,no=24,missing=24
				23:[f40<1.691516] yes=47,no=48,missing=48
					47:leaf=-0.007335 
					48:leaf=0.019206 
				24:[f3<-0.319132] yes=49,no=50,missing=50
					49:leaf=-0.000381 
					50:leaf=0.022919 
			12:[f1<0.981388] yes=25,no=26,missing=26
				25:[f41<-0.086382] yes=51,no=52,missing=52
					51:leaf=-0.024842 
					52:leaf=-0.003779 
				26:[f12<0.020204] yes=53,no=54,missing=54
					53:leaf=-0.054660 
					54:leaf=0.001065 
		6:[f37<14786.000000] yes=13,no=14,missing=14
			13:[f40<0.302262] yes=27,no=28,missing=28
				27:[f36<0.072279] yes=55,no=56,missing=56
					55:leaf=-0.029160 
					56:leaf=0.007822 
				28:[f12<0.479354] yes=57,no=58,missing=58
					57:leaf=0.015411 
					58:leaf=0.041123 
			14:[f40<-1.584051] yes=29,no=30,missing=30
				29:[f10<2.500000] yes=59,no=60,missing=60
					59:leaf=-0.144472 
					60:leaf=0.033871 
				30:[f10<4.500000] yes=61,no=62,missing=62
					61:leaf=0.032191 
					62:leaf=0.073577 
booster[16]
0:[f15<0.056652] yes=1,no=2,missing=2
	1:[f12<0.074537] yes=3,no=4,missing=4
		3:[f11<0.500000] yes=7,no=8,missing=8
			7:[f28<13987.000000] yes=15,no=16,missing=16
				15:[f40<1.002811] yes=31,no=32,missing=32
					31:leaf=-0.005321 
					32:leaf=0.020277 
				16:[f40<0.960462] yes=33,no=34,missing=34
					33:leaf=-0.014757 
					34:leaf=-0.063874 
			8:[f21<0.081288] yes=17,no=18,missing=18
				17:[f2<-0.057318] yes=35,no=36,missing=36
					35:leaf=-0.034519 
					36:leaf=-0.068153 
				18:[f1<0.025525] yes=37,no=38,missing=38
					37:leaf=-0.003224 
					38:leaf=-0.031151 
		4:[f11<19.500000] yes=9,no=10,missing=10
			9:[f1<-0.203882] yes=19,no=20,missing=20
				19:[f19<14291.000000] yes=39,no=40,missing=40
					39:leaf=0.013816 
					40:leaf=0.065282 
				20:[f11<2.500000] yes=41,no=42,missing=42
					41:leaf=-0.077772 
					42:leaf=0.005974 
			10:[f3<-1.034697] yes=21,no=22,missing=22
				21:[f40<1.535759] yes=43,no=44,missing=44
					43:leaf=-0.130249 
					44:leaf=0.171766 
				22:[f41<2.140401] yes=45,no=46,missing=46
					45:leaf=0.094851 
					46:leaf=0.042393 
	2:[f2<-0.417246] yes=5,no=6,missing=6
		5:[f34<7846.000000] yes=11,no=12,missing=12
			11:[f37<14786.000000] yes=23,no=24,missing=24
				23:[f28<7846.000000] yes=47,no=48,missing=48
					47:leaf=-0.009166 
					48:leaf=-0.102613 
				24:[f7<-1.150717] yes=49,no=50,missing=50
					49:leaf=0.019946 
					50:leaf=-0.059048 
			12:[f2<-0.461375] yes=25,no=26,missing=26
				25:[f40<2.090419] yes=51,no=52,missing=52
					51:leaf=-0.128876 
					52:leaf=0.113722 
				26:[f8<-0.472318] yes=53,no=54,missing=54
					53:leaf=0.011881 
					54:leaf=-0.021901 
		6:[f18<0.075194] yes=13,no=14,missing=14
			13:[f9<0.562747] yes=27,no=28,missing=28
				27:[f14<7678.000000] yes=55,no=56,missing=56
					55:leaf=-0.000149 
					56:leaf=-0.060686 
				28:[f41<-0.288817] yes=57,no=58,missing=58
					57:leaf=-0.073197 
					58:leaf=-0.024453 
			14:[f1<0.293167] yes=29,no=30,missing=30
				29:[f40<1.653115] yes=59,no=60,missing=60
					59:leaf=0.012700 
					60:leaf=0.039702 
				30:[f12<0.021874] yes=61,no=62,missing=62
					61:leaf=-0.025947 
					62:leaf=0.009185 
booster[17]
0:[f40<-1.061152] yes=1,no=2,missing=2
	1:[f5<-0.133033] yes=3,no=4,missing=4
		3:[f5<-0.631184] yes=7,no=8,missing=8
			7:[f40<-1.127187] yes=15,no=16,missing=16
				15:[f6<0.267218] yes=31,no=32,missing=32
					31:leaf=-0.112498 
					32:leaf=-0.071971 
				16:[f3<1.626983] yes=33,no=34,missing=34
					33:leaf=-0.067504 
					34:leaf=0.143130 
			8:[f3<0.143271] yes=17,no=18,missing=18
				17:[f36<0.072279] yes=35,no=36,missing=36
					35:leaf=-0.045492 
					36:leaf=-0.007435 
				18:[f40<-1.097041] yes=37,no=38,missing=38
					37:leaf=0.013294 
					38:leaf=-0.031602 
		4:[f6<0.605454] yes=9,no=10,missing=10
			9:[f8<-0.569072] yes=19,no=20,missing=20
				19:[f9<0.149099] yes=39,no=40,missing=40
					39:leaf=0.081344 
					40:leaf=-0.152756 
				20:[f40<-1.385586] yes=41,no=42,missing=42
					41:leaf=-0.075264 
					42:leaf=-0.105963 
			10:[f3<-1.358476] yes=21,no=22,missing=22
				21:[f5<1.188587] yes=43,no=44,missing=44
					43:leaf=-0.146098 
					44:leaf=0.081327 
				22:[f6<1.139463] yes=45,no=46,missing=46
					45:leaf=-0.042376 
					46:leaf=-0.118543 
	2:[f28<7846.000000] yes=5,no=6,missing=6
		5:[f37<14786.000000] yes=11,no=12,missing=12
			11:[f11<7.500000] yes=23,no=24,missing=24
				23:[f2<1.053380] yes=47,no=48,missing=48
					47:leaf=0.023639 
					48:leaf=-0.123747 
				24:[f15<0.120055] yes=49,no=50,missing=50
					49:leaf=-0.076073 
					50:leaf=0.011700 
			12:[f12<0.633333] yes=25,no=26,missing=26
				25:[f9<-0.342084] yes=51,no=52,missing=52
					51:leaf=0.008706 
					52:leaf=0.042236 
				26:[f15<0.058950] yes=53,no=54,missing=54
					53:leaf=0.017914 
					54:leaf=0.099490 
		6:[f15<0.114520] yes=13,no=14,missing=14
			13:[f2<0.445256] yes=27,no=28,missing=28
				27:[f3<0.705407] yes=55,no=56,missing=56
					55:leaf=-0.006206 
					56:leaf=0.010492 
				28:[f41<-0.288817] yes=57,no=58,missing=58
					57:leaf=-0.046525 
					58:leaf=-0.010818 
			14:[f3<-1.377900] yes=29,no=30,missing=30
				29:[f13<3.500000] yes=59,no=60,missing=60
					59:leaf=-0.056809 
					60:leaf=-0.010902 
				30:[f40<1.608074] yes=61,no=62,missing=62
					61:leaf=0.011794 
					62:leaf=0.035672 
booster[18]
0:[f3<0.669119] yes=1,no=2,missing=2
	1:[f18<0.075194] yes=3,no=4,missing=4
		3:[f9<0.448103] yes=7,no=8,missing=8
			7:[f41<-0.288817] yes=15,no=16,missing=16
				15:[f40<2.130076] yes=31,no=32,missing=32
					31:leaf=-0.021514 
					32:leaf=0.033687 
				16:[f40<0.058577] yes=33,no=34,missing=34
					33:leaf=-0.012582 
					34:leaf=0.012975 
			8:[f2<1.706896] yes=17,no=18,missing=18
				17:[f22<15082.000000] yes=35,no=36,missing=36
					35:leaf=-0.050931 
					36:leaf=-0.018879 
				18:[f13<344.500000] yes=37,no=38,missing=38
					37:leaf=-0.098504 
					38:leaf=0.008369 
		4:[f2<-0.325818] yes=9,no=10,missing=10
			9:[f34<7846.000000] yes=19,no=20,missing=20
				19:[f2<-0.426258] yes=39,no=40,missing=40
					39:leaf=-0.076236 
					40:leaf=-0.033361 
				20:[f40<-0.042629] yes=41,no=42,missing=42
					41:leaf=-0.016327 
					42:leaf=0.009445 
			10:[f15<0.044921] yes=21,no=22,missing=22
				21:[f14<35.500000] yes=43,no=44,missing=44
					43:leaf=-0.002019 
					44:leaf=-0.024691 
				22:[f37<7846.000000] yes=45,no=46,missing=46
					45:leaf=-0.018644 
					46:leaf=0.010907 
	2:[f16<4264.000000] yes=5,no=6,missing=6
		5:[f2<-0.386400] yes=11,no=12,missing=12
			11:[f40<1.651679] yes=23,no=24,missing=24
				23:[f3<1.783714] yes=47,no=48,missing=48
					47:leaf=-0.019372 
					48:leaf=-0.110449 
				24:[f1<-0.395054] yes=49,no=50,missing=50
					49:leaf=0.077890 
					50:leaf=-0.031360 
			12:[f37<7846.000000] yes=25,no=26,missing=26
				25:[f25<15537.000000] yes=51,no=52,missing=52
					51:leaf=-0.107850 
					52:leaf=0.009089 
				26:[f7<0.917866] yes=53,no=54,missing=54
					53:leaf=0.022486 
					54:leaf=0.040283 
		6:[f12<0.278559] yes=13,no=14,missing=14
			13:[f2<1.274033] yes=27,no=28,missing=28
				27:[f40<-1.292634] yes=55,no=56,missing=56
					55:leaf=-0.032170 
					56:leaf=0.006200 
				28:[f40<-0.506670] yes=57,no=58,missing=58
					57:leaf=-0.011282 
					58:leaf=-0.071321 
			14:[f2<-0.422997] yes=29,no=30,missing=30
				29:[f36<0.086170] yes=59,no=60,missing=60
					59:leaf=-0.200886 
					60:leaf=-0.016275 
				30:[f6<-0.771268] yes=61,no=62,missing=62
					61:leaf=-0.012042 
					62:leaf=0.045766 
booster[19]
0:[f3<-0.933017] yes=1,no=2,missing=2
	1:[f40<-1.098117] yes=3,no=4,missing=4
		3:[f5<0.043587] yes=7,no=8,missing=8
			7:[f1<7.041556] yes=15,no=16,missing=16
				15:[f7<0.514586] yes=31,no=32,missing=32
					31:leaf=-0.041426 
					32:leaf=-0.001038 
				16:[f6<-0.865449] yes=33,no=34,missing=34
					33:leaf=-0.013798 
					34:leaf=0.167266 
			8:[f6<0.741981] yes=17,no=18,missing=18
				17:[f14<2414.000000] yes=35,no=36,missing=36
					35:leaf=-0.113539 
					36:leaf=-0.039033 
				18:[f1<2.032837] yes=37,no=38,missing=38
					37:leaf=-0.041629 
					38:leaf=0.172811 
		4:[f16<4264.000000] yes=9,no=10,missing=10
			9:[f40<1.665317] yes=19,no=20,missing=20
				19:[f3<-1.496735] yes=39,no=40,missing=40
					39:leaf=-0.021885 
					40:leaf=0.000627 
				20:[f36<0.086170] yes=41,no=42,missing=42
					41:leaf=-0.012825 
					42:leaf=0.052165 
			10:[f12<0.472222] yes=21,no=22,missing=22
				21:[f3<-1.668674] yes=43,no=44,missing=44
					43:leaf=-0.035892 
					44:leaf=-0.015625 
				22:[f2<-0.438740] yes=45,no=46,missing=46
					45:leaf=-0.190553 
					46:leaf=0.029746 
	2:[f12<0.146446] yes=5,no=6,missing=6
		5:[f1<-0.280351] yes=11,no=12,missing=12
			11:[f2<0.310550] yes=23,no=24,missing=24
				23:[f15<0.048900] yes=47,no=48,missing=48
					47:leaf=-0.002904 
					48:leaf=0.013883 
				24:[f13<159.000000] yes=49,no=50,missing=50
					49:leaf=-0.022273 
					50:leaf=0.016448 
			12:[f37<14786.000000] yes=25,no=26,missing=26
				25:[f11<0.500000] yes=51,no=52,missing=52
					51:leaf=0.003062 
					52:leaf=-0.029343 
				26:[f40<-1.109063] yes=53,no=54,missing=54
					53:leaf=-0.035093 
					54:leaf=0.006121 
		6:[f37<14786.000000] yes=13,no=14,missing=14
			13:[f14<177.500000] yes=27,no=28,missing=28
				27:[f14<176.000000] yes=55,no=56,missing=56
					55:leaf=-0.002186 
					56:leaf=-0.204875 
				28:[f1<-0.318585] yes=57,no=58,missing=58
					57:leaf=0.042210 
					58:leaf=0.014729 
			14:[f1<-0.203882] yes=29,no=30,missing=30
				29:[f6<-2.815301] yes=59,no=60,missing=60
					59:leaf=-0.219571 
					60:leaf=0.050515 
				30:[f14<10.500000] yes=61,no=62,missing=62
					61:leaf=-0.099880 
					62:leaf=0.029030 
booster[20]
0:[f7<0.450896] yes=1,no=2,missing=2
	1:[f12<0.284162] yes=3,no=4,missing=4
		3:[f40<-1.101706] yes=7,no=8,missing=8
			7:[f5<-0.014709] yes=15,no=16,missing=16
				15:[f5<-0.566602] yes=31,no=32,missing=32
					31:leaf=-0.103067 
					32:leaf=-0.010184 
				16:[f11<3.500000] yes=33,no=34,missing=34
					33:leaf=-0.093794 
					34:leaf=-0.034820 
			8:[f40<1.729199] yes=17,no=18,missing=18
				17:[f34<11470.500000] yes=35,no=36,missing=36
					35:leaf=-0.012462 
					36:leaf=0.002818 
				18:[f39<0.083810] yes=37,no=38,missing=38
					37:leaf=-0.029419 
					38:leaf=0.017749 
		4:[f9<-0.380014] yes=9,no=10,missing=10
			9:[f15<0.065363] yes=19,no=20,missing=20
				19:[f3<0.837397] yes=39,no=40,missing=40
					39:leaf=-0.144689 
					40:leaf=0.028167 
				20:[f15<0.207532] yes=41,no=42,missing=42
					41:leaf=0.014204 
					42:leaf=-0.099880 
			10:[f34<11470.500000] yes=21,no=22,missing=22
				21:[f6<1.181435] yes=43,no=44,missing=44
					43:leaf=0.022318 
					44:leaf=-0.033391 
				22:[f7<-1.150717] yes=45,no=46,missing=46
					45:leaf=0.011029 
					46:leaf=0.048259 
	2:[f1<-0.165647] yes=5,no=6,missing=6
		5:[f18<0.093903] yes=11,no=12,missing=12
			11:[f28<7846.000000] yes=23,no=24,missing=24
				23:[f6<1.209022] yes=47,no=48,missing=48
					47:leaf=0.036472 
					48:leaf=-0.014559 
				24:[f15<0.112022] yes=49,no=50,missing=50
					49:leaf=0.000451 
					50:leaf=0.017542 
			12:[f2<-0.333536] yes=25,no=26,missing=26
				25:[f34<7846.000000] yes=51,no=52,missing=52
					51:leaf=-0.028727 
					52:leaf=0.011826 
				26:[f31<4554.500000] yes=53,no=54,missing=54
					53:leaf=0.040235 
					54:leaf=0.019174 
		6:[f12<0.031754] yes=13,no=14,missing=14
			13:[f1<0.943153] yes=27,no=28,missing=28
				27:[f37<14786.000000] yes=55,no=56,missing=56
					55:leaf=-0.021004 
					56:leaf=0.008530 
				28:[f22<15082.000000] yes=57,no=58,missing=58
					57:leaf=-0.077647 
					58:leaf=-0.030201 
			14:[f28<13987.000000] yes=29,no=30,missing=30
				29:[f40<0.304595] yes=59,no=60,missing=60
					59:leaf=-0.011932 
					60:leaf=0.018814 
				30:[f11<30.500000] yes=61,no=62,missing=62
					61:leaf=0.020831 
					62:leaf=0.078974 
booster[21]
0:[f3<0.718021] yes=1,no=2,missing=2
	1:[f12<0.087596] yes=3,no=4,missing=4
		3:[f11<2.500000] yes=7,no=8,missing=8
			7:[f40<-1.236289] yes=15,no=16,missing=16
				15:[f5<0.014510] yes=31,no=32,missing=32
					31:leaf=-0.012446 
					32:leaf=-0.077601 
				16:[f41<-0.288817] yes=33,no=34,missing=34
					33:leaf=-0.004848 
					34:leaf=0.009363 
			8:[f22<15082.000000] yes=17,no=18,missing=18
				17:[f40<1.674648] yes=35,no=36,missing=36
					35:leaf=-0.044706 
					36:leaf=-0.000084 
				18:[f10<3.500000] yes=37,no=38,missing=38
					37:leaf=-0.008697 
					38:leaf=0.105477 
		4:[f1<-0.165647] yes=9,no=10,missing=10
			9:[f37<14786.000000] yes=19,no=20,missing=20
				19:[f40<1.669086] yes=39,no=40,missing=40
					39:leaf=0.009706 
					40:leaf=0.052509 
				20:[f40<-1.534525] yes=41,no=42,missing=42
					41:leaf=-0.100601 
					42:leaf=0.043173 
			10:[f14<10.500000] yes=21,no=22,missing=22
				21:[f9<-0.451896] yes=43,no=44,missing=44
					43:leaf=0.150132 
					44:leaf=-0.123821 
				22:[f40<-0.379624] yes=45,no=46,missing=46
					45:leaf=-0.005293 
					46:leaf=0.015392 
	2:[f16<4264.000000] yes=5,no=6,missing=6
		5:[f9<-0.383343] yes=11,no=12,missing=12
			11:[f14<14.500000] yes=23,no=24,missing=24
				23:[f40<-0.697060] yes=47,no=48,missing=48
					47:leaf=-0.175430 
					48:leaf=-0.059716 
				24:[f14<20.500000] yes=49,no=50,missing=50
					49:leaf=0.078557 
					50:leaf=-0.011404 
			12:[f37<7846.000000] yes=25,no=26,missing=26
				25:[f16<3965.000000] yes=51,no=52,missing=52
					51:leaf=0.003560 
					52:leaf=-0.132948 
				26:[f6<-0.651078] yes=53,no=54,missing=54
					53:leaf=0.006053 
					54:leaf=0.027033 
		6:[f12<0.277668] yes=13,no=14,missing=14
			13:[f2<1.267678] yes=27,no=28,missing=28
				27:[f40<-1.422193] yes=55,no=56,missing=56
					55:leaf=-0.036884 
					56:leaf=0.005463 
				28:[f40<0.619339] yes=57,no=58,missing=58
					57:leaf=-0.028283 
					58:leaf=-0.093470 
			14:[f1<-0.318585] yes=29,no=30,missing=30
				29:[f6<1.303199] yes=59,no=60,missing=60
					59:leaf=0.053958 
					60:leaf=-0.065420 
				30:[f3<1.734075] yes=61,no=62,missing=62
					61:leaf=0.010264 
					62:leaf=0.066855 
booster[22]
0:[f18<0.093903] yes=1,no=2,missing=2
	1:[f28<7846.000000] yes=3,no=4,missing=4
		3:[f11<8.500000] yes=7,no=8,missing=8
			7:[f34<7846.000000] yes=15,no=16,missing=16
				15:[f40<-1.681310] yes=31,no=32,missing=32
					31:leaf=0.252691 
					32:leaf=0.000547 
				16:[f9<0.363003] yes=33,no=34,missing=34
					33:leaf=0.032475 
					34:leaf=0.003854 
			8:[f40<-0.368319] yes=17,no=18,missing=18
				17:[f5<-0.408129] yes=35,no=36,missing=36
					35:leaf=0.043504 
					36:leaf=-0.108647 
				18:[f5<-0.193083] yes=37,no=38,missing=38
					37:leaf=-0.057602 
					38:leaf=0.048055 
		4:[f12<0.025321] yes=9,no=10,missing=10
			9:[f1<1.401967] yes=19,no=20,missing=20
				19:[f40<1.620815] yes=39,no=40,missing=40
					39:leaf=-0.008179 
					40:leaf=0.009742 
				20:[f13<58.500000] yes=41,no=42,missing=42
					41:leaf=-0.032643 
					42:leaf=-0.078573 
			10:[f22<15082.000000] yes=21,no=22,missing=22
				21:[f1<-0.089178] yes=43,no=44,missing=44
					43:leaf=0.014098 
					44:leaf=-0.013518 
				22:[f11<46.500000] yes=45,no=46,missing=46
					45:leaf=0.019811 
					46:leaf=0.086966 
	2:[f37<7846.000000] yes=5,no=6,missing=6
		5:[f30<0.076755] yes=11,no=12,missing=12
			11:[f1<6.487156] yes=23,no=24,missing=24
				23:[f6<0.839601] yes=47,no=48,missing=48
					47:leaf=-0.138475 
					48:leaf=-0.072908 
				24:[f41<2.950141] yes=49,no=50,missing=50
					49:leaf=0.259627 
					50:leaf=-0.098438 
			12:[f41<0.723357] yes=25,no=26,missing=26
				25:[f40<1.011065] yes=51,no=52,missing=52
					51:leaf=-0.015379 
					52:leaf=-0.130591 
				26:[f12<0.021905] yes=53,no=54,missing=54
					53:leaf=0.003497 
					54:leaf=0.063722 
		6:[f2<-0.416235] yes=13,no=14,missing=14
			13:[f2<-0.452955] yes=27,no=28,missing=28
				27:[f3<0.746685] yes=55,no=56,missing=56
					55:leaf=-0.090685 
					56:leaf=0.017586 
				28:[f2<-0.422140] yes=57,no=58,missing=58
					57:leaf=-0.004955 
					58:leaf=-0.062788 
			14:[f1<-0.242116] yes=29,no=30,missing=30
				29:[f2<0.480404] yes=59,no=60,missing=60
					59:leaf=0.023097 
					60:leaf=-0.024185 
				30:[f40<-1.503660] yes=61,no=62,missing=62
					61:leaf=-0.070618 
					62:leaf=0.004869 
booster[23]
0:[f3<-0.692210] yes=1,no=2,missing=2
	1:[f2<0.093150] yes=3,no=4,missing=4
		3:[f34<7846.000000] yes=7,no=8,missing=8
			7:[f9<-0.428638] yes=15,no=16,missing=16
				15:[f3<-1.136342] yes=31,no=32,missing=32
					31:leaf=-0.051406 
					32:leaf=-0.116797 
				16:[f12<0.018387] yes=33,no=34,missing=34
					33:leaf=-0.021999 
					34:leaf=0.010815 
			8:[f40<0.943594] yes=17,no=18,missing=18
				17:[f9<-0.434711] yes=35,no=36,missing=36
					35:leaf=-0.036897 
					36:leaf=-0.003992 
				18:[f8<0.785477] yes=37,no=38,missing=38
					37:leaf=0.024497 
					38:leaf=-0.054086 
		4:[f12<0.550000] yes=9,no=10,missing=10
			9:[f13<196.500000] yes=19,no=20,missing=20
				19:[f6<0.121935] yes=39,no=40,missing=40
					39:leaf=-0.047090 
					40:leaf=-0.018551 
				20:[f14<5876.500000] yes=41,no=42,missing=42
					41:leaf=0.012454 
					42:leaf=-0.036442 
			10:[f9<0.445668] yes=21,no=22,missing=22
				21:[f1<0.446105] yes=43,no=44,missing=44
					43:leaf=0.089702 
					44:leaf=-0.057590 
				22:[f2<0.879506] yes=45,no=46,missing=46
					45:leaf=-0.129767 
					46:leaf=0.070077 
	2:[f7<0.809512] yes=5,no=6,missing=6
		5:[f40<1.737812] yes=11,no=12,missing=12
			11:[f28<1772.500000] yes=23,no=24,missing=24
				23:[f5<0.956568] yes=47,no=48,missing=48
					47:leaf=0.034203 
					48:leaf=0.011168 
				24:[f2<0.252921] yes=49,no=50,missing=50
					49:leaf=-0.001504 
					50:leaf=-0.018797 
			12:[f2<1.236389] yes=25,no=26,missing=26
				25:[f39<0.083810] yes=51,no=52,missing=52
					51:leaf=-0.017375 
					52:leaf=0.023947 
				26:[f4<-0.024514] yes=53,no=54,missing=54
					53:leaf=-0.034969 
					54:leaf=-0.147318 
		6:[f6<-0.348086] yes=13,no=14,missing=14
			13:[f40<-1.236289] yes=27,no=28,missing=28
				27:[f5<0.072524] yes=55,no=56,missing=56
					55:leaf=-0.019630 
					56:leaf=-0.090538 
				28:[f9<1.067199] yes=57,no=58,missing=58
					57:leaf=0.004895 
					58:leaf=-0.086166 
			14:[f34<11470.500000] yes=29,no=30,missing=30
				29:[f1<-0.280351] yes=59,no=60,missing=60
					59:leaf=0.017442 
					60:leaf=-0.004755 
				30:[f40<-1.228752] yes=61,no=62,missing=62
					61:leaf=-0.007492 
					62:leaf=0.032835 
booster[24]
0:[f15<0.115214] yes=1,no=2,missing=2
	1:[f18<0.075194] yes=3,no=4,missing=4
		3:[f9<0.175346] yes=7,no=8,missing=8
			7:[f6<-0.197370] yes=15,no=16,missing=16
				15:[f12<0.151923] yes=31,no=32,missing=32
					31:leaf=-0.019980 
					32:leaf=0.027210 
				16:[f8<2.830202] yes=33,no=34,missing=34
					33:leaf=0.000651 
					34:leaf=-0.050624 
			8:[f41<-0.288817] yes=17,no=18,missing=18
				17:[f40<-1.426141] yes=35,no=36,missing=36
					35:leaf=-0.122163 
					36:leaf=-0.028585 
				18:[f15<0.110521] yes=37,no=38,missing=38
					37:leaf=-0.005550 
					38:leaf=-0.113159 
		4:[f2<-0.416580] yes=9,no=10,missing=10
			9:[f34<7846.000000] yes=19,no=20,missing=20
				19:[f17<64592.000000] yes=39,no=40,missing=40
					39:leaf=-0.048623 
					40:leaf=-0.104599 
				20:[f2<-0.449534] yes=41,no=42,missing=42
					41:leaf=-0.051175 
					42:leaf=-0.005208 
			10:[f37<7846.000000] yes=21,no=22,missing=22
				21:[f21<0.081288] yes=43,no=44,missing=44
					43:leaf=-0.073720 
					44:leaf=-0.010465 
				22:[f34<7846.000000] yes=45,no=46,missing=46
					45:leaf=-0.005731 
					46:leaf=0.008685 
	2:[f13<12.500000] yes=5,no=6,missing=6
		5:[f14<74.500000] yes=11,no=12,missing=12
			11:[f40<-1.047155] yes=23,no=24,missing=24
				23:[f15<0.132843] yes=47,no=48,missing=48
					47:leaf=-0.071219 
					48:leaf=-0.015183 
				24:[f3<-0.083787] yes=49,no=50,missing=50
					49:leaf=-0.006494 
					50:leaf=0.010652 
			12:[f14<76.500000] yes=25,no=26,missing=26
				25:[f7<0.177377] yes=51,no=52,missing=52
					51:leaf=-0.150701 
					52:leaf=-0.065271 
				26:[f40<-0.503440] yes=53,no=54,missing=54
					53:leaf=0.025913 
					54:leaf=-0.040537 
		6:[f1<-0.203882] yes=13,no=14,missing=14
			13:[f40<-0.046936] yes=27,no=28,missing=28
				27:[f2<-0.270821] yes=55,no=56,missing=56
					55:leaf=-0.010048 
					56:leaf=0.020386 
				28:[f13<207.500000] yes=57,no=58,missing=58
					57:leaf=0.022030 
					58:leaf=0.041713 
			14:[f12<0.088933] yes=29,no=30,missing=30
				29:[f1<6.295983] yes=59,no=60,missing=60
					59:leaf=-0.009758 
					60:leaf=0.139202 
				30:[f8<0.124328] yes=61,no=62,missing=62
					61:leaf=0.024831 
					62:leaf=-0.009150 
booster[25]
0:[f7<0.450896] yes=1,no=2,missing=2
	1:[f40<-1.059357] yes=3,no=4,missing=4
		3:[f5<0.043587] yes=7,no=8,missing=8
			7:[f5<-0.566602] yes=15,no=16,missing=16
				15:[f9<0.121900] yes=31,no=32,missing=32
					31:leaf=-0.100301 
					32:leaf=-0.047365 
				16:[f16<922.000000] yes=33,no=34,missing=34
					33:leaf=-0.130485 
					34:leaf=-0.005672 
			8:[f11<3.500000] yes=17,no=18,missing=18
				17:[f18<0.087797] yes=35,no=36,missing=36
					35:leaf=-0.093878 
					36:leaf=-0.060479 
				18:[f2<-0.242527] yes=37,no=38,missing=38
					37:leaf=-0.087121 
					38:leaf=-0.001854 
		4:[f13<178.000000] yes=9,no=10,missing=10
			9:[f2<0.168489] yes=19,no=20,missing=20
				19:[f40<1.737095] yes=39,no=40,missing=40
					39:leaf=-0.004064 
					40:leaf=0.015602 
				20:[f36<0.086170] yes=41,no=42,missing=42
					41:leaf=-0.005151 
					42:leaf=-0.035580 
			10:[f1<0.713746] yes=21,no=22,missing=22
				21:[f14<8205.000000] yes=43,no=44,missing=44
					43:leaf=0.016679 
					44:leaf=-0.038333 
				22:[f10<3.500000] yes=45,no=46,missing=46
					45:leaf=-0.039418 
					46:leaf=0.041961 
	2:[f3<-0.542858] yes=5,no=6,missing=6
		5:[f3<-1.894138] yes=11,no=12,missing=12
			11:[f37<14786.000000] yes=23,no=24,missing=24
				23:[f8<-0.011127] yes=47,no=48,missing=48
					47:leaf=-0.068785 
					48:leaf=-0.161337 
				24:[f6<0.056931] yes=49,no=50,missing=50
					49:leaf=-0.006581 
					50:leaf=-0.094055 
			12:[f2<0.168724] yes=25,no=26,missing=26
				25:[f1<0.216698] yes=51,no=52,missing=52
					51:leaf=0.004162 
					52:leaf=-0.018782 
				26:[f15<0.147938] yes=53,no=54,missing=54
					53:leaf=-0.029365 
					54:leaf=0.022806 
		6:[f34<7846.000000] yes=13,no=14,missing=14
			13:[f2<-0.320665] yes=27,no=28,missing=28
				27:[f9<-0.436637] yes=55,no=56,missing=56
					55:leaf=-0.106059 
					56:leaf=-0.030058 
				28:[f8<2.107775] yes=57,no=58,missing=58
					57:leaf=0.007242 
					58:leaf=-0.033676 
			14:[f9<0.742567] yes=29,no=30,missing=30
				29:[f37<7846.000000] yes=59,no=60,missing=60
					59:leaf=-0.008503 
					60:leaf=0.018536 
				30:[f41<-0.288817] yes=61,no=62,missing=62
					61:leaf=-0.053951 
					62:leaf=-0.004780 
booster[26]
0:[f15<0.047257] yes=1,no=2,missing=2
	1:[f14<35.500000] yes=3,no=4,missing=4
		3:[f40<1.110118] yes=7,no=8,missing=8
			7:[f40<-1.319192] yes=15,no=16,missing=16
				15:[f8<-0.556172] yes=31,no=32,missing=32
					31:leaf=0.094909 
					32:leaf=-0.044514 
				16:[f9<-0.412500] yes=33,no=34,missing=34
					33:leaf=-0.031384 
					34:leaf=0.000296 
			8:[f16<4264.000000] yes=17,no=18,missing=18
				17:[f2<0.466159] yes=35,no=36,missing=36
					35:leaf=0.043678 
					36:leaf=-0.097090 
				18:[f40<1.140265] yes=37,no=38,missing=38
					37:leaf=0.095842 
					38:leaf=0.010857 
		4:[f15<0.014196] yes=9,no=10,missing=10
			9:[f14<133.000000] yes=19,no=20,missing=20
				19:[f33<0.080053] yes=39,no=40,missing=40
					39:leaf=-0.016602 
					40:leaf=-0.067576 
				20:[f40<2.594118] yes=41,no=42,missing=42
					41:leaf=-0.104945 
					42:leaf=0.221763 
			10:[f41<-0.288817] yes=21,no=22,missing=22
				21:[f3<-1.326336] yes=43,no=44,missing=44
					43:leaf=-0.058912 
					44:leaf=-0.022016 
				22:[f8<0.630672] yes=45,no=46,missing=46
					45:leaf=0.005514 
					46:leaf=-0.040910 
	2:[f3<-0.933017] yes=5,no=6,missing=6
		5:[f10<0.500000] yes=11,no=12,missing=12
			11:[f11<20.500000] yes=23,no=24,missing=24
				23:[f3<-1.856790] yes=47,no=48,missing=48
					47:leaf=-0.038667 
					48:leaf=-0.008235 
				24:[f3<-1.950906] yes=49,no=50,missing=50
					49:leaf=0.031027 
					50:leaf=-0.133129 
			12:[f41<7.403708] yes=25,no=26,missing=26
				25:[f16<2925.500000] yes=51,no=52,missing=52
					51:leaf=0.037327 
					52:leaf=0.005167 
				26:[f41<10.237797] yes=53,no=54,missing=54
					53:leaf=-0.173976 
					54:leaf=0.007914 
		6:[f37<7846.000000] yes=13,no=14,missing=14
			13:[f27<0.081301] yes=27,no=28,missing=28
				27:[f2<-0.059734] yes=55,no=56,missing=56
					55:leaf=-0.088280 
					56:leaf=-0.033422 
				28:[f40<-0.887809] yes=57,no=58,missing=58
					57:leaf=-0.037404 
					58:leaf=-0.001968 
			14:[f9<-0.388185] yes=29,no=30,missing=30
				29:[f34<7846.000000] yes=59,no=60,missing=60
					59:leaf=-0.037008 
					60:leaf=-0.002881 
				30:[f18<0.075194] yes=61,no=62,missing=62
					61:leaf=-0.000255 
					62:leaf=0.012747 
booster[27]
0:[f7<0.970229] yes=1,no=2,missing=2
	1:[f8<2.107775] yes=3,no=4,missing=4
		3:[f40<-1.317398] yes=7,no=8,missing=8
			7:[f5<0.043587] yes=15,no=16,missing=16
				15:[f5<-0.631184] yes=31,no=32,missing=32
					31:leaf=-0.083704 
					32:leaf=-0.005335 
				16:[f40<-1.370154] yes=33,no=34,missing=34
					33:leaf=-0.046768 
					34:leaf=-0.114403 
			8:[f18<0.075194] yes=17,no=18,missing=18
				17:[f2<1.265299] yes=35,no=36,missing=36
					35:leaf=-0.006578 
					36:leaf=-0.054157 
				18:[f34<7846.000000] yes=37,no=38,missing=38
					37:leaf=-0.006214 
					38:leaf=0.006919 
		4:[f12<0.044466] yes=9,no=10,missing=10
			9:[f1<1.134326] yes=19,no=20,missing=20
				19:[f8<5.300641] yes=39,no=40,missing=40
					39:leaf=-0.024091 
					40:leaf=-0.064055 
				20:[f40<-1.164332] yes=41,no=42,missing=42
					41:leaf=-0.045347 
					42:leaf=-0.136819 
			10:[f15<0.019708] yes=21,no=22,missing=22
				21:[f6<-0.428828] yes=43,no=44,missing=44
					43:leaf=0.081632 
					44:leaf=0.209945 
				22:[f15<0.056319] yes=45,no=46,missing=46
					45:leaf=-0.124827 
					46:leaf=0.016187 
	2:[f36<0.072279] yes=5,no=6,missing=6
		5:[f2<-0.312929] yes=11,no=12,missing=12
			11:[f6<0.741981] yes=23,no=24,missing=24
				23:[f18<0.088453] yes=47,no=48,missing=48
					47:leaf=-0.097772 
					48:leaf=-0.033939 
				24:[f11<1.500000] yes=49,no=50,missing=50
					49:leaf=-0.038976 
					50:leaf=0.046276 
			12:[f1<0.407870] yes=25,no=26,missing=26
				25:[f40<2.216568] yes=51,no=52,missing=52
					51:leaf=-0.002113 
					52:leaf=0.046047 
				26:[f12<0.042572] yes=53,no=54,missing=54
					53:leaf=-0.095438 
					54:leaf=-0.016047 
		6:[f6<-0.348086] yes=13,no=14,missing=14
			13:[f40<-1.151950] yes=27,no=28,missing=28
				27:[f5<0.129982] yes=55,no=56,missing=56
					55:leaf=-0.014817 
					56:leaf=-0.088634 
				28:[f1<1.784312] yes=57,no=58,missing=58
					57:leaf=0.007030 
					58:leaf=-0.038024 
			14:[f2<-0.452745] yes=29,no=30,missing=30
				29:[f3<0.398213] yes=59,no=60,missing=60
					59:leaf=-0.165629 
					60:leaf=-0.028396 
				30:[f9<0.479694] yes=61,no=62,missing=62
					61:leaf=0.019526 
					62:leaf=-0.006849 
booster[28]
0:[f9<-0.429151] yes=1,no=2,missing=2
	1:[f34<7846.000000] yes=3,no=4,missing=4
		3:[f7<-1.281739] yes=7,no=8,missing=8
			7:[f4<0.209491] yes=15,no=16,missing=16
				15:[f13<3.500000] yes=31,no=32,missing=32
					31:leaf=-0.129264 
					32:leaf=-0.004170 
				16:[f11<1.500000] yes=33,no=34,missing=34
					33:leaf=-0.003723 
					34:leaf=0.185346 
			8:[f9<-0.437140] yes=17,no=18,missing=18
				17:[f40<0.414773] yes=35,no=36,missing=36
					35:leaf=-0.107837 
					36:leaf=-0.057209 
				18:[f1<3.122520] yes=37,no=38,missing=38
					37:leaf=-0.051466 
					38:leaf=0.093342 
		4:[f2<-0.462775] yes=9,no=10,missing=10
			9:[f8<-0.382015] yes=19,no=20,missing=20
				19:leaf=-0.141727 
				20:[f8<-0.207859] yes=41,no=42,missing=42
					41:leaf=-0.004323 
					42:leaf=-0.140326 
			10:[f40<0.056065] yes=21,no=22,missing=22
				21:[f37<7846.000000] yes=43,no=44,missing=44
					43:leaf=-0.085144 
					44:leaf=-0.021418 
				22:[f8<1.185392] yes=45,no=46,missing=46
					45:leaf=0.006517 
					46:leaf=-0.104382 
	2:[f15<0.056652] yes=5,no=6,missing=6
		5:[f2<-0.110114] yes=11,no=12,missing=12
			11:[f34<7846.000000] yes=23,no=24,missing=24
				23:[f12<0.018976] yes=47,no=48,missing=48
					47:leaf=-0.015718 
					48:leaf=0.028634 
				24:[f40<1.029727] yes=49,no=50,missing=50
					49:leaf=0.003920 
					50:leaf=0.027449 
			12:[f14<6.500000] yes=25,no=26,missing=26
				25:[f7<1.071588] yes=51,no=52,missing=52
					51:leaf=-0.003541 
					52:leaf=0.021615 
				26:[f15<0.028437] yes=53,no=54,missing=54
					53:leaf=-0.031450 
					54:leaf=-0.009014 
		6:[f40<1.759346] yes=13,no=14,missing=14
			13:[f37<14786.000000] yes=27,no=28,missing=28
				27:[f1<0.178463] yes=55,no=56,missing=56
					55:leaf=-0.000351 
					56:leaf=-0.021997 
				28:[f40<-1.104936] yes=57,no=58,missing=58
					57:leaf=-0.016488 
					58:leaf=0.012795 
			14:[f1<1.401967] yes=29,no=30,missing=30
				29:[f2<1.196081] yes=59,no=60,missing=60
					59:leaf=0.022777 
					60:leaf=-0.037781 
				30:[f2<-0.283113] yes=61,no=62,missing=62
					61:leaf=-0.132571 
					62:leaf=-0.022523 
booster[29]
0:[f7<-0.689272] yes=1,no=2,missing=2
	1:[f8<2.501240] yes=3,no=4,missing=4
		3:[f15<0.138616] yes=7,no=8,missing=8
			7:[f40<2.135460] yes=15,no=16,missing=16
				15:[f9<-0.095809] yes=31,no=32,missing=32
					31:leaf=-0.005582 
					32:leaf=-0.017647 
				16:[f8<-0.504570] yes=33,no=34,missing=34
					33:leaf=0.093572 
					34:leaf=0.014609 
			8:[f6<-0.101813] yes=17,no=18,missing=18
				17:[f14<102.000000] yes=35,no=36,missing=36
					35:leaf=-0.025261 
					36:leaf=0.011159 
				18:[f15<0.519231] yes=37,no=38,missing=38
					37:leaf=0.019487 
					38:leaf=-0.118886 
		4:[f40<-1.002294] yes=9,no=10,missing=10
			9:[f1<-0.280351] yes=19,no=20,missing=20
				19:[f40<-1.503660] yes=39,no=40,missing=40
					39:leaf=-0.042043 
					40:leaf=-0.153445 
				20:[f2<-0.067094] yes=41,no=42,missing=42
					41:leaf=-0.129531 
					42:leaf=0.042908 
			10:[f3<-0.814725] yes=21,no=22,missing=22
				21:[f7<-0.908708] yes=43,no=44,missing=44
					43:leaf=-0.043408 
					44:leaf=-0.146475 
				22:[f6<-1.564489] yes=45,no=46,missing=46
					45:leaf=0.028574 
					46:leaf=-0.030759 
	2:[f18<0.093903] yes=5,no=6,missing=6
		5:[f12<0.046967] yes=11,no=12,missing=12
			11:[f11<4.500000] yes=23,no=24,missing=24
				23:[f13<159.000000] yes=47,no=48,missing=48
					47:leaf=-0.002622 
					48:leaf=0.011434 
				24:[f27<0.081301] yes=49,no=50,missing=50
					49:leaf=-0.051255 
					50:leaf=-0.006022 
			12:[f22<15082.000000] yes=25,no=26,missing=26
				25:[f12<0.255435] yes=51,no=52,missing=52
					51:leaf=-0.010794 
					52:leaf=0.013842 
				26:[f11<46.500000] yes=53,no=54,missing=54
					53:leaf=0.022410 
					54:leaf=0.088938 
		6:[f4<3.368545] yes=13,no=14,missing=14
			13:[f33<0.083242] yes=27,no=28,missing=28
				27:[f1<-0.356820] yes=55,no=56,missing=56
					55:leaf=0.010810 
					56:leaf=-0.006729 
				28:[f9<-0.322501] yes=57,no=58,missing=58
					57:leaf=-0.003395 
					58:leaf=0.022474 
			14:[f3<-1.716563] yes=29,no=30,missing=30
				29:[f11<14.500000] yes=59,no=60,missing=60
					59:leaf=-0.176187 
					60:leaf=0.056924 
				30:[f1<-0.280351] yes=61,no=62,missing=62
					61:leaf=0.049878 
					62:leaf=0.013883 
booster[30]
0:[f3<0.669119] yes=1,no=2,missing=2
	1:[f2<1.744714] yes=3,no=4,missing=4
		3:[f34<7846.000000] yes=7,no=8,missing=8
			7:[f2<-0.368894] yes=15,no=16,missing=16
				15:[f2<-0.452899] yes=31,no=32,missing=32
					31:leaf=-0.116023 
					32:leaf=-0.032102 
				16:[f40<-0.332969] yes=33,no=34,missing=34
					33:leaf=-0.016987 
					34:leaf=-0.002379 
			8:[f2<0.093976] yes=17,no=18,missing=18
				17:[f40<0.888325] yes=35,no=36,missing=36
					35:leaf=0.001176 
					36:leaf=0.017551 
				18:[f13<193.000000] yes=37,no=38,missing=38
					37:leaf=-0.019131 
					38:leaf=0.013608 
		4:[f41<-0.086382] yes=9,no=10,missing=10
			9:[f8<-0.414266] yes=19,no=20,missing=20
				19:[f14<345.500000] yes=39,no=40,missing=40
					39:leaf=-0.099203 
					40:leaf=0.025957 
				20:[f22<7846.000000] yes=41,no=42,missing=42
					41:leaf=0.038457 
					42:leaf=-0.118104 
			10:[f33<0.091024] yes=21,no=22,missing=22
				21:[f8<-0.485219] yes=43,no=44,missing=44
					43:leaf=0.075719 
					44:leaf=-0.058106 
				22:[f14<41.500000] yes=45,no=46,missing=46
					45:leaf=0.178210 
					46:leaf=0.024245 
	2:[f1<-0.356820] yes=5,no=6,missing=6
		5:[f2<0.097281] yes=11,no=12,missing=12
			11:[f6<-0.740663] yes=23,no=24,missing=24
				23:[f14<82.500000] yes=47,no=48,missing=48
					47:leaf=0.011584 
					48:leaf=-0.020873 
				24:[f4<2.432528] yes=49,no=50,missing=50
					49:leaf=0.017796 
					50:leaf=0.051263 
			12:[f13<166.500000] yes=25,no=26,missing=26
				25:[f14<1254.500000] yes=51,no=52,missing=52
					51:leaf=-0.003544 
					52:leaf=-0.062177 
				26:[f9<0.099412] yes=53,no=54,missing=54
					53:leaf=-0.151859 
					54:leaf=0.025763 
		6:[f37<14786.000000] yes=13,no=14,missing=14
			13:[f1<4.709251] yes=27,no=28,missing=28
				27:[f40<-1.368360] yes=55,no=56,missing=56
					55:leaf=0.040888 
					56:leaf=-0.007881 
				28:[f3<1.964232] yes=57,no=58,missing=58
					57:leaf=-0.120561 
					58:leaf=0.116770 
			14:[f40<0.779224] yes=29,no=30,missing=30
				29:[f40<-1.291199] yes=59,no=60,missing=60
					59:leaf=-0.031198 
					60:leaf=0.018121 
				30:[f17<65269.000000] yes=61,no=62,missing=62
					61:leaf=-0.010002 
					62:leaf=-0.061611 
booster[31]
0:[f28<7846.000000] yes=1,no=2,missing=2
	1:[f1<-0.395054] yes=3,no=4,missing=4
		3:[f15<0.048427] yes=7,no=8,missing=8
			7:[f37<7846.000000] yes=15,no=16,missing=16
				15:leaf=-0.098350 
				16:[f3<-0.778901] yes=31,no=32,missing=32
					31:leaf=0.094928 
					32:leaf=0.046305 
			8:[f6<-0.593126] yes=17,no=18,missing=18
				17:[f40<-1.112293] yes=33,no=34,missing=34
					33:leaf=-0.099812 
					34:leaf=0.010806 
				18:[f10<0.500000] yes=35,no=36,missing=36
					35:leaf=0.024552 
					36:leaf=0.064212 
		4:[f37<14786.000000] yes=9,no=10,missing=10
			9:[f8<3.346220] yes=19,no=20,missing=20
				19:[f15<0.045783] yes=37,no=38,missing=38
					37:leaf=-0.060471 
					38:leaf=-0.000675 
				20:leaf=-0.205510 
			10:[f40<0.985046] yes=21,no=22,missing=22
				21:[f5<0.326851] yes=41,no=42,missing=42
					41:leaf=0.030669 
					42:leaf=0.004200 
				22:[f41<0.116053] yes=43,no=44,missing=44
					43:leaf=-0.106844 
					44:leaf=0.002766 
	2:[f3<-1.506820] yes=5,no=6,missing=6
		5:[f8<-0.504570] yes=11,no=12,missing=12
			11:[f2<-0.264299] yes=23,no=24,missing=24
				23:[f14<136.500000] yes=45,no=46,missing=46
					45:leaf=0.018459 
					46:leaf=-0.074676 
				24:[f7<-0.132130] yes=47,no=48,missing=48
					47:leaf=0.072501 
					48:leaf=0.002246 
			12:[f40<1.910078] yes=25,no=26,missing=26
				25:[f13<6.500000] yes=49,no=50,missing=50
					49:leaf=-0.039302 
					50:leaf=-0.017642 
				26:[f1<1.401967] yes=51,no=52,missing=52
					51:leaf=0.014283 
					52:leaf=-0.152460 
		6:[f18<0.093903] yes=13,no=14,missing=14
			13:[f40<-1.536678] yes=27,no=28,missing=28
				27:[f41<-0.288817] yes=53,no=54,missing=54
					53:leaf=-0.069465 
					54:leaf=-0.018085 
				28:[f2<0.750853] yes=55,no=56,missing=56
					55:leaf=-0.001213 
					56:leaf=-0.028158 
			14:[f2<-0.452955] yes=29,no=30,missing=30
				29:[f3<1.569546] yes=57,no=58,missing=58
					57:leaf=-0.095877 
					58:leaf=0.074409 
				30:[f33<0.083242] yes=59,no=60,missing=60
					59:leaf=0.003045 
					60:leaf=0.018003 
booster[32]
0:[f15<0.138616] yes=1,no=2,missing=2
	1:[f7<-1.026605] yes=3,no=4,missing=4
		3:[f2<0.192573] yes=7,no=8,missing=8
			7:[f40<-0.287390] yes=15,no=16,missing=16
				15:[f9<-0.416075] yes=31,no=32,missing=32
					31:leaf=-0.058621 
					32:leaf=-0.013162 
				16:[f1<4.193086] yes=33,no=34,missing=34
					33:leaf=-0.003262 
					34:leaf=-0.089776 
			8:[f13<161.500000] yes=17,no=18,missing=18
				17:[f13<114.500000] yes=35,no=36,missing=36
					35:leaf=-0.033849 
					36:leaf=-0.129167 
				18:[f9<0.197635] yes=37,no=38,missing=38
					37:leaf=-0.200626 
					38:leaf=0.003191 
		4:[f1<-0.356820] yes=9,no=10,missing=10
			9:[f2<0.081488] yes=19,no=20,missing=20
				19:[f34<7846.000000] yes=39,no=40,missing=40
					39:leaf=-0.003488 
					40:leaf=0.014153 
				20:[f41<-0.288817] yes=41,no=42,missing=42
					41:leaf=-0.011200 
					42:leaf=0.022541 
			10:[f12<0.031754] yes=21,no=22,missing=22
				21:[f11<20.500000] yes=43,no=44,missing=44
					43:leaf=-0.007321 
					44:leaf=-0.048164 
				22:[f28<13987.000000] yes=45,no=46,missing=46
					45:leaf=-0.003546 
					46:leaf=0.020229 
	2:[f13<3.500000] yes=5,no=6,missing=6
		5:[f1<-0.165647] yes=11,no=12,missing=12
			11:[f3<1.228166] yes=23,no=24,missing=24
				23:[f2<1.668413] yes=47,no=48,missing=48
					47:leaf=-0.008379 
					48:leaf=-0.179857 
				24:[f6<1.139463] yes=49,no=50,missing=50
					49:leaf=0.028083 
					50:leaf=-0.088033 
			12:[f13<2.500000] yes=25,no=26,missing=26
				25:[f12<0.583333] yes=51,no=52,missing=52
					51:leaf=-0.087089 
					52:leaf=0.099428 
				26:[f6<-0.453977] yes=53,no=54,missing=54
					53:leaf=-0.103210 
					54:leaf=0.038441 
		6:[f11<79.500000] yes=13,no=14,missing=14
			13:[f40<0.950054] yes=27,no=28,missing=28
				27:[f2<-0.437994] yes=55,no=56,missing=56
					55:leaf=-0.044224 
					56:leaf=0.013225 
				28:[f2<2.776269] yes=57,no=58,missing=58
					57:leaf=0.033353 
					58:leaf=-0.208817 
			14:[f41<6.492751] yes=29,no=30,missing=30
				29:[f41<5.379359] yes=59,no=60,missing=60
					59:leaf=0.156036 
					60:leaf=0.044126 
				30:leaf=-0.185521 
booster[33]
0:[f28<7846.000000] yes=1,no=2,missing=2
	1:[f6<-0.710436] yes=3,no=4,missing=4
		3:[f40<1.072076] yes=7,no=8,missing=8
			7:[f40<-0.990810] yes=15,no=16,missing=16
				15:[f9<0.146210] yes=31,no=32,missing=32
					31:leaf=-0.022467 
					32:leaf=-0.148558 
				16:[f16<3965.000000] yes=33,no=34,missing=34
					33:leaf=0.031730 
					34:leaf=-0.005966 
			8:[f7<-0.394263] yes=17,no=18,missing=18
				17:[f3<-1.285063] yes=35,no=36,missing=36
					35:leaf=0.013094 
					36:leaf=-0.210536 
				18:[f15<0.076125] yes=37,no=38,missing=38
					37:leaf=-0.146249 
					38:leaf=0.004218 
		4:[f40<-0.367781] yes=9,no=10,missing=10
			9:[f7<0.514586] yes=19,no=20,missing=20
				19:[f12<0.387500] yes=39,no=40,missing=40
					39:leaf=-0.005806 
					40:leaf=0.047322 
				20:[f40<-1.581718] yes=41,no=42,missing=42
					41:leaf=-0.173963 
					42:leaf=0.021771 
			10:[f41<5.581794] yes=21,no=22,missing=22
				21:[f1<-0.395054] yes=43,no=44,missing=44
					43:leaf=0.031213 
					44:leaf=0.016298 
				22:[f7<0.318104] yes=45,no=46,missing=46
					45:leaf=0.046885 
					46:leaf=-0.190611 
	2:[f40<1.792004] yes=5,no=6,missing=6
		5:[f12<0.020204] yes=11,no=12,missing=12
			11:[f1<1.325498] yes=23,no=24,missing=24
				23:[f4<1.379511] yes=47,no=48,missing=48
					47:leaf=-0.004474 
					48:leaf=0.013547 
				24:[f41<2.950141] yes=49,no=50,missing=50
					49:leaf=-0.047078 
					50:leaf=0.003067 
			12:[f28<13987.000000] yes=25,no=26,missing=26
				25:[f12<0.255435] yes=51,no=52,missing=52
					51:leaf=-0.012416 
					52:leaf=0.009804 
				26:[f11<26.500000] yes=53,no=54,missing=54
					53:leaf=0.010807 
					54:leaf=0.047274 
		6:[f39<0.083810] yes=13,no=14,missing=14
			13:[f15<0.047257] yes=27,no=28,missing=28
				27:[f14<57.000000] yes=55,no=56,missing=56
					55:leaf=-0.001601 
					56:leaf=-0.091285 
				28:[f41<3.355011] yes=57,no=58,missing=58
					57:leaf=-0.014574 
					58:leaf=0.099626 
			14:[f1<1.784312] yes=29,no=30,missing=30
				29:[f2<-0.441323] yes=59,no=60,missing=60
					59:leaf=-0.058800 
					60:leaf=0.018287 
				30:[f11<50.500000] yes=61,no=62,missing=62
					61:leaf=-0.088806 
					62:leaf=0.002241 
booster[34]
0:[f3<0.676407] yes=1,no=2,missing=2
	1:[f2<1.744714] yes=3,no=4,missing=4
		3:[f40<-1.536678] yes=7,no=8,missing=8
			7:[f6<-0.101813] yes=15,no=16,missing=16
				15:[f40<-1.615992] yes=31,no=32,missing=32
					31:leaf=-0.105105 
					32:leaf=-0.052149 
				16:[f41<0.520922] yes=33,no=34,missing=34
					33:leaf=-0.033581 
					34:leaf=0.061379 
			8:[f18<0.075194] yes=17,no=18,missing=18
				17:[f41<-0.288817] yes=35,no=36,missing=36
					35:leaf=-0.014484 
					36:leaf=0.001185 
				18:[f9<-0.308262] yes=37,no=38,missing=38
					37:leaf=-0.008386 
					38:leaf=0.004007 
		4:[f8<-0.440067] yes=9,no=10,missing=10
			9:[f15<0.056528] yes=19,no=20,missing=20
				19:[f2<15.231587] yes=39,no=40,missing=40
					39:leaf=-0.108969 
					40:leaf=0.169822 
				20:[f15<0.078101] yes=41,no=42,missing=42
					41:leaf=0.120046 
					42:leaf=-0.015118 
			10:[f2<6.473953] yes=21,no=22,missing=22
				21:[f15<0.159052] yes=43,no=44,missing=44
					43:leaf=-0.078295 
					44:leaf=0.019360 
				22:[f24<0.074376] yes=45,no=46,missing=46
					45:leaf=0.099715 
					46:leaf=-0.168109 
	2:[f13<47.500000] yes=5,no=6,missing=6
		5:[f14<417.500000] yes=11,no=12,missing=12
			11:[f8<0.604871] yes=23,no=24,missing=24
				23:[f33<0.078822] yes=47,no=48,missing=48
					47:leaf=-0.002198 
					48:leaf=0.009815 
				24:[f4<0.794501] yes=49,no=50,missing=50
					49:leaf=-0.016221 
					50:leaf=0.020862 
			12:[f2<0.079694] yes=25,no=26,missing=26
				25:[f31<5226.000000] yes=51,no=52,missing=52
					51:leaf=0.005316 
					52:leaf=-0.055822 
				26:[f16<93.500000] yes=53,no=54,missing=54
					53:leaf=0.211790 
					54:leaf=-0.089249 
		6:[f11<3.500000] yes=13,no=14,missing=14
			13:[f15<0.090476] yes=27,no=28,missing=28
				27:[f14<1213.500000] yes=55,no=56,missing=56
					55:leaf=0.023125 
					56:leaf=-0.001749 
				28:[f5<0.702181] yes=57,no=58,missing=58
					57:leaf=0.030317 
					58:leaf=0.004853 
			14:[f12<0.057983] yes=29,no=30,missing=30
				29:[f37<14786.000000] yes=59,no=60,missing=60
					59:leaf=-0.056458 
					60:leaf=-0.002587 
				30:[f2<-0.035848] yes=61,no=62,missing=62
					61:leaf=-0.002414 
					62:leaf=0.044235 
booster[35]
0:[f34<7846.000000] yes=1,no=2,missing=2
	1:[f2<-0.368271] yes=3,no=4,missing=4
		3:[f9<-0.441013] yes=7,no=8,missing=8
			7:[f4<0.209491] yes=15,no=16,missing=16
				15:[f28<7846.000000] yes=31,no=32,missing=32
					31:leaf=0.035970 
					32:leaf=-0.093035 
				16:[f7<-0.488552] yes=33,no=34,missing=34
					33:leaf=0.098044 
					34:leaf=-0.086507 
			8:[f12<0.018976] yes=17,no=18,missing=18
				17:[f32<32886.000000] yes=35,no=36,missing=36
					35:leaf=-0.055909 
					36:leaf=-0.025997 
				18:[f15<0.160332] yes=37,no=38,missing=38
					37:leaf=0.019616 
					38:leaf=-0.115115 
		4:[f2<0.004232] yes=9,no=10,missing=10
			9:[f7<-0.689272] yes=19,no=20,missing=20
				19:[f8<-0.014352] yes=39,no=40,missing=40
					39:leaf=-0.011478 
					40:leaf=-0.032865 
				20:[f3<-2.106883] yes=41,no=42,missing=42
					41:leaf=-0.089152 
					42:leaf=-0.003648 
			10:[f40<-1.089504] yes=21,no=22,missing=22
				21:[f11<1.500000] yes=43,no=44,missing=44
					43:leaf=-0.052623 
					44:leaf=0.006917 
				22:[f1<0.560808] yes=45,no=46,missing=46
					45:leaf=0.010822 
					46:leaf=-0.024186 
	2:[f13<150.500000] yes=5,no=6,missing=6
		5:[f9<-0.100279] yes=11,no=12,missing=12
			11:[f40<0.943953] yes=23,no=24,missing=24
				23:[f9<-0.435684] yes=47,no=48,missing=48
					47:leaf=-0.021769 
					48:leaf=0.005333 
				24:[f11<0.500000] yes=49,no=50,missing=50
					49:leaf=0.033203 
					50:leaf=0.005255 
			12:[f13<136.000000] yes=25,no=26,missing=26
				25:[f12<0.594118] yes=51,no=52,missing=52
					51:leaf=-0.007960 
					52:leaf=0.036302 
				26:[f40<-0.590650] yes=53,no=54,missing=54
					53:leaf=-0.005598 
					54:leaf=-0.118436 
		6:[f37<7846.000000] yes=13,no=14,missing=14
			13:[f27<0.081301] yes=27,no=28,missing=28
				27:[f11<31.500000] yes=55,no=56,missing=56
					55:leaf=-0.101602 
					56:leaf=0.030297 
				28:[f1<4.575431] yes=57,no=58,missing=58
					57:leaf=-0.013804 
					58:leaf=-0.140459 
			14:[f1<-0.012709] yes=29,no=30,missing=30
				29:[f2<-0.310235] yes=59,no=60,missing=60
					59:leaf=0.005210 
					60:leaf=0.025312 
				30:[f9<-0.411359] yes=61,no=62,missing=62
					61:leaf=-0.047663 
					62:leaf=0.002943 
booster[36]
0:[f9<-0.435779] yes=1,no=2,missing=2
	1:[f34<7846.000000] yes=3,no=4,missing=4
		3:[f7<-0.908708] yes=7,no=8,missing=8
			7:[f6<0.460862] yes=15,no=16,missing=16
				15:[f31<5864.500000] yes=31,no=32,missing=32
					31:leaf=-0.089982 
					32:leaf=0.026058 
				16:[f14<30.500000] yes=33,no=34,missing=34
					33:leaf=-0.148674 
					34:leaf=0.097924 
			8:[f18<0.079842] yes=17,no=18,missing=18
				17:[f4<-0.258518] yes=35,no=36,missing=36
					35:leaf=-0.063111 
					36:leaf=0.095043 
				18:[f28<7846.000000] yes=37,no=38,missing=38
					37:leaf=-0.000130 
					38:leaf=-0.094300 
		4:[f2<-0.463132] yes=9,no=10,missing=10
			9:[f2<-0.515873] yes=19,no=20,missing=20
				19:leaf=-0.000005 
				20:[f7<0.917866] yes=39,no=40,missing=40
					39:leaf=-0.135066 
					40:leaf=-0.065032 
			10:[f4<3.368545] yes=21,no=22,missing=22
				21:[f7<-1.725222] yes=41,no=42,missing=42
					41:leaf=-0.075281 
					42:leaf=-0.013213 
				22:[f2<-0.452696] yes=43,no=44,missing=44
					43:leaf=0.250324 
					44:leaf=0.122829 
	2:[f8<2.127126] yes=5,no=6,missing=6
		5:[f3<-0.984946] yes=11,no=12,missing=12
			11:[f40<2.354023] yes=23,no=24,missing=24
				23:[f41<0.116053] yes=45,no=46,missing=46
					45:leaf=-0.010867 
					46:leaf=0.004162 
				24:[f2<-0.408098] yes=47,no=48,missing=48
					47:leaf=-0.194950 
					48:leaf=0.046726 
			12:[f2<0.771484] yes=25,no=26,missing=26
				25:[f34<7846.000000] yes=49,no=50,missing=50
					49:leaf=-0.002171 
					50:leaf=0.006189 
				26:[f41<-0.288817] yes=51,no=52,missing=52
					51:leaf=-0.050849 
					52:leaf=-0.006428 
		6:[f12<0.075499] yes=13,no=14,missing=14
			13:[f1<1.134326] yes=27,no=28,missing=28
				27:[f6<0.933478] yes=53,no=54,missing=54
					53:leaf=-0.023771 
					54:leaf=0.000237 
				28:[f15<0.089810] yes=55,no=56,missing=56
					55:leaf=-0.034867 
					56:leaf=-0.135817 
			14:[f15<0.019708] yes=29,no=30,missing=30
				29:[f3<0.576707] yes=57,no=58,missing=58
					57:leaf=0.057673 
					58:leaf=0.179771 
				30:[f14<13.500000] yes=59,no=60,missing=60
					59:leaf=-0.230926 
					60:leaf=0.009651 
booster[37]
0:[f7<-0.586774] yes=1,no=2,missing=2
	1:[f40<-0.253296] yes=3,no=4,missing=4
		3:[f2<-0.452899] yes=7,no=8,missing=8
			7:[f3<-2.090973] yes=15,no=16,missing=16
				15:leaf=0.146815 
				16:[f19<7846.000000] yes=31,no=32,missing=32
					31:leaf=-0.029605 
					32:leaf=-0.142822 
			8:[f5<1.571458] yes=17,no=18,missing=18
				17:[f5<-0.376931] yes=33,no=34,missing=34
					33:leaf=-0.029543 
					34:leaf=-0.006292 
				18:[f40<-1.038901] yes=35,no=36,missing=36
					35:leaf=-0.076466 
					36:leaf=-0.018553 
		4:[f9<-0.132734] yes=9,no=10,missing=10
			9:[f34<7846.000000] yes=19,no=20,missing=20
				19:[f4<-0.258518] yes=37,no=38,missing=38
					37:leaf=-0.015895 
					38:leaf=0.007395 
				20:[f8<-0.414266] yes=39,no=40,missing=40
					39:leaf=0.017400 
					40:leaf=0.001932 
			10:[f13<178.000000] yes=21,no=22,missing=22
				21:[f13<136.000000] yes=41,no=42,missing=42
					41:leaf=-0.012297 
					42:leaf=-0.067779 
				22:[f1<0.254932] yes=43,no=44,missing=44
					43:leaf=0.020778 
					44:leaf=-0.039029 
	2:[f37<7846.000000] yes=5,no=6,missing=6
		5:[f25<15537.000000] yes=11,no=12,missing=12
			11:[f7<0.318104] yes=23,no=24,missing=24
				23:[f14<1172.000000] yes=45,no=46,missing=46
					45:leaf=-0.064060 
					46:leaf=-0.142184 
				24:[f1<-0.089178] yes=47,no=48,missing=48
					47:leaf=-0.008941 
					48:leaf=-0.082389 
			12:[f40<1.030804] yes=25,no=26,missing=26
				25:[f10<2.500000] yes=49,no=50,missing=50
					49:leaf=-0.006906 
					50:leaf=0.054604 
				26:[f3<1.644460] yes=51,no=52,missing=52
					51:leaf=-0.105955 
					52:leaf=0.062024 
		6:[f16<4264.000000] yes=13,no=14,missing=14
			13:[f40<-1.525911] yes=27,no=28,missing=28
				27:[f41<0.520922] yes=53,no=54,missing=54
					53:leaf=-0.065042 
					54:leaf=0.016874 
				28:[f1<-0.165647] yes=55,no=56,missing=56
					55:leaf=0.013527 
					56:leaf=-0.000410 
			14:[f2<4.793202] yes=29,no=30,missing=30
				29:[f16<4471.000000] yes=57,no=58,missing=58
					57:leaf=-0.006969 
					58:leaf=0.003534 
				30:[f24<0.074376] yes=59,no=60,missing=60
					59:leaf=0.116250 
					60:leaf=-0.115430 
booster[38]
0:[f12<0.386752] yes=1,no=2,missing=2
	1:[f3<-0.984946] yes=3,no=4,missing=4
		3:[f18<0.075194] yes=7,no=8,missing=8
			7:[f6<-0.508691] yes=15,no=16,missing=16
				15:[f41<0.116053] yes=31,no=32,missing=32
					31:leaf=-0.043998 
					32:leaf=0.003055 
				16:[f11<5.500000] yes=33,no=34,missing=34
					33:leaf=-0.003993 
					34:leaf=-0.061010 
			8:[f13<10.500000] yes=17,no=18,missing=18
				17:[f14<115.500000] yes=35,no=36,missing=36
					35:leaf=-0.009424 
					36:leaf=-0.046326 
				18:[f40<-0.047653] yes=37,no=38,missing=38
					37:leaf=-0.006427 
					38:leaf=0.009184 
		4:[f9<-0.405072] yes=9,no=10,missing=10
			9:[f6<-1.695689] yes=19,no=20,missing=20
				19:[f3<0.929259] yes=39,no=40,missing=40
					39:leaf=-0.058981 
					40:leaf=-0.178385 
				20:[f34<7846.000000] yes=41,no=42,missing=42
					41:leaf=-0.035748 
					42:leaf=-0.006615 
			10:[f2<0.483073] yes=21,no=22,missing=22
				21:[f15<0.045924] yes=43,no=44,missing=44
					43:leaf=-0.004064 
					44:leaf=0.005017 
				22:[f41<-0.288817] yes=45,no=46,missing=46
					45:leaf=-0.034484 
					46:leaf=0.002597 
	2:[f9<-0.307807] yes=5,no=6,missing=6
		5:[f6<1.082357] yes=11,no=12,missing=12
			11:[f1<0.675512] yes=23,no=24,missing=24
				23:[f41<0.318488] yes=47,no=48,missing=48
					47:leaf=-0.000972 
					48:leaf=0.037634 
				24:[f2<-0.407469] yes=49,no=50,missing=50
					49:leaf=0.009669 
					50:leaf=-0.114173 
			12:[f4<-0.024514] yes=25,no=26,missing=26
				25:[f5<-0.376931] yes=51,no=52,missing=52
					51:leaf=0.029269 
					52:leaf=-0.169751 
				26:[f40<-0.330277] yes=53,no=54,missing=54
					53:leaf=-0.210644 
					54:leaf=0.056505 
		6:[f10<1.500000] yes=13,no=14,missing=14
			13:[f1<-0.356820] yes=27,no=28,missing=28
				27:[f6<-0.897665] yes=55,no=56,missing=56
					55:leaf=-0.018883 
					56:leaf=0.036497 
				28:[f40<-1.432062] yes=57,no=58,missing=58
					57:leaf=-0.130981 
					58:leaf=0.004052 
			14:[f10<15.500000] yes=29,no=30,missing=30
				29:[f15<0.026061] yes=59,no=60,missing=60
					59:leaf=0.135391 
					60:leaf=0.038654 
				30:[f5<-0.193083] yes=61,no=62,missing=62
					61:leaf=-0.107298 
					62:leaf=0.060124 
booster[39]
0:[f40<1.632299] yes=1,no=2,missing=2
	1:[f37<14786.000000] yes=3,no=4,missing=4
		3:[f11<0.500000] yes=7,no=8,missing=8
			7:[f40<0.268886] yes=15,no=16,missing=16
				15:[f40<-0.458221] yes=31,no=32,missing=32
					31:leaf=0.006510 
					32:leaf=-0.020607 
				16:[f41<-0.288817] yes=33,no=34,missing=34
					33:leaf=0.005565 
					34:leaf=0.037524 
			8:[f12<0.053343] yes=17,no=18,missing=18
				17:[f5<0.215148] yes=35,no=36,missing=36
					35:leaf=-0.024513 
					36:leaf=0.009496 
				18:[f40<1.296201] yes=37,no=38,missing=38
					37:leaf=0.001851 
					38:leaf=-0.046974 
		4:[f40<-1.104936] yes=9,no=10,missing=10
			9:[f5<-0.103232] yes=19,no=20,missing=20
				19:[f5<-0.471016] yes=39,no=40,missing=40
					39:leaf=-0.075990 
					40:leaf=0.011800 
				20:[f6<-0.593126] yes=41,no=42,missing=42
					41:leaf=-0.087909 
					42:leaf=-0.046984 
			10:[f40<0.478476] yes=21,no=22,missing=22
				21:[f13<10.500000] yes=43,no=44,missing=44
					43:leaf=0.002061 
					44:leaf=0.015807 
				22:[f40<0.989532] yes=45,no=46,missing=46
					45:leaf=-0.008470 
					46:leaf=-0.028810 
	2:[f39<0.083810] yes=5,no=6,missing=6
		5:[f14<168.500000] yes=11,no=12,missing=12
			11:[f2<-0.137551] yes=23,no=24,missing=24
				23:[f2<-0.181526] yes=47,no=48,missing=48
					47:leaf=0.016610 
					48:leaf=0.083729 
				24:[f3<1.599140] yes=49,no=50,missing=50
					49:leaf=-0.047156 
					50:leaf=0.072994 
			12:[f22<7846.000000] yes=25,no=26,missing=26
				25:[f40<1.745708] yes=51,no=52,missing=52
					51:leaf=-0.178029 
					52:leaf=-0.085832 
				26:[f15<0.045308] yes=53,no=54,missing=54
					53:leaf=-0.079347 
					54:leaf=-0.023811 
		6:[f1<1.784312] yes=13,no=14,missing=14
			13:[f2<1.236389] yes=27,no=28,missing=28
				27:[f2<-0.441397] yes=55,no=56,missing=56
					55:leaf=-0.033894 
					56:leaf=0.018392 
				28:[f4<-0.024514] yes=57,no=58,missing=58
					57:leaf=0.000695 
					58:leaf=-0.097643 
			14:[f40<1.814614] yes=29,no=30,missing=30
				29:[f2<-0.316929] yes=59,no=60,missing=60
					59:leaf=-0.156742 
					60:leaf=0.077595 
				30:[f41<5.784229] yes=61,no=62,missing=62
					61:leaf=-0.115583 
					62:leaf=-0.023734 
booster[40]
0:[f28<1772.500000] yes=1,no=2,missing=2
	1:[f8<-0.401366] yes=3,no=4,missing=4
		3:[f15<0.065363] yes=7,no=8,missing=8
			7:[f5<-0.133033] yes=15,no=16,missing=16
				15:[f40<0.847233] yes=31,no=32,missing=32
					31:leaf=0.015869 
					32:leaf=-0.140992 
				16:[f33<0.079520] yes=33,no=34,missing=34
					33:leaf=-0.181639 
					34:leaf=-0.046509 
			8:[f11<9.500000] yes=17,no=18,missing=18
				17:[f40<-1.570413] yes=35,no=36,missing=36
					35:leaf=0.113241 
					36:leaf=0.012244 
				18:[f8<-0.459418] yes=37,no=38,missing=38
					37:leaf=0.020048 
					38:leaf=-0.130978 
		4:[f3<-1.829036] yes=9,no=10,missing=10
			9:[f1<-0.222999] yes=19,no=20,missing=20
				19:leaf=-0.201935 
				20:leaf=-0.079253 
			10:[f11<0.500000] yes=21,no=22,missing=22
				21:[f40<-1.585845] yes=39,no=40,missing=40
					39:leaf=-0.162635 
					40:leaf=0.017228 
				22:[f8<1.027361] yes=41,no=42,missing=42
					41:leaf=0.039508 
					42:leaf=-0.043758 
	2:[f40<1.771548] yes=5,no=6,missing=6
		5:[f10<1.500000] yes=11,no=12,missing=12
			11:[f1<-0.203882] yes=23,no=24,missing=24
				23:[f41<-0.288817] yes=43,no=44,missing=44
					43:leaf=-0.003075 
					44:leaf=0.009933 
				24:[f41<0.116053] yes=45,no=46,missing=46
					45:leaf=-0.018146 
					46:leaf=-0.001989 
			12:[f22<15082.000000] yes=25,no=26,missing=26
				25:[f1<0.063760] yes=47,no=48,missing=48
					47:leaf=0.023826 
					48:leaf=-0.006601 
				26:[f40<0.736875] yes=49,no=50,missing=50
					49:leaf=0.032284 
					50:leaf=-0.032845 
		6:[f39<0.083810] yes=13,no=14,missing=14
			13:[f12<0.047339] yes=27,no=28,missing=28
				27:[f41<3.355011] yes=51,no=52,missing=52
					51:leaf=-0.028925 
					52:leaf=0.127282 
				28:[f3<1.464688] yes=53,no=54,missing=54
					53:leaf=0.036565 
					54:leaf=-0.214160 
			14:[f2<-0.338726] yes=29,no=30,missing=30
				29:[f1<-0.318585] yes=55,no=56,missing=56
					55:leaf=0.003242 
					56:leaf=-0.033094 
				30:[f2<0.444800] yes=57,no=58,missing=58
					57:leaf=0.019176 
					58:leaf=-0.010530 
booster[41]
0:[f37<7846.000000] yes=1,no=2,missing=2
	1:[f30<0.076755] yes=3,no=4,missing=4
		3:[f2<-0.046037] yes=7,no=8,missing=8
			7:[f40<-1.117677] yes=15,no=16,missing=16
				15:[f8<-0.188508] yes=31,no=32,missing=32
					31:leaf=-0.061297 
					32:leaf=0.091179 
				16:[f1<7.041556] yes=33,no=34,missing=34
					33:leaf=-0.091836 
					34:leaf=0.086951 
			8:[f2<-0.038800] yes=17,no=18,missing=18
				17:[f6<0.648715] yes=35,no=36,missing=36
					35:leaf=-0.030157 
					36:leaf=0.138459 
				18:[f1<0.025525] yes=37,no=38,missing=38
					37:leaf=-0.014270 
					38:leaf=-0.091189 
		4:[f40<0.945030] yes=9,no=10,missing=10
			9:[f40<-0.887809] yes=19,no=20,missing=20
				19:[f11<5.500000] yes=39,no=40,missing=40
					39:leaf=-0.056228 
					40:leaf=0.031849 
				20:[f14<1258.500000] yes=41,no=42,missing=42
					41:leaf=0.007003 
					42:leaf=-0.018610 
			10:[f3<1.303697] yes=21,no=22,missing=22
				21:[f41<3.152576] yes=43,no=44,missing=44
					43:leaf=-0.088591 
					44:leaf=0.056736 
				22:[f15<0.041461] yes=45,no=46,missing=46
					45:leaf=-0.165699 
					46:leaf=0.063041 
	2:[f13<150.500000] yes=5,no=6,missing=6
		5:[f13<136.000000] yes=11,no=12,missing=12
			11:[f9<-0.093788] yes=23,no=24,missing=24
				23:[f36<0.072279] yes=47,no=48,missing=48
					47:leaf=-0.010174 
					48:leaf=0.006097 
				24:[f28<7846.000000] yes=49,no=50,missing=50
					49:leaf=0.019034 
					50:leaf=-0.006664 
			12:[f2<-0.153134] yes=25,no=26,missing=26
				25:[f2<-0.264256] yes=51,no=52,missing=52
					51:leaf=-0.059683 
					52:leaf=0.021539 
				26:[f3<-0.156677] yes=53,no=54,missing=54
					53:leaf=-0.118792 
					54:leaf=-0.055543 
		6:[f34<7846.000000] yes=13,no=14,missing=14
			13:[f9<-0.282246] yes=27,no=28,missing=28
				27:[f8<1.659484] yes=55,no=56,missing=56
					55:leaf=-0.021924 
					56:leaf=-0.120920 
				28:[f11<6.500000] yes=57,no=58,missing=58
					57:leaf=0.005935 
					58:leaf=-0.026747 
			14:[f1<0.101994] yes=29,no=30,missing=30
				29:[f14<8205.000000] yes=59,no=60,missing=60
					59:leaf=0.020240 
					60:leaf=-0.010301 
				30:[f14<3139.500000] yes=61,no=62,missing=62
					61:leaf=0.009219 
					62:leaf=-0.016463 
booster[42]
0:[f7<0.917866] yes=1,no=2,missing=2
	1:[f2<1.345082] yes=3,no=4,missing=4
		3:[f14<8205.000000] yes=7,no=8,missing=8
			7:[f8<2.127126] yes=15,no=16,missing=16
				15:[f9<-0.446949] yes=31,no=32,missing=32
					31:leaf=-0.033249 
					32:leaf=-0.000018 
				16:[f3<-0.657590] yes=33,no=34,missing=34
					33:leaf=-0.035428 
					34:leaf=-0.010917 
			8:[f18<0.075262] yes=17,no=18,missing=18
				17:[f7<0.514586] yes=35,no=36,missing=36
					35:leaf=-0.080783 
					36:leaf=-0.002300 
				18:[f10<2.500000] yes=37,no=38,missing=38
					37:leaf=-0.018223 
					38:leaf=0.080324 
		4:[f41<-0.288817] yes=9,no=10,missing=10
			9:[f1<0.943153] yes=19,no=20,missing=20
				19:[f8<-0.459418] yes=39,no=40,missing=40
					39:leaf=-0.004715 
					40:leaf=-0.083546 
				20:[f1<1.210795] yes=41,no=42,missing=42
					41:leaf=0.263354 
					42:leaf=0.030399 
			10:[f40<2.521982] yes=21,no=22,missing=22
				21:[f13<247.000000] yes=43,no=44,missing=44
					43:leaf=-0.034067 
					44:leaf=0.023430 
				22:[f1<-0.203882] yes=45,no=46,missing=46
					45:leaf=0.193511 
					46:leaf=0.074190 
	2:[f3<-1.947093] yes=5,no=6,missing=6
		5:[f6<-1.882333] yes=11,no=12,missing=12
			11:[f15<0.085355] yes=23,no=24,missing=24
				23:leaf=-0.135956 
				24:[f31<4554.500000] yes=47,no=48,missing=48
					47:leaf=0.006020 
					48:leaf=0.158505 
			12:[f34<11470.500000] yes=25,no=26,missing=26
				25:[f14<2.500000] yes=49,no=50,missing=50
					49:leaf=0.099684 
					50:leaf=-0.144583 
				26:[f15<0.123343] yes=51,no=52,missing=52
					51:leaf=-0.005753 
					52:leaf=-0.197480 
		6:[f6<-0.348086] yes=13,no=14,missing=14
			13:[f9<1.081924] yes=27,no=28,missing=28
				27:[f22<7846.000000] yes=53,no=54,missing=54
					53:leaf=-0.039868 
					54:leaf=0.000212 
				28:[f15<0.137474] yes=55,no=56,missing=56
					55:leaf=-0.093207 
					56:leaf=0.030540 
			14:[f34<11470.500000] yes=29,no=30,missing=30
				29:[f1<-0.318585] yes=57,no=58,missing=58
					57:leaf=0.010583 
					58:leaf=-0.004303 
				30:[f3<1.401475] yes=59,no=60,missing=60
					59:leaf=0.013532 
					60:leaf=0.036107 
booster[43]
0:[f3<1.562464] yes=1,no=2,missing=2
	1:[f40<1.662805] yes=3,no=4,missing=4
		3:[f34<11470.500000] yes=7,no=8,missing=8
			7:[f11<0.500000] yes=15,no=16,missing=16
				15:[f39<0.083810] yes=31,no=32,missing=32
					31:leaf=-0.011757 
					32:leaf=0.002257 
				16:[f22<15082.000000] yes=33,no=34,missing=34
					33:leaf=-0.016452 
					34:leaf=0.004533 
			8:[f40<-1.062228] yes=17,no=18,missing=18
				17:[f5<-0.133033] yes=35,no=36,missing=36
					35:leaf=-0.003925 
					36:leaf=-0.050987 
				18:[f40<0.603010] yes=37,no=38,missing=38
					37:leaf=0.008228 
					38:leaf=-0.011534 
		4:[f39<0.083810] yes=9,no=10,missing=10
			9:[f15<0.047257] yes=19,no=20,missing=20
				19:[f14<51.500000] yes=39,no=40,missing=40
					39:leaf=0.001291 
					40:leaf=-0.089217 
				20:[f2<0.370010] yes=41,no=42,missing=42
					41:leaf=-0.002967 
					42:leaf=-0.079847 
			10:[f1<-0.433289] yes=21,no=22,missing=22
				21:[f2<0.517106] yes=43,no=44,missing=44
					43:leaf=0.021917 
					44:leaf=-0.028511 
				22:[f2<-0.441397] yes=45,no=46,missing=46
					45:leaf=-0.052055 
					46:leaf=0.007147 
	2:[f37<14786.000000] yes=5,no=6,missing=6
		5:[f1<-0.433289] yes=11,no=12,missing=12
			11:[f8<0.250108] yes=23,no=24,missing=24
				23:[f15<0.425824] yes=47,no=48,missing=48
					47:leaf=0.023576 
					48:leaf=-0.193517 
				24:[f18<0.079842] yes=49,no=50,missing=50
					49:leaf=-0.045146 
					50:leaf=0.017407 
			12:[f40<-1.096502] yes=25,no=26,missing=26
				25:[f7<-0.689272] yes=51,no=52,missing=52
					51:leaf=-0.055721 
					52:leaf=0.041956 
				26:[f8<-0.549721] yes=53,no=54,missing=54
					53:leaf=0.079769 
					54:leaf=-0.012767 
		6:[f11<0.500000] yes=13,no=14,missing=14
			13:[f40<-1.424705] yes=27,no=28,missing=28
				27:[f4<1.672016] yes=55,no=56,missing=56
					55:leaf=-0.093445 
					56:leaf=0.089868 
				28:[f5<0.931610] yes=57,no=58,missing=58
					57:leaf=0.022087 
					58:leaf=-0.001320 
			14:[f9<-0.397864] yes=29,no=30,missing=30
				29:[f40<-0.175597] yes=59,no=60,missing=60
					59:leaf=-0.140257 
					60:leaf=-0.008242 
				30:[f40<0.281985] yes=61,no=62,missing=62
					61:leaf=0.040428 
					62:leaf=0.005936 
booster[44]
0:[f4<3.368545] yes=1,no=2,missing=2
	1:[f12<0.020204] yes=3,no=4,missing=4
		3:[f11<9.500000] yes=7,no=8,missing=8
			7:[f41<-0.288817] yes=15,no=16,missing=16
				15:[f2<0.096750] yes=29,no=30,missing=30
					29:leaf=-0.000161 
					30:leaf=-0.013651 
				16:[f9<-0.336163] yes=31,no=32,missing=32
					31:leaf=-0.010150 
					32:leaf=0.008314 
			8:[f33<0.076712] yes=17,no=18,missing=18
				17:[f40<-1.261232] yes=33,no=34,missing=34
					33:leaf=0.046084 
					34:leaf=-0.090520 
				18:[f14<813.000000] yes=35,no=36,missing=36
					35:leaf=-0.007653 
					36:leaf=-0.039475 
		4:[f22<15082.000000] yes=9,no=10,missing=10
			9:[f40<0.302262] yes=19,no=20,missing=20
				19:[f34<7846.000000] yes=37,no=38,missing=38
					37:leaf=-0.026469 
					38:leaf=-0.000811 
				20:[f3<0.378515] yes=39,no=40,missing=40
					39:leaf=0.020667 
					40:leaf=-0.002553 
			10:[f12<0.033908] yes=21,no=22,missing=22
				21:[f8<0.514567] yes=41,no=42,missing=42
					41:leaf=0.094351 
					42:leaf=-0.151855 
				22:[f10<3.500000] yes=43,no=44,missing=44
					43:leaf=0.009764 
					44:leaf=0.043095 
	2:[f40<-1.509402] yes=5,no=6,missing=6
		5:[f6<0.640306] yes=11,no=12,missing=12
			11:leaf=-0.147124 
			12:[f14<258.500000] yes=23,no=24,missing=24
				23:[f34<7846.000000] yes=45,no=46,missing=46
					45:leaf=0.097043 
					46:leaf=-0.051113 
				24:leaf=-0.147398 
		6:[f2<0.431417] yes=13,no=14,missing=14
			13:[f1<0.101994] yes=25,no=26,missing=26
				25:[f3<-1.754260] yes=47,no=48,missing=48
					47:leaf=-0.101608 
					48:leaf=0.034199 
				26:[f8<-0.427167] yes=49,no=50,missing=50
					49:leaf=-0.047633 
					50:leaf=0.018420 
			14:[f41<2.140401] yes=27,no=28,missing=28
				27:[f5<1.682797] yes=51,no=52,missing=52
					51:leaf=-0.056643 
					52:leaf=0.070509 
				28:[f6<1.038636] yes=53,no=54,missing=54
					53:leaf=0.065594 
					54:leaf=0.214863 
booster[45]
0:[f7<-0.586774] yes=1,no=2,missing=2
	1:[f8<-0.117556] yes=3,no=4,missing=4
		3:[f33<0.078822] yes=7,no=8,missing=8
			7:[f6<1.989316] yes=15,no=16,missing=16
				15:[f40<-1.322781] yes=31,no=32,missing=32
					31:leaf=-0.044012 
					32:leaf=-0.008735 
				16:[f40<-0.945769] yes=33,no=34,missing=34
					33:leaf=0.011207 
					34:leaf=-0.189041 
			8:[f2<0.256058] yes=17,no=18,missing=18
				17:[f14<339.000000] yes=35,no=36,missing=36
					35:leaf=0.008235 
					36:leaf=-0.003448 
				18:[f14<1742.000000] yes=37,no=38,missing=38
					37:leaf=-0.025166 
					38:leaf=0.023103 
		4:[f6<-0.865449] yes=9,no=10,missing=10
			9:[f16<4910.500000] yes=19,no=20,missing=20
				19:[f3<1.970556] yes=39,no=40,missing=40
					39:leaf=-0.047682 
					40:leaf=0.131621 
				20:[f40<-1.309861] yes=41,no=42,missing=42
					41:leaf=-0.097176 
					42:leaf=0.001894 
			10:[f2<-0.449632] yes=21,no=22,missing=22
				21:[f12<0.185374] yes=43,no=44,missing=44
					43:leaf=-0.150200 
					44:leaf=0.034364 
				22:[f8<2.468988] yes=45,no=46,missing=46
					45:leaf=-0.005289 
					46:leaf=-0.029045 
	2:[f37<7846.000000] yes=5,no=6,missing=6
		5:[f25<15537.000000] yes=11,no=12,missing=12
			11:[f7<0.318104] yes=23,no=24,missing=24
				23:[f14<1172.000000] yes=47,no=48,missing=48
					47:leaf=-0.046310 
					48:leaf=-0.130712 
				24:[f3<-0.214683] yes=49,no=50,missing=50
					49:leaf=0.015724 
					50:leaf=-0.049827 
			12:[f40<-0.887091] yes=25,no=26,missing=26
				25:[f11<4.500000] yes=51,no=52,missing=52
					51:leaf=-0.058362 
					52:leaf=0.023457 
				26:[f40<1.030804] yes=53,no=54,missing=54
					53:leaf=0.000583 
					54:leaf=-0.075903 
		6:[f40<-1.546009] yes=13,no=14,missing=14
			13:[f41<0.318488] yes=27,no=28,missing=28
				27:[f15<0.123681] yes=55,no=56,missing=56
					55:leaf=-0.064617 
					56:leaf=-0.007580 
				28:[f1<1.593140] yes=57,no=58,missing=58
					57:leaf=0.066891 
					58:leaf=-0.075861 
			14:[f18<0.097428] yes=29,no=30,missing=30
				29:[f3<1.559627] yes=59,no=60,missing=60
					59:leaf=0.000851 
					60:leaf=0.013986 
				30:[f4<5.123574] yes=61,no=62,missing=62
					61:leaf=0.011786 
					62:leaf=0.054087 
booster[46]
0:[f15<0.045924] yes=1,no=2,missing=2
	1:[f14<67.500000] yes=3,no=4,missing=4
		3:[f40<1.110118] yes=7,no=8,missing=8
			7:[f40<-1.533448] yes=15,no=16,missing=16
				15:[f1<-0.203882] yes=31,no=32,missing=32
					31:leaf=-0.086988 
					32:leaf=0.019691 
				16:[f7<-2.723323] yes=33,no=34,missing=34
					33:leaf=-0.100242 
					34:leaf=-0.001912 
			8:[f11<0.500000] yes=17,no=18,missing=18
				17:[f40<1.140265] yes=35,no=36,missing=36
					35:leaf=0.089043 
					36:leaf=0.018045 
				18:[f2<-0.411612] yes=37,no=38,missing=38
					37:leaf=0.068288 
					38:leaf=-0.021937 
		4:[f15<0.014196] yes=9,no=10,missing=10
			9:[f13<1.500000] yes=19,no=20,missing=20
				19:[f36<0.086170] yes=39,no=40,missing=40
					39:leaf=-0.071014 
					40:leaf=-0.021023 
				20:[f31<2874.000000] yes=41,no=42,missing=42
					41:leaf=-0.036429 
					42:leaf=-0.112885 
			10:[f8<1.014461] yes=21,no=22,missing=22
				21:[f14<210.000000] yes=43,no=44,missing=44
					43:leaf=-0.020120 
					44:leaf=0.002861 
				22:[f7<1.351862] yes=45,no=46,missing=46
					45:leaf=-0.065122 
					46:leaf=0.023168 
	2:[f2<-0.368561] yes=5,no=6,missing=6
		5:[f34<7846.000000] yes=11,no=12,missing=12
			11:[f14<9.500000] yes=23,no=24,missing=24
				23:[f18<0.075262] yes=47,no=48,missing=48
					47:leaf=-0.069364 
					48:leaf=-0.165324 
				24:[f40<-0.523538] yes=49,no=50,missing=50
					49:leaf=-0.041416 
					50:leaf=-0.014136 
			12:[f40<-1.549239] yes=25,no=26,missing=26
				25:[f6<0.941105] yes=51,no=52,missing=52
					51:leaf=-0.116807 
					52:leaf=0.051964 
				26:[f7<-1.026605] yes=53,no=54,missing=54
					53:leaf=-0.018866 
					54:leaf=0.001983 
		6:[f16<93.500000] yes=13,no=14,missing=14
			13:[f2<-0.180331] yes=27,no=28,missing=28
				27:[f2<-0.281085] yes=55,no=56,missing=56
					55:leaf=0.017104 
					56:leaf=-0.195113 
